{"last": {"acc": 0.6264, "bias": [-0.0009756497498789454, 0.0038594052193669124, 0.0004348878654082055, -0.0006121138408370216, 0.0006872201654985231, -0.0006335047285924221, -0.0015796831887520777, 0.0025844255109898455, -0.00249811211246357, -0.0012668751407394526], "weights": [[0.0, 0.0, 0.0, 0.0, 0.0, 0.0, 0.0, 0.0, 0.0, 0.0, 0.0, 0.0, 0.0, 0.0, 0.0, 0.0, 0.0, 0.0, 0.0, 0.0, 0.0, 0.0, 0.0, 0.0, 0.0, 0.0, 0.0, 0.0, 0.0, 0.0, 0.0, 0.0, 0.0, 0.0, 0.0, 0.0, 0.0, 0.0, 0.0, 0.0, 0.0, 0.0, 0.0, 0.0, 0.0, 0.0, 0.0, 0.0, 0.0, 0.0, 0.0, 0.0, 0.0, 0.0, 0.0, 0.0, 0.0, 0.0, 0.0, 0.0, 0.0, 0.0, 0.0, 0.0, 0.0, 0.0, 0.0, 0.0, 0.0, 0.0, 0.0, 0.0, 0.0, 0.0, 0.0, 0.0, 0.0, 0.0, 0.0, 0.0, 0.0, 0.0, 0.0, 0.0, 0.0, 0.0, 0.0, 0.0, 0.0, 0.0, 0.0, 0.0, 0.0, 0.0, 0.0, 0.0, 0.0, 0.0, 0.0, 0.0, 0.0, 0.0, 0.0, 0.0, 0.0, 0.0, 0.0, 0.0, 0.0, 0.0, 0.0, 0.0, 0.0, 0.0, 0.0, 0.0, 0.0, 0.0, 0.0, 0.0, 0.0, 0.0, 0.0, 0.0, 0.0, 0.0, 0.0, 0.0, 0.0, 0.0, 0.0, 0.0, 0.0, 0.0, 0.0, 0.0, 0.0, 0.0, 0.0, 0.0, 0.0, 0.0, 0.0, 0.0, 0.0, 0.0, 0.0, 0.0, 0.0, 0.0, 0.0, 0.0, 0.0, 0.0, 0.0, 0.0, 0.0, 0.0, 0.0, 0.0, 0.0, 0.0, 0.0, 0.0, 0.0, 0.0, 0.0, 0.0, 0.0, 0.0, 0.0, 0.0, 0.0, 0.0, 0.0, 0.0, 0.0, 0.0, 0.0, 0.0, 0.0, 0.0, 0.0, 0.0, 0.0, 0.0, 0.0, 0.0, 0.0, 0.0, 0.0, 0.0, 0.0, 0.0, 0.0, 0.0, 0.0, 0.0, 0.0, 0.0, 0.0, 0.0, 0.0, 0.0, 0.0, 0.0, 0.0, 0.0, 0.0, 0.0, 0.0, 0.0, 0.0, 0.0, 0.0, 0.0, 0.0, 0.0, 0.0, 0.0, 0.0, 0.0, 0.0, 0.0, 0.0, 0.0, 0.0, 0.0, 0.0, 0.0, 0.0, 0.0, 0.0, 0.0, 0.0, 0.0, 0.0, 0.0, 0.0, 0.0, 0.0, 0.0, 0.0, 0.0, 0.0, 0.0, 0.0, 0.0, 0.0, 0.0, 0.0, 0.0, 0.0, 0.0, 0.0, 0.0, 0.0, 0.0, 0.0, 0.0, 0.0, 0.0, 0.0, 0.0, 0.0, 0.0, 0.0, 0.0, 0.0, 0.0, 0.0, 0.0, 0.0, 0.0, 0.0, 0.0, 0.0, 0.0, 0.0, 0.0, 0.0, 0.0, 0.0, 0.0, 0.0, 0.0, 0.0, 0.0, 0.0, 0.0, 0.0, 0.0, 0.0, 0.0, 0.0, 0.0, 0.0, 0.0, 0.0, 0.0, 0.0, 0.0, 0.0, 0.0, 0.0, 0.0, 0.0, 0.0, 0.0, 0.0, 0.0, 0.0, 0.0, 0.0, 0.0, 0.0, 0.0, 0.0, 0.0, 0.0, 0.0, 0.0, 0.0, 0.0, 0.0, 0.0, 0.0, 0.0, 0.0, 0.0, 0.0, 0.0, 0.0, 0.0, 0.0, 0.0, 0.0, 0.0, 0.0, 0.0, 0.0, 0.0, 0.0, 0.0, 0.0, 0.0, 0.0, 0.0, 0.0, 0.0, 0.0, 0.0, 0.0, 0.0, 0.0, 0.0, 0.0, 0.0, 0.0, 0.0, 0.0, 0.0, 0.0, 0.0, 0.0, 0.0, 0.0, 0.0, 0.0, 0.0, 0.0, 0.0, 0.0, 0.0, 0.0, 0.0, 0.0, 0.0, 0.0, 0.0, 0.0, 0.0, -6.1153440053682366e-06, -1.4435242591302923e-05, -1.0555205903893888e-05, -1.3335310434878531e-05, -2.0492249713284453e-05, -2.38002925541374e-05, -2.5523463922065544e-05, -2.651783299163887e-05, -2.534179124817419e-05, -1.75395730424482e-05, -1.1918745287647915e-05, -1.4879385622933423e-05, -1.2999277502495792e-05, 0.0, 0.0, 0.0, 0.0, 0.0, 0.0, 0.0, 0.0, 0.0, 0.0, 0.0, 0.0, 0.0, 0.0, 0.0, 0.0, 0.0, 0.0, 0.0, 0.0, 0.0, 0.0, 0.0, 0.0, 0.0, 0.0, 0.0, 0.0, 0.0, 0.0, 0.0, 0.0, 0.0, 0.0, 0.0, 0.0, 0.0, 0.0, 0.0, 0.0, 0.0, 0.0, 0.0, 0.0, 0.0, 0.0, 0.0, 0.0, -3.1843912734262032e-06, -6.958484634523926e-06, -6.958484634523926e-06, -6.958484634523926e-06, -6.958484634523926e-06, -6.958484634523926e-06, -6.958484634523926e-06, -6.958484634523926e-06, -6.958484634523926e-06, -6.958484634523926e-06, -1.3073828639892161e-05, -1.1051365282270189e-05, -1.919051720102065e-05, -2.9757753443124446e-05, -3.0678014302166656e-05, -3.1060447295811065e-05, -2.9891852089948563e-05, -3.459141427461994e-05, -3.514925779784463e-05, -3.18196625437882e-05, -3.305286162685586e-05, -6.124357622233281e-06, -6.730502638031733e-06, -6.958484634523926e-06, -6.958484634523926e-06, -6.958484634523926e-06, -6.958484634523926e-06, -6.840544216989622e-06, -2.358808350686076e-06, 0.0, 0.0, 0.0, 0.0, 0.0, 0.0, 0.0, 0.0, 0.0, 0.0, 0.0, 0.0, 0.0, 0.0, 0.0, 0.0, 0.0, 0.0, 0.0, 0.0, 0.0, 0.0, 0.0, 0.0, 0.0, 0.0, 0.0, 0.0, 0.0, 0.0, 0.0, 0.0, 0.0, 0.0, 0.0, 0.0, 0.0, 0.0, 0.0, 0.0, 0.0, 0.0, -1.3975939477815004e-05, -1.5037403235623737e-05, -1.5037403235623737e-05, -1.5037403235623737e-05, -1.5037403235623737e-05, -1.5037403235623737e-05, -1.5037403235623737e-05, -1.5037403235623737e-05, -1.5037403235623737e-05, -1.5037403235623737e-05, -1.50848802853569e-05, -1.3443400110356539e-05, -2.5272273486302877e-05, -3.294427937160192e-05, -2.9924572837665472e-05, -1.7424864770767173e-05, -1.6526445264275148e-05, -1.8099174569827958e-05, -2.858150427423773e-05, -5.0961467418211506e-05, -4.277552558029067e-05, -2.232995136105208e-05, 4.473474579932078e-06, -9.402955348248314e-06, -1.5037403235623737e-05, -1.5037403235623737e-05, -1.5037403235623737e-05, -1.5037403235623737e-05, -1.2206833214800445e-05, 0.0, 0.0, 0.0, 0.0, 0.0, 0.0, 0.0, 0.0, 0.0, 0.0, 0.0, 0.0, 0.0, 0.0, 0.0, 0.0, 0.0, 0.0, 0.0, 0.0, 0.0, 0.0, 0.0, 0.0, 0.0, 0.0, 0.0, 0.0, 0.0, 0.0, 0.0, 0.0, 0.0, 0.0, 0.0, 0.0, 0.0, 0.0, 0.0, 0.0, 0.0, 0.0, -1.6777272957717558e-05, -1.7601951091889195e-05, -1.7601951091889195e-05, -1.7601951091889195e-05, -1.7601951091889195e-05, -1.7601951091889195e-05, -1.7601951091889195e-05, -1.7601951091889195e-05, -1.7601951091889195e-05, -2.244484421049119e-05, -1.77473642440779e-05, -4.123809758698254e-05, -5.421188689737392e-05, -6.596894033933875e-05, -4.822331619009673e-05, -4.363818299675546e-05, -4.398887803939253e-05, -4.031264002236038e-05, -4.5093601252434135e-05, -6.824347595093794e-05, -6.710563133481059e-05, -3.36177775336029e-05, -1.2915099969651389e-06, -5.558749730390177e-06, -1.9079651706051434e-05, -1.7601951091889195e-05, -1.7601951091889195e-05, -1.7484010674354894e-05, -1.0250321791663938e-05, 0.0, 0.0, 0.0, 0.0, 0.0, 0.0, 0.0, 0.0, 0.0, 0.0, 0.0, 0.0, 0.0, 0.0, 0.0, 0.0, 0.0, 0.0, 0.0, 0.0, 0.0, 0.0, 0.0, 0.0, 0.0, 0.0, 0.0, 0.0, 0.0, 0.0, 0.0, 0.0, 0.0, 0.0, 0.0, 0.0, 0.0, 0.0, 0.0, 0.0, 0.0, 0.0, -1.7601951091889195e-05, -1.7601951091889195e-05, -9.75891332585799e-06, -2.5645478562654586e-06, -6.9550170770605335e-06, -7.020071777300162e-06, -7.77138330083057e-06, -1.6164286000893703e-05, -2.6806764595103286e-05, -3.34247340147726e-05, -2.2266612894476863e-05, -3.3454612178260235e-05, -2.924116116487042e-05, 9.034014102650756e-06, 3.7081377015593596e-05, 4.3572699345178924e-05, 4.728048816055588e-05, 3.3883626836879604e-05, 1.6017810994839338e-05, -1.3656054410731355e-05, -4.7824784327474016e-05, -3.680306451609572e-05, 3.264852050591032e-07, 9.542206727822953e-06, -1.1870659642404933e-05, -1.1169363026234791e-05, -1.0883867634844613e-05, -6.493398414049538e-06, -6.37271380904881e-06, -3.928850557784079e-06, -3.6823344443544895e-06, 0.0, 0.0, 0.0, 0.0, 0.0, 0.0, 0.0, 0.0, 0.0, 0.0, 0.0, 0.0, 0.0, 0.0, 0.0, 0.0, 0.0, 0.0, 0.0, 0.0, 0.0, 0.0, 0.0, 0.0, 0.0, 0.0, 0.0, 0.0, 0.0, 0.0, 0.0, 0.0, 0.0, 0.0, 0.0, 0.0, 0.0, 0.0, 0.0, 0.0, -1.7601951091889195e-05, -1.7601951091889195e-05, -9.1682896919124e-06, -8.180885325208848e-06, -2.0540555325358248e-05, -3.8762677749398534e-05, -5.516450288283903e-05, -6.014581883166911e-05, -7.025430106531754e-05, -6.821550429970961e-05, -2.0656602261379477e-05, -7.867313115128244e-06, -1.9559944929950997e-05, 5.9569991362417035e-06, 2.1470182011713643e-05, 2.0487899809961095e-05, 2.3752668046478314e-05, 1.22819948134592e-05, 1.0224462604973373e-06, -3.0095171954619315e-06, -1.711345651984593e-05, -1.7285103478676797e-05, -8.783180373438411e-06, -2.5972339185629983e-05, -5.3821917376952064e-05, -5.800679456988678e-05, -5.1619586398187144e-05, -2.49459079551561e-05, -1.3821475205782319e-05, -1.0923003933819106e-05, -1.0676487820389517e-05, -6.93929727112495e-06, -7.679854687411009e-07, 0.0, 0.0, 0.0, 0.0, 0.0, 0.0, 0.0, 0.0, 0.0, 0.0, 0.0, 0.0, 0.0, 0.0, 0.0, 0.0, 0.0, 0.0, 0.0, 0.0, 0.0, 0.0, 0.0, 0.0, 0.0, 0.0, 0.0, 0.0, 0.0, 0.0, 0.0, 0.0, 0.0, 0.0, 0.0, 0.0, 0.0, 0.0, -1.7601951091889195e-05, -1.7656386191536505e-05, -1.0488872905371392e-05, -8.73645801939725e-06, -3.0896456805522876e-05, -5.4973036954869066e-05, -6.532182617449636e-05, -8.555499184550352e-05, -5.8103254496749286e-05, 1.6218578467898385e-05, 4.876363939930242e-05, 3.3901673535497496e-05, -8.920715903771522e-06, 7.247008697585687e-06, 2.3188319739837047e-05, 2.8174943761307478e-05, 2.147630735009265e-05, 1.359875957786246e-05, 1.1025293501856386e-05, 6.958551913851852e-06, -7.444054886522778e-06, 1.2982625039881586e-05, 5.6957097763405814e-05, 4.131946703703119e-05, -2.2816222054948444e-05, -6.391656682281606e-05, -6.204021866181084e-05, -3.9170220536967024e-05, -1.1876087167071493e-05, -1.0923003933819106e-05, -1.0676487820389517e-05, -5.129045809092352e-06, 0.0, 0.0, 0.0, 0.0, 0.0, 0.0, 0.0, 0.0, 0.0, 0.0, 0.0, 0.0, 0.0, 0.0, 0.0, 0.0, 0.0, 0.0, 0.0, 0.0, 0.0, 0.0, 0.0, 0.0, 0.0, 0.0, 0.0, 0.0, 0.0, 0.0, 0.0, 0.0, 0.0, 0.0, 0.0, 0.0, 0.0, 0.0, 0.0, -1.7601951091889195e-05, -2.198397661349751e-05, -1.552454062801018e-05, -2.6005560784383305e-05, -5.034695886302932e-05, -7.451383705936316e-05, -9.354853637145773e-05, -2.1093351181484442e-05, 4.478701836682725e-05, 6.375487785014005e-05, 4.2869532668079694e-05, 2.868045846277796e-05, 3.373509953441e-05, 6.477284937441809e-05, 6.82399361674659e-05, 6.489869313786743e-05, 5.803161721554659e-05, 4.793100095681308e-05, 5.644336078791936e-05, 5.705823173116616e-05, 2.0257997855790973e-05, 4.904160626600568e-07, 3.867683309953438e-05, 9.269784740386734e-05, 6.504859646063652e-05, -6.0271324089398645e-06, -5.170377780184957e-05, -3.250639194836785e-05, -1.0923003933819106e-05, -1.0923003933819106e-05, -1.0676487820389517e-05, -2.468524720953539e-06, 0.0, 0.0, 0.0, 0.0, 0.0, 0.0, 0.0, 0.0, 0.0, 0.0, 0.0, 0.0, 0.0, 0.0, 0.0, 0.0, 0.0, 0.0, 0.0, 0.0, 0.0, 0.0, 0.0, 0.0, 0.0, 0.0, 0.0, 0.0, 0.0, 0.0, 0.0, 0.0, 0.0, 0.0, 0.0, 0.0, 0.0, 0.0, 0.0, -1.7601951091889195e-05, -2.416138059938984e-05, -2.5368570524732314e-05, -3.725075782332297e-05, -6.72721461561571e-05, -9.192875213518748e-05, -2.7403211662419425e-05, 6.49915894677421e-05, 4.531229758837131e-05, 1.6759737644058316e-05, 4.2082824333246074e-05, 4.454500143222798e-05, 2.317122341012545e-05, 6.0595107206597446e-05, 7.490520867580716e-05, 5.7248057714831894e-05, 4.309471077431709e-05, 2.971407160982553e-05, 3.294607093661213e-05, 5.4415046656115305e-05, 5.5625768474336015e-05, 1.6628306170157617e-05, 3.2194140955630635e-06, 2.7700120221115055e-05, 6.14588070488108e-05, 6.353862558785829e-05, 2.332578693091748e-06, -2.6058838394390408e-05, -1.0923003933819106e-05, -1.0923003933819106e-05, -1.0292495086018967e-05, -2.1942441964031456e-07, 0.0, 0.0, 0.0, 0.0, 0.0, 0.0, 0.0, 0.0, 0.0, 0.0, 0.0, 0.0, 0.0, 0.0, 0.0, 0.0, 0.0, 0.0, 0.0, 0.0, 0.0, 0.0, 0.0, 0.0, 0.0, 0.0, 0.0, 0.0, 0.0, 0.0, 0.0, 0.0, 0.0, 0.0, 0.0, 0.0, 0.0, 0.0, 0.0, -1.7601951091889195e-05, -2.7063549455590545e-05, -4.2545452680439364e-05, -5.869988663841676e-05, -8.361876520855219e-05, -5.142324685575336e-05, 5.1309801102733215e-05, 4.4623063457656525e-05, -7.031693763562868e-08, 4.441241788244956e-05, 6.049618359536999e-05, 7.141815739242975e-05, 5.79109022451938e-05, 7.842260693079051e-05, 7.450286592545742e-05, 8.896592868236754e-05, 7.888898389116564e-05, 6.136899422682663e-05, 4.3874176543489334e-05, 5.9200712630086413e-05, 3.4111030065890206e-05, 6.194165478137415e-05, 4.706542767085694e-05, -7.390740858678566e-07, 5.404595790469631e-07, 3.7643108850975e-05, 6.427012048287466e-05, 1.9585512576445894e-06, -2.561593307441898e-05, -1.9938443718777176e-05, -1.5247407172400471e-05, -6.006357850743585e-06, 0.0, 0.0, 0.0, 0.0, 0.0, 0.0, 0.0, 0.0, 0.0, 0.0, 0.0, 0.0, 0.0, 0.0, 0.0, 0.0, 0.0, 0.0, 0.0, 0.0, 0.0, 0.0, 0.0, 0.0, 0.0, 0.0, 0.0, 0.0, 0.0, 0.0, 0.0, 0.0, 0.0, 0.0, 0.0, 0.0, 0.0, 0.0, 0.0, -1.7691290466268392e-05, -3.444509265726709e-05, -4.6996496638168e-05, -6.982117757754434e-05, -8.364942169053565e-05, 2.972634576127468e-05, 1.829990751900538e-05, -2.005375833654415e-05, -7.5142799033339045e-06, -1.4370544609890235e-05, -6.534953261073408e-06, -4.5118581782832e-05, -5.696506529261228e-05, -5.7477991999183405e-05, -1.3992855224214283e-05, -1.7487643526803386e-05, -5.630845897087896e-05, -5.758192137606007e-05, -5.178691230864501e-05, -4.320019225314137e-05, -0.00011252534463574175, -0.00011229493279481386, -2.0061552556824992e-05, -3.978178782060117e-05, -7.209077994288382e-05, -5.4033156888278806e-05, 1.1647275291254763e-06, 4.524274631145678e-05, -3.219743259148308e-05, -2.7386459005332778e-05, -1.3835755870841386e-05, -3.1882089065558367e-06, 0.0, 0.0, 0.0, 0.0, 0.0, 0.0, 0.0, 0.0, 0.0, 0.0, 0.0, 0.0, 0.0, 0.0, 0.0, 0.0, 0.0, 0.0, 0.0, 0.0, 0.0, 0.0, 0.0, 0.0, 0.0, 0.0, 0.0, 0.0, 0.0, 0.0, 0.0, 0.0, 0.0, 0.0, 0.0, 0.0, 0.0, 0.0, 0.0, -2.3315071475405404e-05, -4.025112281923174e-05, -5.4135586218709733e-05, -5.5393178896786467e-05, 1.8012090485203314e-05, 5.918743309654737e-05, -8.260720603452132e-06, 7.084492334593147e-06, 2.5152839701572912e-05, 5.713394924885636e-06, 9.642137650114455e-06, 2.3064245035808506e-05, -1.671077652118337e-05, 3.582649639388996e-05, 3.292935954822219e-05, 5.41803947752408e-07, -6.687089167293982e-05, -8.407869304094774e-05, -8.926385168066079e-05, 5.404158828286718e-06, 1.7829879708259273e-05, -2.5879224355285043e-05, 3.927430620183342e-05, 9.381826659474745e-05, -1.2608850390873979e-05, -1.3359724245109806e-05, 1.292589743224218e-05, 7.452008807958316e-05, 4.858822755688874e-05, -3.067979844417386e-05, -1.2076208119733459e-05, -5.693230190278281e-07, 0.0, 0.0, 0.0, 0.0, 0.0, 0.0, 0.0, 0.0, 0.0, 0.0, 0.0, 0.0, 0.0, 0.0, 0.0, 0.0, 0.0, 0.0, 0.0, 0.0, 0.0, 0.0, 0.0, 0.0, 0.0, 0.0, 0.0, 0.0, 0.0, 0.0, 0.0, 0.0, 0.0, 0.0, 0.0, 0.0, 0.0, 0.0, 0.0, -3.0299174739817192e-05, -4.763689743609817e-05, -5.715047304527613e-05, -2.2746099171879536e-05, 9.540146094586346e-05, 3.1898732559088794e-05, -2.86436116865587e-06, 3.251105114495561e-05, 2.5546531813430586e-05, 6.28881881153181e-05, 0.00010700466653484673, 2.3639494502229585e-05, 4.815949968098579e-05, 4.0700800429168414e-05, 8.099440613205643e-05, -1.3109623561734885e-06, -2.1423887065935143e-05, -2.559771589338165e-05, -7.290102998605521e-06, -6.838795968777851e-05, -1.0967091637763447e-05, 3.892313949738222e-05, 4.8601412182832866e-05, 0.0001571975745172505, 0.00012444496347932795, 1.2986182222534134e-05, 2.6116534359321232e-05, 5.070034860948341e-05, 0.00012153348412951214, -9.39376719464666e-06, -1.4112003803884538e-05, 0.0, 0.0, 0.0, 0.0, 0.0, 0.0, 0.0, 0.0, 0.0, 0.0, 0.0, 0.0, 0.0, 0.0, 0.0, 0.0, 0.0, 0.0, 0.0, 0.0, 0.0, 0.0, 0.0, 0.0, 0.0, 0.0, 0.0, 0.0, 0.0, 0.0, 0.0, 0.0, 0.0, 0.0, 0.0, 0.0, 0.0, -1.4770888811431704e-05, -1.1652661250798368e-05, 1.5302174330034891e-06, -2.796663480979407e-05, -4.508815167498367e-05, -4.3226071600729214e-05, 7.444307851114865e-05, 9.690001072596769e-05, 1.0800374269724474e-05, -3.735249071568433e-05, 2.5505376325955143e-05, 3.8714451876724524e-05, 8.16409684788399e-05, 3.463351505214441e-05, 5.4298668917364934e-05, 3.9659689789311744e-05, 9.301752437033378e-05, -3.5189595883047176e-06, -4.769870549223824e-05, -6.577427921292422e-05, -8.786120071341901e-05, -0.00010974592901762726, -5.431043463611961e-06, -5.996446804521169e-05, -7.1962203149992384e-06, 2.839865928947418e-05, 7.644861689675084e-05, 0.00012787992264910164, 7.966884034485444e-05, 9.678421501549427e-07, 3.327402631538075e-05, 0.00012253344833909266, 7.120752775197768e-05, -1.6548374728789897e-05, -1.2322451843760844e-06, -1.2048767405196308e-05, -1.4244352043248216e-05, 0.0, 0.0, 0.0, 0.0, 0.0, 0.0, 0.0, 0.0, 0.0, 0.0, 0.0, 0.0, 0.0, 0.0, 0.0, 0.0, 0.0, 0.0, 0.0, 0.0, 0.0, 0.0, 0.0, 0.0, 0.0, 0.0, 0.0, 0.0, 0.0, 0.0, 0.0, 0.0, 0.0, 0.0, -1.1965475705891641e-05, 7.628460675873798e-06, 9.766586110973221e-06, -2.9964272272616487e-05, -6.185702375589072e-05, -7.433463237380936e-05, 9.202323656519268e-05, -4.720154283329543e-06, -0.00010029356449008076, -0.00016539416806518736, -3.173718210935056e-05, -7.566183829521392e-05, -7.339705466750542e-05, -9.869979064118017e-05, -0.00013308562527293696, -2.8030905857057897e-05, -2.4340165036625315e-06, 3.0686970688101944e-05, 7.27371751623679e-05, 5.111133213354507e-06, -0.00011556267081667567, -0.00028252827623774637, -0.00032958631983142435, -0.00034167761276472847, -0.00030980657829650024, -0.00022232414005989324, -0.00013689756437472737, -4.5121391724702714e-05, -9.403478175804408e-05, -7.927286769408334e-05, -0.00010819734974562444, 2.0143788411091912e-05, 7.598284497923745e-05, -3.971220220869879e-05, -2.5736911784519687e-05, 2.7338506606245627e-06, -1.1180418876364023e-05, 0.0, 0.0, 0.0, 0.0, 0.0, 0.0, 0.0, 0.0, 0.0, 0.0, 0.0, 0.0, 0.0, 0.0, 0.0, 0.0, 0.0, 0.0, 0.0, 0.0, 0.0, 0.0, 0.0, 0.0, 0.0, 0.0, 0.0, 0.0, 0.0, 0.0, 0.0, 0.0, 0.0, 0.0, -7.29880073114375e-06, 1.3105642376133183e-06, 1.3105642376133183e-06, -4.640638492149392e-05, -2.9017886375611484e-06, 9.243683808775806e-06, 0.00011845829178429319, -7.501313292878119e-06, -0.00013079640575876087, -0.00012572703228436256, -7.54448329406507e-05, -5.14042756976034e-05, -5.161644307408914e-05, 3.395722515225074e-05, 0.00013411636872231322, 0.00023137887829417344, 0.0002669529717006096, 0.0002451511709772634, 0.00018670383274751792, 7.551231870220185e-05, 9.790923527328477e-06, -0.00014392504133551727, -0.0002558330882775379, -0.000396761842786592, -0.00033205733115202407, -0.0003013424538224315, -0.00024805576861862606, -8.791332876828249e-05, -0.00018617481188502261, -9.134183578572513e-05, -5.924186684969756e-05, -6.597921099920391e-05, 7.925906548295511e-05, -3.0041950943792558e-06, -3.6096828233159764e-05, -4.238498529565607e-06, 2.9296742916786014e-06, 0.0, 0.0, 0.0, 0.0, 0.0, 0.0, 0.0, 0.0, 0.0, 0.0, 0.0, 0.0, 0.0, 0.0, 0.0, 0.0, 0.0, 0.0, 0.0, 0.0, 0.0, 0.0, 0.0, 0.0, 0.0, 0.0, 0.0, 0.0, 0.0, 0.0, 0.0, 0.0, 0.0, 0.0, -2.5020884637067587e-07, 1.3105642376133183e-06, -2.420130098907736e-05, -6.830623074167321e-05, -3.8994307828894915e-05, 3.0914686718413304e-05, 5.203873067398535e-05, -0.00011059669433472147, -0.00017656996148676787, -0.0001788948172531241, -6.029772921015616e-05, 2.089587028584592e-05, -4.997119744392601e-05, 0.0002209055783039012, 0.00017630338101978711, 0.0002399865952496702, 0.00017524794273576842, 0.0001459478359511582, 4.231809393510212e-05, -0.0001286448683886939, -0.00021476184221080853, -0.00022996134914737186, -0.00019993276311554642, -0.0004322032419140626, -0.0003018907227267862, -0.0003273652465617262, -0.0002452186301269681, -0.00012401312380359977, -0.0002952610043155416, -0.00021509044099059279, -0.0001412091275166974, -0.0001246195183270928, 2.406813144108168e-05, 8.121147559938132e-06, -6.836246094011921e-05, -2.7052537146618066e-05, -1.4517450996506191e-05, -1.635021939426354e-05, 0.0, 0.0, 0.0, 0.0, 0.0, 0.0, 0.0, 0.0, 0.0, 0.0, 0.0, 0.0, 0.0, 0.0, 0.0, 0.0, 0.0, 0.0, 0.0, 0.0, 0.0, 0.0, 0.0, 0.0, 0.0, 0.0, 0.0, 0.0, 0.0, 0.0, 0.0, 0.0, 0.0, 1.2814722599454901e-06, -2.4715344672383997e-06, -3.625175408659283e-05, -6.542846029403544e-05, -4.1087561490800423e-05, 5.538596433754828e-05, 2.9242369641218908e-05, -9.897529666336147e-05, -0.0001837289213305418, -5.39901381986727e-05, 5.153318703965737e-05, -5.055344993830224e-05, -3.913138960432043e-06, 1.2546274437600024e-06, 8.690428476543692e-05, 0.00015544073416014667, 6.822610080600374e-05, 8.535699624239188e-06, -7.933371224097356e-05, -0.0001932294633546605, -0.0002692716631579777, -0.00041314485849674337, -0.0003822682572892146, -0.00043652530407630466, -0.0004697641499683119, -0.00046362526612423165, -0.0003702021714626615, -0.0001442212212018298, -0.00014364692573977234, -0.00024312674360704123, -0.0001753596922343833, -8.902177365419998e-05, -1.898378896231029e-05, 4.1503001775127915e-05, -8.066353997077291e-05, -3.50678947627523e-05, -2.146003427690796e-05, -2.6047905889519424e-05, -2.259018118318144e-06, 0.0, 0.0, 0.0, 0.0, 0.0, 0.0, 0.0, 0.0, 0.0, 0.0, 0.0, 0.0, 0.0, 0.0, 0.0, 0.0, 0.0, 0.0, 0.0, 0.0, 0.0, 0.0, 0.0, 0.0, 0.0, 0.0, 0.0, 0.0, 0.0, 0.0, 0.0, 0.0, 1.2814722599454901e-06, -2.068410867145112e-06, -2.453167902108943e-05, -6.411063833028837e-05, -1.3950628864201165e-05, 5.632139807386088e-05, 4.762860662077376e-05, -0.00016790241055649437, -0.00011530633326658119, 4.511406444532451e-05, -9.42220836723163e-05, -0.0003239035960242974, -0.00039223525863836225, -0.00017236483494033247, -0.00010295277114631376, -0.00025896600886519375, 7.372686153790625e-05, 0.0003990275051150775, 0.0005146850537890651, 0.0003703570729169302, 0.0001731119449230996, 4.290628243681737e-05, -0.0002519446580739963, -0.0009170344908889693, -0.0011473991583223632, -0.0010600548820538054, -0.0008414430677089321, -0.0006740363018934589, -0.0002638002460122957, -0.0001069965243025683, -0.0002752713840977054, -0.00012312456515268865, -5.49304509184072e-05, 4.342667044887813e-05, -8.206331983672795e-05, -4.4335258519748064e-05, -2.1953858899539244e-05, -2.6047905889519424e-05, -2.259018118318144e-06, 0.0, 0.0, 0.0, 0.0, 0.0, 0.0, 0.0, 0.0, 0.0, 0.0, 0.0, 0.0, 0.0, 0.0, 0.0, 0.0, 0.0, 0.0, 0.0, 0.0, 0.0, 0.0, 0.0, 0.0, 0.0, 0.0, 0.0, 0.0, 0.0, 0.0, 0.0, 0.0, 1.2814722599454901e-06, 5.7831250657966425e-06, -2.4153028749000953e-05, -7.300107875629363e-05, 5.153560469985058e-06, -2.6441124727464735e-05, -0.00010210494966656793, -0.0002813300789429774, -7.977575252276296e-05, -0.00026274875670852195, -0.0005161601389360736, -0.0009646014827710682, -0.0007609312678908032, -0.0005963172098621376, -0.00037078637263752366, 0.0003464632913107129, 0.0006854592598223463, 0.0006588832051933672, 0.0006399685975180745, 0.00032296185609905924, 2.3380617128927648e-05, -0.00013603229661595295, -0.00013095600979707726, -0.0005270172952206256, -0.0008678131464265553, -0.0012724094208596216, -0.0014603238255907992, -0.0010923962567120642, -0.0006300110241403592, -7.619350252168139e-05, -7.071050847330958e-05, -0.00020258651856921715, -0.00011809337598293864, 6.970631619407353e-06, -4.340689996821155e-05, -5.3409558698331756e-05, -2.7988083199135465e-05, -2.6294818200835066e-05, -2.259018118318144e-06, 0.0, 0.0, 0.0, 0.0, 0.0, 0.0, 0.0, 0.0, 0.0, 0.0, 0.0, 0.0, 0.0, 0.0, 0.0, 0.0, 0.0, 0.0, 0.0, 0.0, 0.0, 0.0, 0.0, 0.0, 0.0, 0.0, 0.0, 0.0, 0.0, 0.0, 0.0, 0.0, 1.8259471429737998e-06, 1.179542193990246e-05, -2.622498672199255e-05, -6.920070950689525e-05, 1.7261226312299717e-05, -1.9943015740672226e-05, -3.210251683115438e-05, 0.0001204576630798132, 4.8545860353116675e-05, -5.621615805302903e-05, -0.00045397164204003925, -0.0007131932039291844, -0.0004244369787962546, 0.00029821797030177467, 0.0008845449249928672, 0.001100526287406882, 0.0007758100431358022, 0.0004053300895685712, 1.4793876082260779e-05, -0.0004445784803113443, -0.0005604010951348264, -0.00023863047947302507, 0.00012582725507194085, 0.0001306831614104749, 0.00011025492234316219, 8.025457138127984e-05, -0.0005683662649951121, -0.0011638372347036172, -0.0005768483244222298, 6.750712073845929e-05, 0.00025732027053224234, 0.00016185134954976605, -7.400825085678749e-05, -3.674723366596062e-05, -2.7531414609137378e-05, -5.551352476790323e-05, -3.528404493460276e-05, -2.814276620368259e-05, -2.259018118318144e-06, 0.0, 0.0, 0.0, 0.0, 0.0, 0.0, 0.0, 0.0, 0.0, 0.0, 0.0, 0.0, 0.0, 0.0, 0.0, 0.0, 0.0, 0.0, 0.0, 0.0, 0.0, 0.0, 0.0, 0.0, 0.0, 0.0, 0.0, 0.0, 0.0, 0.0, 0.0, 0.0, 1.1413506139804714e-05, 1.6021108945393784e-05, -1.3111899757845124e-05, -6.885741643981095e-05, 5.649157735332898e-05, 5.088707450306914e-05, 0.0003063493669841677, 0.0003498558984079347, 0.0002939193554094435, 0.00011709969602097234, 9.199192174495728e-05, 6.368337649838526e-05, 0.0005823966579961821, 0.001242852368999398, 0.0013795249230166742, 0.001043439311038456, 0.0005871581440398746, 0.00012754367760117098, -0.0003043021037323922, -0.0009967343684365705, -0.0012076814035173508, -0.0008289481093583545, -5.492625873583939e-05, 0.0005993520874921996, 0.0009994509761920472, 0.0011865091202203535, 0.000608929804020515, 0.0001338800053773858, -0.00023717845336699658, 0.00020906181657503312, 0.0005378617453626432, 0.0005406797065320734, 0.0002685591456522938, 4.266649868655469e-05, -2.147023722743756e-06, -5.036635902136131e-05, -1.55251934624127e-05, -2.7483136709517958e-05, -2.368756923347318e-06, 0.0, 0.0, 0.0, 0.0, 0.0, 0.0, 0.0, 0.0, 0.0, 0.0, 0.0, 0.0, 0.0, 0.0, 0.0, 0.0, 0.0, 0.0, 0.0, 0.0, 0.0, 0.0, 0.0, 0.0, 0.0, 0.0, 0.0, 0.0, 0.0, 0.0, 0.0, 0.0, 1.6458841523676132e-05, 1.6583962429013804e-05, -1.5851980856072858e-05, -8.390304171951645e-05, 0.00014543604080246642, 0.0003258605640732878, 0.0005395391809657904, 0.0005953865807318515, 0.0005815587495293347, 0.0006689427656048274, 0.0010591928504698042, 0.0009534085196650703, 0.0014445309169516718, 0.0017890885146292393, 0.0013207954042030192, 0.000960312974287634, 0.00041781712834684754, -3.155507285049706e-05, -0.0007285696738165714, -0.0013808155504362073, -0.0015265372439586572, -0.0011440732926173826, -0.0005349766859614061, 0.00029088432662096025, 0.0012049711487001284, 0.0018968596495389897, 0.0015482494761085933, 0.0011338329094559211, 0.0009419364983427541, 0.0005918874730384785, 0.000717093157488611, 0.0007556938368959618, 0.000542350225442221, 0.0002819805716617921, 6.679116517205281e-05, -6.312941002281823e-05, -3.0177380902769455e-05, -2.58564338042576e-05, -3.0820591560369486e-06, 0.0, 0.0, 0.0, 0.0, 0.0, 0.0, 0.0, 0.0, 0.0, 0.0, 0.0, 0.0, 0.0, 0.0, 0.0, 0.0, 0.0, 0.0, 0.0, 0.0, 0.0, 0.0, 0.0, 0.0, 0.0, 0.0, 0.0, 0.0, 0.0, 0.0, 0.0, 0.0, 1.973596472671884e-05, 1.6065887068531934e-05, -2.5386247052854618e-05, -3.8660042347175285e-05, 0.0003179594284192475, 0.0005749579643829684, 0.0007185407790829478, 0.0007497319060647792, 0.0009267065241230626, 0.00152732684349172, 0.001620956595634184, 0.0015629478060039614, 0.0019084546064304748, 0.0017402889402158251, 0.0014578956905682726, 0.0011133760980500172, 0.0007410080509839735, -8.532930843477235e-06, -0.000785637280848746, -0.001438352738192297, -0.001611872687890857, -0.001032638723677845, -0.0004093101461904879, -5.1373266033985075e-05, 0.000908075318588584, 0.0019279846370917697, 0.002422819622042707, 0.0019056432691500315, 0.001768169023371388, 0.0014389338870161301, 0.0010897104312614099, 0.0008911820263868003, 0.0007577932389758652, 0.0005209877823459747, 0.00023484935215964872, -4.5915205097299106e-05, -3.8536315514216314e-05, -2.471432059083789e-05, -1.681223421369143e-06, 0.0, 0.0, 0.0, 0.0, 0.0, 0.0, 0.0, 0.0, 0.0, 0.0, 0.0, 0.0, 0.0, 0.0, 0.0, 0.0, 0.0, 0.0, 0.0, 0.0, 0.0, 0.0, 0.0, 0.0, 0.0, 0.0, 0.0, 0.0, 0.0, 0.0, 0.0, 0.0, 2.12579320341406e-05, 1.5864413317233428e-05, -7.861203848193315e-06, 4.716994377757315e-05, 0.00047207168876034776, 0.0008111000436973736, 0.0008032674820733193, 0.001069946012991817, 0.001555891018460195, 0.0020916951189811324, 0.0021658739339928575, 0.0021266079389104103, 0.002303089171362867, 0.00192242504696926, 0.001654551294736422, 0.001116045517665475, 0.0005870406311724628, -9.231442211796027e-05, -0.0009981874367746288, -0.0015906009977657298, -0.0017709947245452013, -0.0010635184946468828, -0.00028446729443594497, 3.6064763001824366e-05, 0.0006396156972536682, 0.001715108270809815, 0.0026000144437986865, 0.0027734801356395153, 0.002419791088985053, 0.002218291616685899, 0.0015108557583302824, 0.0012538093600633913, 0.0008745814293306478, 0.0007134402170915569, 0.0004042890259123958, 2.8735059184657682e-05, -2.0208971392101265e-05, -2.5636074832886337e-05, -1.5637779716657291e-06, 0.0, 0.0, 0.0, 0.0, 0.0, 0.0, 0.0, 0.0, 0.0, 0.0, 0.0, 0.0, 0.0, 0.0, 0.0, 0.0, 0.0, 0.0, 0.0, 0.0, 0.0, 0.0, 0.0, 0.0, 0.0, 0.0, 0.0, 0.0, 0.0, 0.0, 0.0, -2.7434701257293492e-08, 2.630234419413224e-05, 2.85459624295515e-05, 6.251543652227112e-05, 0.00011956906867365023, 0.0007120577313696194, 0.000904382444282777, 0.0010084177670875276, 0.0015175374772272532, 0.002016191166004635, 0.0027406108933141693, 0.002743008930360391, 0.002741563191406455, 0.0025475504427310107, 0.002072145460544231, 0.0012814516639500803, 0.0008131989881103424, 0.00014764608337041713, -0.000890660877259545, -0.0017467921916832947, -0.0022567691090205726, -0.002364397906753703, -0.001413861874968934, -0.0006104256963343927, -0.00017219468273968973, 0.0003775048254542439, 0.0014645887311816382, 0.0027227510342363605, 0.0032110986856131833, 0.0030426988146211712, 0.0029666763171610146, 0.002029001465477897, 0.0016189368593986187, 0.001087188397333678, 0.0007611189707004594, 0.000605052841137555, 0.00010087304487398423, 5.419560899730245e-05, -2.68452327898699e-05, -1.6186473741803161e-06, 0.0, 0.0, 0.0, 0.0, 0.0, 0.0, 0.0, 0.0, 0.0, 0.0, 0.0, 0.0, 0.0, 0.0, 0.0, 0.0, 0.0, 0.0, 0.0, 0.0, 0.0, 0.0, 0.0, 0.0, 0.0, 0.0, 0.0, 0.0, 0.0, 0.0, 0.0, -2.7434701257293492e-08, 5.870662708162037e-05, 9.386987079790849e-05, 0.00013614521383659313, 0.00028164228835952275, 0.0009224363513980814, 0.0009764691480417859, 0.0013555688290522825, 0.001821503610750869, 0.0024134834159222954, 0.003278474334987575, 0.0034213362459165975, 0.0031548600229937282, 0.0024845731193338153, 0.0018800297533911035, 0.0008762647708166657, 0.00018058266386989, -0.0006500437278513162, -0.0014909644470270317, -0.002197490644413265, -0.002663598617944331, -0.0027898220160707757, -0.001980188582852823, -0.001255625984845226, -0.0007847534993972218, -0.00022264963715230122, 0.0012257543087124297, 0.0026590077972076178, 0.003426772265661088, 0.0035448213334415874, 0.003476463089482662, 0.002645247501474875, 0.0018450163496248602, 0.001435229642723552, 0.0008750796558611617, 0.0007450384888976529, 0.00021451716265920786, 8.180850756070104e-05, 5.9127531198684945e-06, -1.6186473741803161e-06, 0.0, 0.0, 0.0, 0.0, 0.0, 0.0, 0.0, 0.0, 0.0, 0.0, 0.0, 0.0, 0.0, 0.0, 0.0, 0.0, 0.0, 0.0, 0.0, 0.0, 0.0, 0.0, 0.0, 0.0, 0.0, 0.0, 0.0, 0.0, 0.0, 0.0, 0.0, -2.7434701257293492e-08, 7.011464380319981e-05, 0.0001478954069603504, 0.00017260804537591154, 0.0004438630931699341, 0.0010132140154319996, 0.0011892962853939201, 0.001571361145796007, 0.0020579758876737367, 0.0028706648940504628, 0.003765261574890703, 0.00407924954034783, 0.0033002765739175524, 0.002445488381901001, 0.0016584829662544768, 0.0004137306188673748, -0.00030052054489252333, -0.0008917633594376234, -0.0016105076166825843, -0.0024359083559984825, -0.0030030081699622675, -0.0031388189256532023, -0.0023331094281866136, -0.001801980294070082, -0.0015292976625739046, -0.0007631226411020138, 0.0008720604190981992, 0.0025380440476693487, 0.0034897946350379563, 0.0038173766189926153, 0.003913020068287974, 0.0031403846474075655, 0.0021925812739853113, 0.0016011419009589075, 0.0011021517023714787, 0.0008211851799488632, 0.0003445503002894946, 7.79341435075241e-05, 4.803143323314458e-05, -1.6186473741803161e-06, 0.0, 0.0, 0.0, 0.0, 0.0, 0.0, 0.0, 0.0, 0.0, 0.0, 0.0, 0.0, 0.0, 0.0, 0.0, 0.0, 0.0, 0.0, 0.0, 0.0, 0.0, 0.0, 0.0, 0.0, 0.0, 0.0, 0.0, 0.0, 0.0, 0.0, 0.0, -2.7434701257293492e-08, 8.339160728508573e-05, 0.00018031537923093887, 0.00023068758199675418, 0.0005573933257244793, 0.0010616005681607999, 0.0014961470570586262, 0.0017061875958865672, 0.002342512288360524, 0.0035050685528147663, 0.004274798202552595, 0.004461595724525114, 0.0032913265216317424, 0.0023562763789145595, 0.0014303397357848426, 0.0004618231854428541, -0.0003662982928930435, -0.001198897526331584, -0.0019407040212507819, -0.0027752546649874184, -0.0034433333895557807, -0.003843896204970185, -0.003064923131579478, -0.0026621047650537176, -0.0022254398000791063, -0.0013386000842218703, 0.00043388106467171715, 0.0025418832193999357, 0.0036150385217356873, 0.003994999274235857, 0.004387293094988787, 0.003595190923231418, 0.0025788292502301126, 0.001774038838042038, 0.0013333862450542787, 0.0008838648255018662, 0.0004401739140670211, 0.00011693207789147445, 7.018446785677366e-05, 1.7388049580028075e-05, 0.0, 0.0, 0.0, 0.0, 0.0, 0.0, 0.0, 0.0, 0.0, 0.0, 0.0, 0.0, 0.0, 0.0, 0.0, 0.0, 0.0, 0.0, 0.0, 0.0, 0.0, 0.0, 0.0, 0.0, 0.0, 0.0, 0.0, 0.0, 0.0, 0.0, 0.0, 0.0, 0.00012371965847182253, 0.00019437811126385855, 0.0003217257274493585, 0.0006264025667153851, 0.001152090770945588, 0.0016132845428119323, 0.0018339390280282964, 0.0025706482922476428, 0.004045996312265322, 0.0047247116136400905, 0.004673892560062843, 0.0032149677468301264, 0.0021365853213972975, 0.0014744622114625922, 5.006911928487282e-05, -0.0008256422509519924, -0.0016502081054933703, -0.002433156932697145, -0.0032990806075353313, -0.003783017426647001, -0.0043794177292132384, -0.0042728117828020355, -0.003750761839850099, -0.0034193370647661995, -0.002028745817657788, 5.758844504889572e-05, 0.002241091171513082, 0.0036956377443042466, 0.004160615742778684, 0.004755951843919304, 0.0039248045956197415, 0.0028520757024335487, 0.0019215511437098993, 0.0014828331548837836, 0.0009930621139217295, 0.0004889646622439233, 0.00018591809962080263, 7.769679327287958e-05, 3.810081488463371e-05, 0.0, 0.0, 0.0, 0.0, 0.0, 0.0, 0.0, 0.0, 0.0, 0.0, 0.0, 0.0, 0.0, 0.0, 0.0, 0.0, 0.0, 0.0, 0.0, 0.0, 0.0, 0.0, 0.0, 0.0, 0.0, 0.0, 0.0, 0.0, 0.0, 0.0, 0.0, 0.0, 0.00016109798800989785, 0.00019823649159764122, 0.00038155753379974045, 0.0006439262249723475, 0.0012858709659394332, 0.0016259502724984577, 0.0019769032789531764, 0.0028383727595970866, 0.004491588151794914, 0.005001057680263058, 0.004930770331145171, 0.0031879306298876627, 0.002179490728558633, 0.0012346162735694475, -0.0006399014622205574, -0.0015585643883801164, -0.0025692663733055112, -0.003566056096362242, -0.004462745623177638, -0.005148522698723809, -0.005859809440968372, -0.005822133215027705, -0.005047189432512366, -0.004630870733710657, -0.0031274478938799607, -0.00041193380219154405, 0.0019944840365380442, 0.003776991060306799, 0.00454053611926443, 0.005051306854970569, 0.0041820702121021834, 0.002992031988327465, 0.0020594037880794737, 0.0015512123707474542, 0.0011431834647405198, 0.0005441099871815159, 0.0002388858666138668, 8.320611569181351e-05, 5.8027853549072695e-05, 0.0, 0.0, 0.0, 0.0, 0.0, 0.0, 0.0, 0.0, 0.0, 0.0, 0.0, 0.0, 0.0, 0.0, 0.0, 0.0, 0.0, 0.0, 0.0, 0.0, 0.0, 0.0, 0.0, 0.0, 0.0, 0.0, 0.0, 0.0, 0.0, 0.0, 0.0, 0.0, 0.00018865939923078128, 0.00020352387324129408, 0.0004050665976840221, 0.0006581771821168834, 0.001392126545645306, 0.0016280520983807613, 0.002125133731979287, 0.00314159581964931, 0.004751675336480499, 0.005219582258052134, 0.005061003883982969, 0.003411950505851118, 0.0021056708150859176, 0.0008197394219202942, -0.0012204180380372771, -0.002343964929231464, -0.0034487687339970798, -0.00461652281251011, -0.005481548239613213, -0.006215043000268592, -0.007166423617815535, -0.007130563636319206, -0.006408369902436446, -0.005835428838901054, -0.003925480926037342, -0.0008905326778672803, 0.001650447194544677, 0.0038890444479542626, 0.004845757805305561, 0.005215678124698572, 0.004356502094436525, 0.0030539387574706526, 0.00208575592075715, 0.001633979726217442, 0.0012760064325093652, 0.0005918977980484101, 0.00026300718700352, 8.802688607697849e-05, 6.871345261646304e-05, 0.0, 0.0, 0.0, 0.0, 0.0, 0.0, 0.0, 0.0, 0.0, 0.0, 0.0, 0.0, 0.0, 0.0, 0.0, 0.0, 0.0, 0.0, 0.0, 0.0, 0.0, 0.0, 0.0, 0.0, 0.0, 0.0, 0.0, 0.0, 0.0, 0.0, 0.0, 0.0, 0.00020053832690093755, 0.00020153692635844432, 0.00041836066536908817, 0.0006692948385811934, 0.0014475580486375396, 0.0016125718417261373, 0.0022865093252550407, 0.003378734704551277, 0.004892512150708718, 0.005375412715601325, 0.005253630055058201, 0.0035882049616579705, 0.0021055062899617448, 0.00047590279457824277, -0.0016559945236779006, -0.002765258228515558, -0.004059731895189047, -0.00530418851408233, -0.00633534444389661, -0.007101176731669337, -0.008240748214203114, -0.008082271760785006, -0.007298483613621732, -0.006510543263510322, -0.004612118346890709, -0.0011268895544083017, 0.0015326941693180765, 0.0038509074542141795, 0.004971611857942428, 0.0052199513030261714, 0.004433209342810993, 0.0030582838121920503, 0.0021197801341937316, 0.0017067404250767383, 0.001331882199294828, 0.0006183643922621077, 0.00026531841831566104, 9.126523945159466e-05, 7.507645296912313e-05, 0.0, 0.0, 0.0, 0.0, 0.0, 0.0, 0.0, 0.0, 0.0, 0.0, 0.0, 0.0, 0.0, 0.0, 0.0, 0.0, 0.0, 0.0, 0.0, 0.0, 0.0, 0.0, 0.0, 0.0, 0.0, 0.0, 0.0, 0.0, 0.0, 0.0, 0.0, 0.0, 0.00020177887742097892, 0.00019220387178164267, 0.00042717671418846285, 0.0006632731870058028, 0.0014618811153840779, 0.0015935016363387115, 0.002382450762513347, 0.003468072151062219, 0.0049832092009956305, 0.0055079340068006355, 0.005377633367425251, 0.0036457241543463013, 0.002063299018364412, 0.00024001674305086602, -0.0019414208631823012, -0.002883082814550814, -0.003922280159732249, -0.005348829550577644, -0.006439827442487948, -0.007332497284191752, -0.008587000183444486, -0.00827678126617549, -0.007371301110313637, -0.006716729275922145, -0.0050128621456598625, -0.0015774109512141584, 0.0013924606876335502, 0.0036039007875770107, 0.00490756687110142, 0.005166744148436917, 0.004383601217386828, 0.002983235845782449, 0.002168007482090812, 0.0016935625266768478, 0.0013023223796972386, 0.0006253867226481461, 0.0002622082166561079, 8.982774026725519e-05, 8.014490549024538e-05, 0.0, 0.0, 0.0, 0.0, 0.0, 0.0, 0.0, 0.0, 0.0, 0.0, 0.0, 0.0, 0.0, 0.0, 0.0, 0.0, 0.0, 0.0, 0.0, 0.0, 0.0, 0.0, 0.0, 0.0, 0.0, 0.0, 0.0, 0.0, 0.0, 0.0, 0.0, 0.0, 0.0001835087652844128, 0.0001863151702248937, 0.00042714119619049107, 0.0006407045308370682, 0.0013786524525195713, 0.0015814579840072252, 0.00238794404300055, 0.0034878161591191266, 0.004983070659045053, 0.005578140185113027, 0.005402326315545092, 0.003626585842028742, 0.0019284578515257405, 9.62593895461964e-05, -0.001942517243193077, -0.0026165064053998897, -0.0033629103865898125, -0.004818599477457588, -0.006102446554196337, -0.007177492137509333, -0.008260549623210583, -0.007844644711618434, -0.007136608708539854, -0.006672333585309909, -0.005099823902366406, -0.0017685969892585484, 0.0010290129770237617, 0.0033319669790972456, 0.004622993712539165, 0.005033864368049234, 0.004209269121673286, 0.0029147564313619944, 0.002144109550325778, 0.0015847975181310428, 0.0012065111828600012, 0.0006101683750720587, 0.0002472485630640252, 8.420413271727727e-05, 7.634356609940369e-05, 0.0, 0.0, 0.0, 0.0, 0.0, 0.0, 0.0, 0.0, 0.0, 0.0, 0.0, 0.0, 0.0, 0.0, 0.0, 0.0, 0.0, 0.0, 0.0, 0.0, 0.0, 0.0, 0.0, 0.0, 0.0, 0.0, 0.0, 0.0, 0.0, 0.0, 0.0, 0.0, 0.00016404035680979285, 0.00018296592621767048, 0.0004127884718122571, 0.0006068129377823519, 0.0013219256996515594, 0.0015690878156760062, 0.0023953405164347016, 0.003484756061924865, 0.00488515512839138, 0.005608509222172407, 0.005514976125553792, 0.003783567826768878, 0.0020350422234144037, 0.0005530351632095316, -0.0013325216404313476, -0.0017827165567687459, -0.002563079767319071, -0.00413808679105015, -0.005505557917731781, -0.006686763130639887, -0.007459188324913053, -0.007116248957095047, -0.006445200840808736, -0.006095491085753186, -0.0046792859433005705, -0.00163619164715303, 0.0008346692683529594, 0.003058957357011991, 0.004376649334943038, 0.004777751751205945, 0.003943552550388324, 0.0027930979906503005, 0.0020441321181894545, 0.0014809714138494625, 0.0010702114738892587, 0.0005491260144412393, 0.00020483152133252388, 6.801339316964447e-05, 6.838423620137552e-05, 0.0, 0.0, 0.0, 0.0, 0.0, 0.0, 0.0, 0.0, 0.0, 0.0, 0.0, 0.0, 0.0, 0.0, 0.0, 0.0, 0.0, 0.0, 0.0, 0.0, 0.0, 0.0, 0.0, 0.0, 0.0, 0.0, 0.0, 0.0, 0.0, 0.0, 0.0, 0.0, 0.0001389403760755848, 0.00017652715871976766, 0.0003527448988009988, 0.0005597603997135702, 0.0011989583781197482, 0.0014763614761550486, 0.0023515916838363522, 0.0033564115042677054, 0.004793348972177271, 0.0056302950361166275, 0.0055817217298167856, 0.004124635567109809, 0.0025460585166003713, 0.0012608449545411763, -0.00035780384272718243, -0.0009225240057152691, -0.0018840371383422405, -0.003347936052523681, -0.004900864031425969, -0.005827008930484862, -0.006554522014251258, -0.006100342570804706, -0.005286638874389124, -0.0050859244075292616, -0.0038275727982262607, -0.0011222874753976774, 0.0009096850152703452, 0.00286541059680375, 0.004095753066331733, 0.004427541461818627, 0.003667481744996631, 0.0025517105781923772, 0.001862709117351751, 0.001366398585880848, 0.0009375348211788381, 0.0004574114801069903, 0.00013694524570625097, 5.488414087189847e-05, 5.3814993639371626e-05, 0.0, 0.0, 0.0, 0.0, 0.0, 0.0, 0.0, 0.0, 0.0, 0.0, 0.0, 0.0, 0.0, 0.0, 0.0, 0.0, 0.0, 0.0, 0.0, 0.0, 0.0, 0.0, 0.0, 0.0, 0.0, 0.0, 0.0, 0.0, 0.0, 0.0, 0.0, -2.7434701257293492e-08, 0.00010311858839080157, 0.00016635878832930125, 0.0002735192762004663, 0.0005103208457812647, 0.00104890928013842, 0.0013281872704343787, 0.0021813339870445443, 0.0031890616190614536, 0.004635544870348631, 0.005576163474536291, 0.00571481554691417, 0.004673233153485271, 0.003146504169694581, 0.002123951022608606, 0.0004999647531448302, -0.0002366823587726762, -0.0012384781364466625, -0.002964684278471387, -0.004612808934036258, -0.005385918322521128, -0.0058116370693991, -0.005015079802358434, -0.004155747584687655, -0.0038556478129622663, -0.0026543953786859983, -0.00040274496472085547, 0.0012370873373374642, 0.002907491290140133, 0.0038213853018105883, 0.004032753096665099, 0.0032983637140755646, 0.0022815047777202634, 0.0016577023360205584, 0.0011636129317538731, 0.0007914702471434706, 0.0003725599854047891, 7.239773191387284e-05, 4.4285427968617075e-05, 3.391538967618993e-05, 0.0, 0.0, 0.0, 0.0, 0.0, 0.0, 0.0, 0.0, 0.0, 0.0, 0.0, 0.0, 0.0, 0.0, 0.0, 0.0, 0.0, 0.0, 0.0, 0.0, 0.0, 0.0, 0.0, 0.0, 0.0, 0.0, 0.0, 0.0, 0.0, 0.0, 0.0, -2.7434701257293492e-08, 5.905059969908145e-05, 0.00014081427874026306, 0.00019369594516903467, 0.0004329077772841938, 0.000872121287007593, 0.0011589464953455613, 0.0018898429869432579, 0.0028684047479372037, 0.004286455318478616, 0.005377858774358882, 0.005652064603891293, 0.0048644032441785045, 0.00368942472707165, 0.0027586954879764, 0.0009523260370144682, 0.0001175659705026802, -0.0010606287617571071, -0.002954066810807338, -0.0046192347614520375, -0.00528451922558226, -0.005438348109299588, -0.004329025432872117, -0.003085354071174701, -0.0026663187170086976, -0.0015922432104133052, 0.00024661197192652184, 0.0016057582993089549, 0.00292965196407477, 0.0034757886897280326, 0.0036298128800712685, 0.0028713666743126484, 0.0020012799470473506, 0.001395863160519147, 0.0009628313967856936, 0.0006441729237230802, 0.000269163346009673, 3.0862389791337076e-05, 3.2696921025133405e-05, 9.785370798344717e-06, 0.0, 0.0, 0.0, 0.0, 0.0, 0.0, 0.0, 0.0, 0.0, 0.0, 0.0, 0.0, 0.0, 0.0, 0.0, 0.0, 0.0, 0.0, 0.0, 0.0, 0.0, 0.0, 0.0, 0.0, 0.0, 0.0, 0.0, 0.0, 0.0, 0.0, 0.0, -2.7434701257293492e-08, 2.7112196618816633e-05, 9.376797289086067e-05, 0.00011908696351916866, 0.0003178909993278472, 0.0006876597975586534, 0.0010079233524596528, 0.0016189299521918482, 0.0024891570878310255, 0.0037855332362463938, 0.005166000419660493, 0.005497414318116349, 0.0050321996361277314, 0.004235114231273876, 0.003034849125219812, 0.0012272820944531399, 0.00029199701376397255, -0.0010738174364021645, -0.0027513071380380325, -0.004244357447486557, -0.004808457125150158, -0.004900324455955094, -0.003673811789480019, -0.00236224738658718, -0.0018167839219295724, -0.0007061102441796699, 0.0007504558755211531, 0.002087895252748029, 0.002987586299636483, 0.0030984069761912283, 0.0033153523042817996, 0.0024342015298260216, 0.0017143401620858811, 0.0010980647250830205, 0.000743868501790208, 0.0004903807299237264, 0.00012676379486704792, -7.626550601653109e-06, 1.4362738773059732e-05, -1.6186473741803161e-06, 0.0, 0.0, 0.0, 0.0, 0.0, 0.0, 0.0, 0.0, 0.0, 0.0, 0.0, 0.0, 0.0, 0.0, 0.0, 0.0, 0.0, 0.0, 0.0, 0.0, 0.0, 0.0, 0.0, 0.0, 0.0, 0.0, 0.0, 0.0, 0.0, 0.0, 0.0, -2.7434701257293492e-08, 2.487003048806199e-05, 4.2962687786941386e-05, 7.86177580788744e-05, 0.00018275759767979584, 0.0005483140493245685, 0.0007856001792564949, 0.0013287899185066144, 0.0020373898128436285, 0.0032400333663714243, 0.00474222985285687, 0.005326076857013983, 0.0050040643030067385, 0.004476488983490294, 0.003230417306632468, 0.001388135188768524, 0.0002713393406700921, -0.0010006595386136909, -0.002626022723261835, -0.004045975648146023, -0.004572646747753601, -0.004566177603205415, -0.0031304395400679687, -0.0019528823700971738, -0.0012235310116751746, -3.5292216486731414e-05, 0.001254729960553422, 0.002591927021435385, 0.0029747963225188905, 0.0028476458475316384, 0.002999565940139848, 0.0020321782732089285, 0.0014504712932421832, 0.0007734063235572686, 0.000552894469880702, 0.0003552358672932681, -1.8492850630400432e-06, -2.7432880805934602e-05, -2.4688660259634718e-05, -1.6186473741803161e-06, 0.0, 0.0, 0.0, 0.0, 0.0, 0.0, 0.0, 0.0, 0.0, 0.0, 0.0, 0.0, 0.0, 0.0, 0.0, 0.0, 0.0, 0.0, 0.0, 0.0, 0.0, 0.0, 0.0, 0.0, 0.0, 0.0, 0.0, 0.0, 0.0, 0.0, 0.0, -2.7434701257293492e-08, 2.1731695849735565e-05, 1.634473270051208e-05, 1.878918444804659e-05, 8.738470976390976e-05, 0.0003981850246823748, 0.0004968043247250935, 0.0009827703492091542, 0.0016225241982001928, 0.002542737257960355, 0.0041070834605538295, 0.005139284110211162, 0.004696714548258297, 0.0044114680912983924, 0.0034658486295419174, 0.0015430522890093731, 0.0003674513029561333, -0.0009673208602588088, -0.002408650620581989, -0.00369024322142604, -0.004043480104049026, -0.003819421283364395, -0.0026150014612320418, -0.0015257554620245071, -0.0006841954374278468, 0.0005381848094808685, 0.0017767382691997243, 0.0030113997651628264, 0.002973709066317781, 0.0028427388581778934, 0.0027131706408581075, 0.001750885208189566, 0.0011473236274869025, 0.000485731840279518, 0.00030894027038293946, 0.00016735859767425825, -8.092964845951523e-05, -5.6953518852718096e-05, -3.82774385370392e-05, -1.6186473741803161e-06, 0.0, 0.0, 0.0, 0.0, 0.0, 0.0, 0.0, 0.0, 0.0, 0.0, 0.0, 0.0, 0.0, 0.0, 0.0, 0.0, 0.0, 0.0, 0.0, 0.0, 0.0, 0.0, 0.0, 0.0, 0.0, 0.0, 0.0, 0.0, 0.0, 0.0, 0.0, 0.0, 1.0326638547256259e-05, 1.2266329519122601e-05, -1.659778260685751e-05, 4.359922187937533e-05, 0.00021457220229884074, 0.00030560700502166104, 0.0006420469148270843, 0.001277941263921029, 0.0019577092307801395, 0.0033188253313975262, 0.004852806338534988, 0.004684679050671727, 0.004627000697584502, 0.003750519465516159, 0.0022995329424490866, 0.0008308573621109683, -0.0005687708736005738, -0.00176916161995085, -0.0029145658187307304, -0.0030607155698127403, -0.0029423893915885594, -0.0018843946494564669, -0.0009385423229249894, -4.227963118687562e-05, 0.0011163990700177552, 0.0023756925731671947, 0.003421314497820873, 0.0030696344487025876, 0.0029009053277456146, 0.002370202863933879, 0.0014276467526312968, 0.0007933080570577495, 0.0002637066255672616, 0.0001642046893666214, -4.881206136562453e-06, -9.473847102010053e-05, -7.127655505422483e-05, -2.9013913988868105e-05, -1.5637779716657291e-06, 0.0, 0.0, 0.0, 0.0, 0.0, 0.0, 0.0, 0.0, 0.0, 0.0, 0.0, 0.0, 0.0, 0.0, 0.0, 0.0, 0.0, 0.0, 0.0, 0.0, 0.0, 0.0, 0.0, 0.0, 0.0, 0.0, 0.0, 0.0, 0.0, 0.0, 0.0, 0.0, 2.0438052419715083e-06, 1.2266329519122601e-05, -1.2367700581578968e-05, -2.9618041362256963e-05, 0.00010601340704758274, 0.00012331514868689966, 0.00021342519893971973, 0.0008600930244940052, 0.0014054009319943311, 0.002473672921988524, 0.004190517508882391, 0.004765677896229905, 0.004765584345340864, 0.004344615490742292, 0.0030041097874537958, 0.001563012572338292, 0.00023426328892305336, -0.0011395728851816829, -0.002105665877324174, -0.002218915317691674, -0.0023202254612510504, -0.0013091108874942704, -0.00041102326432606684, 0.00047248832347762014, 0.0017232598870762625, 0.002995314550963559, 0.0034629885375193886, 0.0031889538016400525, 0.002790247777897182, 0.002021121046519469, 0.0010762967478855875, 0.000379751038410325, 9.052691043567366e-05, 1.542832031511077e-05, -7.016458769949461e-05, -0.00015261766382682757, -3.6114219758598234e-05, -1.869340140868098e-05, -1.3168656603500876e-06, 0.0, 0.0, 0.0, 0.0, 0.0, 0.0, 0.0, 0.0, 0.0, 0.0, 0.0, 0.0, 0.0, 0.0, 0.0, 0.0, 0.0, 0.0, 0.0, 0.0, 0.0, 0.0, 0.0, 0.0, 0.0, 0.0, 0.0, 0.0, 0.0, 0.0, 0.0, 0.0, -9.279689780018033e-06, 1.0658087080472877e-05, -1.2524128441145044e-05, -6.734286572782684e-05, 4.6103234263060585e-05, -1.9743967135061588e-05, -2.3704255663495737e-05, 0.0003162859015218551, 0.0007730332770634552, 0.0014962309270626663, 0.002990611728020725, 0.004214767739198568, 0.004530546994315382, 0.0046140219772303195, 0.003418516177150829, 0.0022436294089463985, 0.0009919378203429624, -2.021440217697678e-06, -0.0010197113249247143, -0.0013296076340687385, -0.001540111372357228, -0.0006556227310449679, 0.0002135314715265167, 0.0013257983920928532, 0.002285260267324712, 0.0031528241151353004, 0.0034624810851457428, 0.003035485814771321, 0.0023190372249531142, 0.0014523213335701354, 0.0004657038663637273, 2.816884699309497e-05, -4.7082336541152186e-05, -7.85449744223847e-05, -0.00012322498348005454, -0.00010532862437344276, -1.9072616895129855e-05, -1.7651670450178225e-05, -8.230410377188048e-07, 0.0, 0.0, 0.0, 0.0, 0.0, 0.0, 0.0, 0.0, 0.0, 0.0, 0.0, 0.0, 0.0, 0.0, 0.0, 0.0, 0.0, 0.0, 0.0, 0.0, 0.0, 0.0, 0.0, 0.0, 0.0, 0.0, 0.0, 0.0, 0.0, 0.0, 0.0, 0.0, -1.0914884814938216e-05, -3.2734271502455103e-06, 4.310968821640741e-06, -4.888900900453832e-05, 4.3290663869723375e-06, -6.189745781035887e-05, -0.00014855211740780026, -0.0001918667286105585, 3.4063787701023375e-05, 0.0005279740023722572, 0.001331742697145661, 0.0030385555457522954, 0.004135778913520967, 0.004671234521290055, 0.0039034686147827093, 0.00287007251578108, 0.0016937775944865692, 0.0006915381086306194, 1.3415606512755827e-06, -0.0005405441916343209, -0.0006005526268412932, 9.962155371407962e-05, 0.0009964789119359875, 0.0021642964541548778, 0.0027610170443910834, 0.0032453180300526224, 0.003154584409453268, 0.0024036712280593227, 0.0015149140068597207, 0.0005109175514394981, -0.00016211265031798786, -0.00021118739558066086, -0.00020320589801364186, -0.00013664892235008822, -0.00013686323982351934, -6.0836233297318846e-05, -1.1119788623541944e-05, -1.5720404737581458e-05, -1.0973880502917397e-07, 0.0, 0.0, 0.0, 0.0, 0.0, 0.0, 0.0, 0.0, 0.0, 0.0, 0.0, 0.0, 0.0, 0.0, 0.0, 0.0, 0.0, 0.0, 0.0, 0.0, 0.0, 0.0, 0.0, 0.0, 0.0, 0.0, 0.0, 0.0, 0.0, 0.0, 0.0, 0.0, -1.0383637042336483e-05, -2.2246293263728582e-05, -2.3203073980673184e-06, -2.0953184195618072e-05, -1.086901438801739e-05, -0.00011006503113141946, -0.00017291111602829812, -0.00042429937807891637, -0.0005753450105562612, -0.00048756274086525037, -0.000163944449695455, 0.0008993784136823268, 0.002868160549223057, 0.0040389797767134035, 0.004072755645469555, 0.0036170317473907714, 0.002491418263746801, 0.0013764320478119674, 0.0008779099571762768, 0.000411769224306382, 0.0004270679964847651, 0.0011376267205020687, 0.0019757705748314467, 0.0024166879510124223, 0.002627090650814417, 0.0029711166624799158, 0.0024997329546101524, 0.0010961611888486047, 0.00016248156671839809, -0.0005661077451693079, -0.000494824434010333, -0.00033951695260711314, -0.00025395616154107956, -0.00016836035821297788, -0.00011287636348337253, -4.512965529440062e-05, -1.2064067792323374e-05, -1.1423031057070705e-05, 0.0, 0.0, 0.0, 0.0, 0.0, 0.0, 0.0, 0.0, 0.0, 0.0, 0.0, 0.0, 0.0, 0.0, 0.0, 0.0, 0.0, 0.0, 0.0, 0.0, 0.0, 0.0, 0.0, 0.0, 0.0, 0.0, 0.0, 0.0, 0.0, 0.0, 0.0, 0.0, 0.0, -1.4273702845097281e-05, -2.1671220257426728e-05, -3.0347420179806553e-05, -2.258139248393519e-05, 1.2612877947783643e-05, -0.0001413605922207819, -0.00019576627700412436, -0.00041769723163991707, -0.0008734691862258338, -0.0012754882731077703, -0.0014790291617852757, -0.0010232103061131746, 0.0002499273937623455, 0.002389030985537646, 0.003364307255253947, 0.0035580425768352553, 0.0028605501290651513, 0.0021892118677982364, 0.0019601404356383374, 0.0016659482329777063, 0.0017602100296710442, 0.001953351711696799, 0.002188874088709203, 0.0023601843199151586, 0.00232428721506133, 0.0018136399162562986, 0.0006349028265757015, -0.0009111331079171047, -0.0014190601856231958, -0.0009167782419647675, -0.0005766997922475466, -0.00039991810299171767, -0.00026414302878183856, -0.0001464714880587572, -8.058280505867976e-05, -4.460967598085231e-05, -1.1606737881423577e-05, -8.901131578167727e-06, 0.0, 0.0, 0.0, 0.0, 0.0, 0.0, 0.0, 0.0, 0.0, 0.0, 0.0, 0.0, 0.0, 0.0, 0.0, 0.0, 0.0, 0.0, 0.0, 0.0, 0.0, 0.0, 0.0, 0.0, 0.0, 0.0, 0.0, 0.0, 0.0, 0.0, 0.0, 0.0, 0.0, -2.2888887108797223e-05, -2.144271381680304e-05, -3.402817718718214e-05, -5.141998348980107e-05, -1.960895851460077e-06, -0.0001304492360740339, -0.0002374516556907721, -0.00048099217538839377, -0.0008008173449314133, -0.0012992068537844037, -0.0020722612445650645, -0.0025110737869201124, -0.002149137229383629, -0.0008804703109218351, 0.0013557756333006585, 0.0025888779827016877, 0.002900580952607782, 0.0026872272862326022, 0.002658504796417873, 0.0024867533203238716, 0.002556995502385249, 0.002465729856682741, 0.002359074200307544, 0.0018705774980827925, 0.000991657982113883, -0.0006127920836903881, -0.0020951355986259237, -0.002394891082151818, -0.0016310450206308436, -0.0009456619725093, -0.0006238729651059656, -0.0004327923567652406, -0.0002233770745972005, -0.00012306092155519156, -7.738400744826164e-05, -4.124486194745903e-05, -1.4446567008125331e-05, -8.436530101017661e-06, 0.0, 0.0, 0.0, 0.0, 0.0, 0.0, 0.0, 0.0, 0.0, 0.0, 0.0, 0.0, 0.0, 0.0, 0.0, 0.0, 0.0, 0.0, 0.0, 0.0, 0.0, 0.0, 0.0, 0.0, 0.0, 0.0, 0.0, 0.0, 0.0, 0.0, 0.0, 0.0, 0.0, -2.4905233702822705e-05, -3.388372994515221e-05, -3.99190367056747e-05, -5.6661693438686746e-05, -2.0492629833228326e-05, -0.00015229002968931868, -0.0002692474653694189, -0.0005046213449854661, -0.0008423269453716432, -0.0012616520686468348, -0.0017617448579030014, -0.002433089039358646, -0.0031168458021903368, -0.0031024447107494578, -0.0022418718341386166, -0.0010179847427314293, 0.0006787983394448755, 0.001948532218049239, 0.002725369755320735, 0.0029843606573998448, 0.0026427361939304708, 0.001931049497622933, 0.0006027440814540896, -0.0010555632253268752, -0.0025194674466319845, -0.0033476538406987883, -0.002857715212759554, -0.0022670596699335293, -0.0015328302412767648, -0.0009697398692866854, -0.0006046290111274411, -0.0003685747980735173, -0.00019789710243156154, -0.00010081823064656075, -6.184676890298306e-05, -3.540152416296359e-05, -3.983840397726061e-06, -3.5850412543007805e-06, 0.0, 0.0, 0.0, 0.0, 0.0, 0.0, 0.0, 0.0, 0.0, 0.0, 0.0, 0.0, 0.0, 0.0, 0.0, 0.0, 0.0, 0.0, 0.0, 0.0, 0.0, 0.0, 0.0, 0.0, 0.0, 0.0, 0.0, 0.0, 0.0, 0.0, 0.0, 0.0, 0.0, 0.0, 0.0, 0.0, 0.0, 0.0, -2.047732842851254e-06, -7.421949944600743e-06, -2.69176084661831e-05, -6.470816543873444e-05, -0.00010905018919033113, -0.00018463769618594768, -0.00027358243291585683, -0.0002875912368879579, -0.00024963337494151417, -0.00022245655775872644, 7.315694677009025e-06, 0.00046312183997617503, 0.0008488077532883463, 0.0012138005746262356, 0.001266833119885453, 0.0011199828381435548, 0.0008059770547605722, 0.00030845315485498716, -0.00016681108228031356, -0.00037084536071779425, -0.00043393321906640825, -0.0003521101090441953, -0.0003488328703416928, -0.0001651695657517077, -5.032076015391596e-05, -1.626035647934928e-05, -4.689931633665672e-06, -4.400507878372064e-07, 0.0, 0.0, 0.0, 0.0, 0.0, 0.0, 0.0, 0.0, 0.0, 0.0, 0.0, 0.0, 0.0, 0.0, 0.0, 0.0, 0.0, 0.0, 0.0, 0.0, 0.0, 0.0, 0.0, 0.0, 0.0, 0.0, 0.0, 0.0, 0.0, 0.0, 0.0, 0.0, 0.0, 0.0, 0.0, 0.0, 0.0, 0.0, 0.0, 0.0, 0.0, 0.0, 0.0, -4.1626883251905255e-06, -6.848293696281188e-06, -8.257546580631225e-06, -1.1893755221364447e-05, -2.936051676785033e-05, -7.189719416475285e-05, -0.00013432211410084304, -0.00014157387766436301, -8.809871022067671e-05, -4.363354146772024e-05, -7.496710940753494e-05, -8.143248954879065e-05, -0.0001242600254129497, -5.824584449386248e-05, -0.00010532798570507947, -8.64754636179777e-05, -8.084958985525807e-05, -0.0001322040116249506, -0.0001634675292814456, -0.000184059631356403, -0.00023608030665429186, -0.00017657985409925557, -0.00016488246806410092, -6.220361521686878e-05, -1.8579222437705245e-05, -1.1588422542851818e-05, -4.377536754877779e-06, 0.0, 0.0, 0.0, 0.0, 0.0, 0.0, 0.0, 0.0, 0.0, 0.0, 0.0, 0.0, 0.0, 0.0, 0.0, 0.0, 0.0, 0.0, 0.0, 0.0, 0.0, 0.0, 0.0, 0.0, 0.0, 0.0, 0.0, 0.0, 0.0, 0.0, 0.0, 0.0, 0.0, 0.0, 0.0, 0.0, 0.0, 0.0, 0.0, 0.0, 0.0, 0.0, 0.0, 0.0, 0.0, 0.0, 0.0, -1.343651731145117e-06, -1.3375105761399577e-05, -5.677652094816217e-05, -0.0001251900090586644, -0.00014476840427693846, -0.00012730215747235724, -5.500225611542278e-05, -6.569509127584611e-05, -5.9194493479545126e-05, -0.00011667220700876723, -7.559591673191909e-05, -9.67974115944072e-05, -9.962976227054118e-05, -8.414226535772716e-05, -0.00010901291721871932, -0.00015433243078033412, -0.0001621448845565055, -0.00020899351799648556, -0.00012384179155999265, -0.0001260424115113007, -5.061979357558222e-05, -6.115958664011271e-06, -4.781168923164314e-06, 0.0, 0.0, 0.0, 0.0, 0.0, 0.0, 0.0, 0.0, 0.0, 0.0, 0.0, 0.0, 0.0, 0.0, 0.0, 0.0, 0.0, 0.0, 0.0, 0.0, 0.0, 0.0, 0.0, 0.0, 0.0, 0.0, 0.0, 0.0, 0.0, 0.0, 0.0, 0.0, 0.0, 0.0, 0.0, 0.0, 0.0, 0.0, 0.0, 0.0, 0.0, 0.0, 0.0, 0.0, 0.0, 0.0, 0.0, 0.0, -7.627199532676694e-06, -1.2495380350197225e-05, -2.9607502365347587e-05, -0.00012197982966917207, -0.00014299816884906326, -0.0001443222513018034, -9.973374427404111e-05, -8.024430661439933e-05, -8.044177893412721e-05, -0.00013272250548640007, -7.565610913537265e-05, -5.321168201800738e-05, -6.0175464623482983e-05, -8.648673506103091e-05, -0.00011745496638642882, -0.00014944159823847956, -0.00015100517131692718, -0.00017187622818270936, -0.0001029550918625717, -0.00011343048082639623, -4.244516394801039e-05, -4.127655065987488e-06, -1.5184828339663492e-06, 0.0, 0.0, 0.0, 0.0, 0.0, 0.0, 0.0, 0.0, 0.0, 0.0, 0.0, 0.0, 0.0, 0.0, 0.0, 0.0, 0.0, 0.0, 0.0, 0.0, 0.0, 0.0, 0.0, 0.0, 0.0, 0.0, 0.0, 0.0, 0.0, 0.0, 0.0, 0.0, 0.0, 0.0, 0.0, 0.0, 0.0, 0.0, 0.0, 0.0, 0.0, 0.0, 0.0, 0.0, 0.0, 0.0, 0.0, 0.0, -3.3986484964258845e-06, -1.0512816107442801e-05, -1.929725021481426e-05, -0.0001006005315934868, -0.00017089457529722882, -0.00017770198890788697, -0.00012608199242167755, -0.00012281618835653738, -0.00011887457627519464, -0.0001393645937114677, -9.453044065752808e-05, -9.353523927289618e-05, -0.00011160973050797942, -0.00010261432665416937, -0.0001068593571185363, -0.00011860203084045444, -0.00012332920646317686, -0.00012627925823145632, -0.00010275867819838601, -9.066673456100023e-05, -3.055368815084565e-05, 0.0, 0.0, 0.0, 0.0, 0.0, 0.0, 0.0, 0.0, 0.0, 0.0, 0.0, 0.0, 0.0, 0.0, 0.0, 0.0, 0.0, 0.0, 0.0, 0.0, 0.0, 0.0, 0.0, 0.0, 0.0, 0.0, 0.0, 0.0, 0.0, 0.0, 0.0, 0.0, 0.0, 0.0, 0.0, 0.0, 0.0, 0.0, 0.0, 0.0, 0.0, 0.0, 0.0, 0.0, 0.0, 0.0, 0.0, 0.0, 0.0, 0.0, 0.0, -4.032308179145051e-06, -1.6401405096607315e-05, -9.425894705978508e-05, -0.00014145188021806026, -0.00020740332962116594, -0.00017766357283059716, -0.00013575476454939775, -0.00013370249365956958, -0.0001309233990508722, -0.00013809490103764406, -0.00014213310909721676, -0.00011425143508037377, -5.96704530211886e-05, -8.153617221154697e-05, -8.188739493075693e-05, -0.00012322670053618436, -0.00010240477074499452, -9.535428724646988e-05, -7.247737486434469e-05, -2.872848692438818e-05, 0.0, 0.0, 0.0, 0.0, 0.0, 0.0, 0.0, 0.0, 0.0, 0.0, 0.0, 0.0, 0.0, 0.0, 0.0, 0.0, 0.0, 0.0, 0.0, 0.0, 0.0, 0.0, 0.0, 0.0, 0.0, 0.0, 0.0, 0.0, 0.0, 0.0, 0.0, 0.0, 0.0, 0.0, 0.0, 0.0, 0.0, 0.0, 0.0, 0.0, 0.0, 0.0, 0.0, 0.0, 0.0, 0.0, 0.0, 0.0, 0.0, 0.0, 0.0, 0.0, -6.209611315059262e-06, -9.325108816886702e-05, -0.0001280953871379919, -0.00015828619659754726, -0.00017491656764106678, -0.00016439470622825876, -0.00014670904106640843, -0.00012411386559851864, -0.00010543089190556817, -8.727263103198142e-05, -6.799596595810535e-05, -7.09615896675195e-05, -9.989918660024746e-05, -0.00012485458629552364, -0.00010980370476996478, -0.00011030760837105647, -8.795299193658281e-05, -7.07901160458732e-05, -2.560157678295817e-05, 0.0, 0.0, 0.0, 0.0, 0.0, 0.0, 0.0, 0.0, 0.0, 0.0, 0.0, 0.0, 0.0, 0.0, 0.0, 0.0, 0.0, 0.0, 0.0, 0.0, 0.0, 0.0, 0.0, 0.0, 0.0, 0.0, 0.0, 0.0, 0.0, 0.0, 0.0, 0.0, 0.0, 0.0, 0.0, 0.0, 0.0, 0.0, 0.0, 0.0, 0.0, 0.0, 0.0, 0.0, 0.0, 0.0, 0.0, 0.0, 0.0, 0.0, 0.0, 0.0, -1.2559494034472344e-05, -8.169673965807475e-05, -0.00011048842874524725, -0.00012042032926889762, -0.00015067825756228626, -0.00015506357687616437, -0.00010891015171856805, -9.918162607137999e-05, -9.05850119630889e-05, -8.357039325354743e-05, -7.360029402841323e-05, -6.434458385765826e-05, -7.405469419592402e-05, -7.591750314420384e-05, -9.79697390275377e-05, -9.840683578178627e-05, -7.866363313747919e-05, -6.405208846208094e-05, -1.7273340726484034e-05, 0.0, 0.0, 0.0, 0.0, 0.0, 0.0, 0.0, 0.0, 0.0, 0.0, 0.0, 0.0, 0.0, 0.0, 0.0, 0.0, 0.0, 0.0, 0.0, 0.0, 0.0, 0.0, 0.0, 0.0, 0.0, 0.0, 0.0, 0.0, 0.0, 0.0, 0.0, 0.0, 0.0, 0.0, 0.0, 0.0, 0.0, 0.0, 0.0, 0.0, 0.0, 0.0, 0.0, 0.0, 0.0, 0.0, 0.0, 0.0, 0.0, 0.0, 0.0, -6.0972046091708e-07, -1.5700749547784218e-05, -6.264218453498808e-05, -8.930040226635527e-05, -0.00010320603433554893, -0.00011526931742725493, -0.00010765651806224378, -0.000111608703876234, -9.745704916642608e-05, -7.560954528571784e-05, -4.71026604173832e-05, -5.1296110755738604e-05, -5.5384277787497646e-05, -6.93520455388912e-05, -8.141980215068371e-05, -7.987803480509896e-05, -7.69790737530223e-05, -6.41392213354532e-05, -5.336953779388209e-05, -4.103888000034005e-06, 0.0, 0.0, 0.0, 0.0, 0.0, 0.0, 0.0, 0.0, 0.0, 0.0, 0.0, 0.0, 0.0, 0.0, 0.0, 0.0, 0.0, 0.0, 0.0, 0.0, 0.0, 0.0, 0.0, 0.0, 0.0, 0.0, 0.0, 0.0, 0.0, 0.0, 0.0, 0.0, 0.0, 0.0, 0.0, 0.0, 0.0, 0.0, 0.0, 0.0, 0.0, 0.0, 0.0, 0.0, 0.0, 0.0, 0.0, 0.0, 0.0, 0.0, 0.0, 0.0, 0.0, -1.609938572874342e-05, -5.869091037484522e-05, -6.777735619851335e-05, -7.795544904694548e-05, -7.5588256432825e-05, -7.836986771591944e-05, -8.150601846065965e-05, -7.26109480539137e-05, -6.511230993045742e-05, -6.023910495459744e-05, -5.54139737252234e-05, -5.223877015612159e-05, -5.124945272114188e-05, -4.983513037904073e-05, -4.983513037904073e-05, -4.983513037904073e-05, -2.8071237142687566e-05, 0.0, 0.0, 0.0, 0.0, 0.0, 0.0, 0.0, 0.0, 0.0, 0.0, 0.0, 0.0, 0.0, 0.0, 0.0, 0.0, 0.0, 0.0, 0.0, 0.0, 0.0, 0.0, 0.0, 0.0, 0.0, 0.0, 0.0, 0.0, 0.0, 0.0, 0.0, 0.0, 0.0, 0.0, 0.0, 0.0, 0.0, 0.0, 0.0, 0.0, 0.0, 0.0, 0.0, 0.0, 0.0, 0.0, 0.0, 0.0, 0.0, 0.0, 0.0, 0.0, 0.0, 0.0, -4.633739432605394e-06, -1.3909304641350322e-05, -4.564442738881306e-05, -5.014649494077318e-05, -5.121205437810725e-05, -5.177499568159301e-05, -5.4721943096362445e-05, -5.4256507873435354e-05, -5.4163420828849933e-05, -5.4163420828849933e-05, -5.395041601131478e-05, -5.222355552629765e-05, -5.124945272114188e-05, -4.983513037904073e-05, -4.983513037904073e-05, -3.388505085283094e-05, -9.769778586039983e-07, 0.0, 0.0, 0.0, 0.0, 0.0, 0.0, 0.0, 0.0, 0.0, 0.0, 0.0, 0.0, 0.0, 0.0, 0.0, 0.0, 0.0, 0.0, 0.0, 0.0, 0.0, 0.0, 0.0, 0.0, 0.0, 0.0, 0.0, 0.0, 0.0, 0.0, 0.0, 0.0, 0.0, 0.0, 0.0, 0.0, 0.0, 0.0, 0.0, 0.0, 0.0, 0.0, 0.0, 0.0, 0.0, 0.0, 0.0, 0.0, 0.0, 0.0, 0.0, 0.0, 0.0, 0.0, -4.578398655856872e-06, -4.578398655856872e-06, -7.535933642931233e-06, -2.6153285526184695e-05, -4.1131371195859406e-05, -4.858040285407415e-05, -5.380846607023673e-05, -5.4163420828849933e-05, -5.4163420828849933e-05, -5.4163420828849933e-05, -5.372219656395569e-05, -5.0660100455582633e-05, -4.5386496205960614e-05, -3.356495965474181e-05, -1.4998930690001145e-05, 0.0, 0.0, 0.0, 0.0, 0.0, 0.0, 0.0, 0.0, 0.0, 0.0, 0.0, 0.0, 0.0, 0.0, 0.0, 0.0, 0.0, 0.0, 0.0, 0.0, 0.0, 0.0, 0.0, 0.0, 0.0, 0.0, 0.0, 0.0, 0.0, 0.0, 0.0, 0.0, 0.0, 0.0, 0.0, 0.0, 0.0, 0.0, 0.0, 0.0, 0.0, 0.0, 0.0, 0.0, 0.0, 0.0, 0.0, 0.0, 0.0, 0.0, 0.0, 0.0, 0.0, 0.0, 0.0, 0.0, 0.0, 0.0, 0.0, 0.0, 0.0, 0.0, 0.0, 0.0, 0.0, 0.0, 0.0, 0.0, 0.0, 0.0, 0.0, 0.0, 0.0, 0.0, 0.0, 0.0, 0.0, 0.0, 0.0, 0.0, 0.0, 0.0, 0.0, 0.0, 0.0, 0.0, 0.0, 0.0, 0.0, 0.0, 0.0, 0.0, 0.0, 0.0, 0.0, 0.0, 0.0, 0.0, 0.0, 0.0, 0.0, 0.0, 0.0, 0.0, 0.0, 0.0, 0.0, 0.0, 0.0, 0.0, 0.0, 0.0, 0.0, 0.0, 0.0, 0.0, 0.0, 0.0, 0.0, 0.0, 0.0, 0.0, 0.0, 0.0, 0.0, 0.0, 0.0, 0.0, 0.0, 0.0, 0.0, 0.0, 0.0, 0.0, 0.0, 0.0, 0.0, 0.0, 0.0, 0.0, 0.0, 0.0, 0.0, 0.0, 0.0, 0.0, 0.0, 0.0, 0.0, 0.0, 0.0, 0.0, 0.0, 0.0, 0.0, 0.0, 0.0, 0.0, 0.0, 0.0, 0.0, 0.0, 0.0, 0.0, 0.0, 0.0, 0.0, 0.0, 0.0, 0.0, 0.0, 0.0, 0.0, 0.0, 0.0, 0.0, 0.0, 0.0, 0.0, 0.0, 0.0, 0.0, 0.0, 0.0, 0.0, 0.0, 0.0, 0.0, 0.0, 0.0, 0.0, 0.0, 0.0, 0.0, 0.0, 0.0, 0.0, 0.0, 0.0, 0.0, 0.0, 0.0, 0.0, 0.0, 0.0, 0.0, 0.0, 0.0, 0.0, 0.0, 0.0, 0.0, 0.0, 0.0, 0.0, 0.0, 0.0, 0.0, 0.0, 0.0, 0.0, 0.0, 0.0, 0.0, 0.0, 0.0, 0.0, 0.0, 0.0, 0.0, 0.0, 0.0, 0.0, 0.0, 0.0, 0.0, 0.0, 0.0, 0.0, 0.0, 0.0, 0.0, 0.0, 0.0, 0.0, 0.0, 0.0, 0.0, 0.0, 0.0, 0.0, 0.0, 0.0, 0.0, 0.0, 0.0, 0.0, 0.0, 0.0, 0.0, 0.0, 0.0, 0.0, 0.0, 0.0, 0.0, 0.0, 0.0, 0.0, 0.0, 0.0, 0.0, 0.0, 0.0, 0.0, 0.0, 0.0, 0.0, 0.0, 0.0, 0.0, 0.0, 0.0, 0.0, 0.0, 0.0, 0.0, 0.0, 0.0, 0.0, 0.0, 0.0, 0.0, 0.0, 0.0, 0.0, 0.0, 0.0, 0.0, 0.0, 0.0, 0.0, 0.0, 0.0, 0.0, 0.0, 0.0, 0.0, 0.0, 0.0, 0.0, 0.0, 0.0, 0.0, 0.0, 0.0, 0.0, 0.0, 0.0, 0.0, 0.0, 0.0, 0.0, 0.0, 0.0, 0.0, 0.0, 0.0, 0.0, 0.0, 0.0, 0.0, 0.0, 0.0, 0.0, 0.0, 0.0, 0.0, 0.0, 0.0, 0.0, 0.0, 0.0, 0.0, 0.0, 0.0, 0.0, 0.0, 0.0, 0.0, 0.0, 0.0, 0.0, 0.0, 0.0, 0.0, 0.0, 0.0, 0.0, 0.0, 0.0, 0.0, 0.0, 0.0, 0.0, 0.0, 0.0, 0.0, 0.0, 0.0, 0.0, 0.0, 0.0, 0.0, 0.0, 0.0, 0.0, 0.0, 0.0, 0.0, 0.0, 0.0, 0.0, 0.0, 0.0, 0.0, 0.0, 0.0, 0.0, 0.0, 0.0, 0.0, 0.0, 0.0, 0.0, 0.0, 0.0, 0.0, 0.0, 0.0, 0.0, 0.0, 0.0, 0.0, 0.0, 0.0, 0.0, 0.0, 0.0, 0.0, 0.0, 0.0, 0.0, 0.0, 0.0, 0.0, 0.0, 0.0, 0.0, 0.0, 0.0, 0.0, 0.0, 0.0, 0.0, 0.0, 0.0, 0.0, 0.0, 0.0, 0.0, 0.0, 0.0, 0.0, 0.0, 0.0, 0.0, 0.0, 0.0, 0.0, 0.0, 0.0, 0.0, 0.0, 0.0, 0.0, 0.0, 0.0, 0.0, 0.0, 0.0, 0.0, 0.0, 0.0, 0.0, 0.0, 0.0, 0.0, 0.0, 0.0, 0.0, 0.0, 0.0, 0.0, 0.0, 0.0, 0.0, 0.0, 0.0, 0.0, 0.0, 0.0, 0.0, 0.0, 0.0, 0.0, 0.0, 0.0, 0.0, 0.0, 0.0, 0.0, 0.0, 0.0, 0.0, 0.0, 0.0, 0.0, 0.0, 0.0, 0.0, 0.0, 0.0, 0.0, 0.0, 0.0, 0.0, 0.0, 0.0, 0.0, 0.0, 0.0, 0.0, 0.0, 0.0, 0.0, 0.0, 0.0, 0.0, 0.0, 0.0, 0.0, 0.0, 0.0, 0.0, 0.0, 0.0, 0.0, 0.0, 0.0, 0.0, 0.0, 0.0, 0.0, 0.0, 0.0, 0.0, 0.0, 0.0, 0.0, 0.0, 0.0, 0.0, 0.0, 0.0, 0.0, 0.0, 0.0, 0.0, 0.0, 0.0, 0.0, 0.0, 0.0, 0.0, 0.0, 0.0, 0.0, 0.0, 0.0, 0.0, 0.0, 0.0, 0.0, 0.0, 0.0, 0.0, 0.0, 0.0, 0.0, 0.0, 0.0, 0.0, 0.0, 0.0, 0.0, 0.0, 0.0, 0.0, 0.0, 0.0, 0.0, 0.0, 0.0, 0.0, 0.0, 0.0, 0.0, 0.0, 0.0, 0.0, 0.0, 0.0, 0.0, 0.0, 0.0, 0.0, 0.0, 0.0, 0.0, 0.0, 0.0, 0.0, 0.0, 0.0, 0.0, 0.0, 0.0, 0.0, 0.0, 0.0, 0.0, 0.0, 0.0, 0.0, 0.0, 0.0, 0.0, 0.0, 0.0, 0.0, 0.0, 0.0, 0.0, 0.0, 0.0, 0.0, 0.0, 0.0, 0.0, 0.0, 0.0, 0.0, 0.0, 0.0, 0.0, 0.0, 0.0, 0.0, 0.0, 0.0, 0.0, 0.0, 0.0, 0.0, 0.0, 0.0, 0.0, 0.0, 0.0, 0.0, 0.0, 0.0, 0.0, 0.0, 0.0, 0.0, 0.0, 0.0, 0.0, 0.0, 0.0, 0.0, 0.0, 0.0, 0.0, 0.0, 0.0, 0.0, 0.0, 0.0, 0.0, 0.0, 0.0, 0.0, 0.0, 0.0, 0.0, 0.0, 0.0, 0.0, 0.0, 0.0, 0.0, 0.0, 0.0, 0.0, 0.0, 0.0, 0.0, 0.0, 0.0, 0.0, 0.0, 0.0, 0.0, 0.0, 0.0, 0.0, 0.0, 0.0, 0.0, 0.0, 0.0, 0.0, 0.0, 0.0, 0.0, 0.0, 0.0, 0.0, 0.0, 0.0, 0.0, 0.0, 0.0, 0.0, 0.0, 0.0, 0.0, 0.0, 0.0, 0.0, 0.0, 0.0, 0.0, 0.0, 0.0, 0.0, 0.0, 0.0, 0.0, 0.0, 0.0, 0.0, 0.0, 0.0, 0.0, 0.0, 0.0, 0.0, 0.0, 0.0, 0.0, 0.0, 0.0, 0.0, 0.0, 0.0, 0.0, 0.0], [0.0, 0.0, 0.0, 0.0, 0.0, 0.0, 0.0, 0.0, 0.0, 0.0, 0.0, 0.0, 0.0, 0.0, 0.0, 0.0, 0.0, 0.0, 0.0, 0.0, 0.0, 0.0, 0.0, 0.0, 0.0, 0.0, 0.0, 0.0, 0.0, 0.0, 0.0, 0.0, 0.0, 0.0, 0.0, 0.0, 0.0, 0.0, 0.0, 0.0, 0.0, 0.0, 0.0, 0.0, 0.0, 0.0, 0.0, 0.0, 0.0, 0.0, 0.0, 0.0, 0.0, 0.0, 0.0, 0.0, 0.0, 0.0, 0.0, 0.0, 0.0, 0.0, 0.0, 0.0, 0.0, 0.0, 0.0, 0.0, 0.0, 0.0, 0.0, 0.0, 0.0, 0.0, 0.0, 0.0, 0.0, 0.0, 0.0, 0.0, 0.0, 0.0, 0.0, 0.0, 0.0, 0.0, 0.0, 0.0, 0.0, 0.0, 0.0, 0.0, 0.0, 0.0, 0.0, 0.0, 0.0, 0.0, 0.0, 0.0, 0.0, 0.0, 0.0, 0.0, 0.0, 0.0, 0.0, 0.0, 0.0, 0.0, 0.0, 0.0, 0.0, 0.0, 0.0, 0.0, 0.0, 0.0, 0.0, 0.0, 0.0, 0.0, 0.0, 0.0, 0.0, 0.0, 0.0, 0.0, 0.0, 0.0, 0.0, 0.0, 0.0, 0.0, 0.0, 0.0, 0.0, 0.0, 0.0, 0.0, 0.0, 0.0, 0.0, 0.0, 0.0, 0.0, 0.0, 0.0, 0.0, 0.0, 0.0, 0.0, 0.0, 0.0, 0.0, 0.0, 0.0, 0.0, 0.0, 0.0, 0.0, 0.0, 0.0, 0.0, 0.0, 0.0, 0.0, 0.0, 0.0, 0.0, 0.0, 0.0, 0.0, 0.0, 0.0, 0.0, 0.0, 0.0, 0.0, 0.0, 0.0, 0.0, 0.0, 0.0, 0.0, 0.0, 0.0, 0.0, 0.0, 0.0, 0.0, 0.0, 0.0, 0.0, 0.0, 0.0, 0.0, 0.0, 0.0, 0.0, 0.0, 0.0, 0.0, 0.0, 0.0, 0.0, 0.0, 0.0, 0.0, 0.0, 0.0, 0.0, 0.0, 0.0, 0.0, 0.0, 0.0, 0.0, 0.0, 0.0, 0.0, 0.0, 0.0, 0.0, 0.0, 0.0, 0.0, 0.0, 0.0, 0.0, 0.0, 0.0, 0.0, 0.0, 0.0, 0.0, 0.0, 0.0, 0.0, 0.0, 0.0, 0.0, 0.0, 0.0, 0.0, 0.0, 0.0, 0.0, 0.0, 0.0, 0.0, 0.0, 0.0, 0.0, 0.0, 0.0, 0.0, 0.0, 0.0, 0.0, 0.0, 0.0, 0.0, 0.0, 0.0, 0.0, 0.0, 0.0, 0.0, 0.0, 0.0, 0.0, 0.0, 0.0, 0.0, 0.0, 0.0, 0.0, 0.0, 0.0, 0.0, 0.0, 0.0, 0.0, 0.0, 0.0, 0.0, 0.0, 0.0, 0.0, 0.0, 0.0, 0.0, 0.0, 0.0, 0.0, 0.0, 0.0, 0.0, 0.0, 0.0, 0.0, 0.0, 0.0, 0.0, 0.0, 0.0, 0.0, 0.0, 0.0, 0.0, 0.0, 0.0, 0.0, 0.0, 0.0, 0.0, 0.0, 0.0, 0.0, 0.0, 0.0, 0.0, 0.0, 0.0, 0.0, 0.0, 0.0, 0.0, 0.0, 0.0, 0.0, 0.0, 0.0, 0.0, 0.0, 0.0, 0.0, 0.0, 0.0, 0.0, 0.0, 0.0, 0.0, 0.0, 0.0, 0.0, 0.0, 0.0, 0.0, 0.0, 0.0, 0.0, 0.0, 0.0, 0.0, 0.0, 0.0, 0.0, 0.0, 0.0, 0.0, 0.0, 0.0, 0.0, 0.0, 0.0, 0.0, 0.0, 0.0, 0.0, 0.0, 0.0, 0.0, 0.0, 0.0, 0.0, 0.0, 0.0, 0.0, 0.0, 0.0, -5.800554120769532e-06, -1.6775708523360416e-05, -2.0058035469329225e-05, -3.326113722418282e-05, -4.5152605565197045e-05, -5.09372268100978e-05, -5.354859565743365e-05, -3.415756554581159e-05, -2.1611878356610705e-05, -3.081467276512914e-05, -3.147923958822932e-05, -2.399763904360648e-05, -1.539392399970919e-05, 0.0, 0.0, 0.0, 0.0, 0.0, 0.0, 0.0, 0.0, 0.0, 0.0, 0.0, 0.0, 0.0, 0.0, 0.0, 0.0, 0.0, 0.0, 0.0, 0.0, 0.0, 0.0, 0.0, 0.0, 0.0, 0.0, 0.0, 0.0, 0.0, 0.0, 0.0, 0.0, 0.0, 0.0, 0.0, 0.0, 0.0, 0.0, 0.0, 0.0, 0.0, 0.0, 0.0, 0.0, 0.0, 0.0, 0.0, 0.0, -2.2138743283017976e-06, -4.837725384066891e-06, -4.837725384066891e-06, -4.837725384066891e-06, -4.837725384066891e-06, -4.837725384066891e-06, -4.837725384066891e-06, -4.837725384066891e-06, -4.837725384066891e-06, -4.837725384066891e-06, -1.0638279504836423e-05, -2.454411291186285e-05, -4.5859693076809095e-05, -5.545849136525353e-05, -5.6314100954959903e-05, -5.406612728687664e-05, -4.771247402935221e-05, -2.4929459107639863e-05, -2.7427519744083377e-05, -4.642883561024947e-05, -5.9404127616646135e-05, -3.5159598572901836e-05, -2.051095369879952e-05, -4.837725384066891e-06, -4.837725384066891e-06, -4.837725384066891e-06, -4.837725384066891e-06, -4.755730038574232e-06, -1.6399069098531834e-06, 0.0, 0.0, 0.0, 0.0, 0.0, 0.0, 0.0, 0.0, 0.0, 0.0, 0.0, 0.0, 0.0, 0.0, 0.0, 0.0, 0.0, 0.0, 0.0, 0.0, 0.0, 0.0, 0.0, 0.0, 0.0, 0.0, 0.0, 0.0, 0.0, 0.0, 0.0, 0.0, 0.0, 0.0, 0.0, 0.0, 0.0, 0.0, 0.0, 0.0, 0.0, 0.0, -9.716448440880112e-06, -1.0454406550314046e-05, -1.0454406550314046e-05, -1.0454406550314046e-05, -1.0454406550314046e-05, -1.0454406550314046e-05, -1.0454406550314046e-05, -1.0454406550314046e-05, -1.0454406550314046e-05, -1.0454406550314046e-05, -1.6714500322250013e-05, -3.619708679646314e-05, -4.676527853747399e-05, -4.689374481590898e-05, -2.796556144576222e-05, -1.2545654886384667e-05, 3.6315862006285014e-06, 1.7275775608206864e-05, 7.5513868968293386e-06, -3.829366883646368e-05, -5.9945502826628014e-05, -4.836797426505006e-05, -2.1755399418092833e-05, -1.0881121940682877e-05, -1.0454406550314046e-05, -1.0454406550314046e-05, -1.0454406550314046e-05, -1.0454406550314046e-05, -8.486518258490224e-06, 0.0, 0.0, 0.0, 0.0, 0.0, 0.0, 0.0, 0.0, 0.0, 0.0, 0.0, 0.0, 0.0, 0.0, 0.0, 0.0, 0.0, 0.0, 0.0, 0.0, 0.0, 0.0, 0.0, 0.0, 0.0, 0.0, 0.0, 0.0, 0.0, 0.0, 0.0, 0.0, 0.0, 0.0, 0.0, 0.0, 0.0, 0.0, 0.0, 0.0, 0.0, 0.0, -1.3232629187988426e-05, -1.4549474600065298e-05, -1.4549474600065298e-05, -1.4549474600065298e-05, -1.4549474600065298e-05, -1.4549474600065298e-05, -1.4549474600065298e-05, -1.4549474600065298e-05, -1.4549474600065298e-05, -1.8127470211507397e-05, -3.177053964821588e-05, -6.068562858353003e-05, -6.912519589993076e-05, -5.596724845561282e-05, -3.86395962636029e-05, -3.383672748724282e-05, -7.4400502705290715e-06, -4.0347087667910025e-08, 8.34879558848678e-05, 6.0840590461584365e-05, -3.9117410148969026e-05, -5.6922529649860186e-05, -2.6379062429019242e-05, -2.0437072495718197e-05, -1.5571227681558933e-05, -1.4549474600065298e-05, -1.4549474600065298e-05, -1.4467479254572638e-05, -8.658648824327443e-06, 0.0, 0.0, 0.0, 0.0, 0.0, 0.0, 0.0, 0.0, 0.0, 0.0, 0.0, 0.0, 0.0, 0.0, 0.0, 0.0, 0.0, 0.0, 0.0, 0.0, 0.0, 0.0, 0.0, 0.0, 0.0, 0.0, 0.0, 0.0, 0.0, 0.0, 0.0, 0.0, 0.0, 0.0, 0.0, 0.0, 0.0, 0.0, 0.0, 0.0, 0.0, 0.0, -1.4549474600065298e-05, -1.4549474600065298e-05, -9.096784124803461e-06, -4.095068049751253e-06, -6.122120591566088e-06, -6.159807223200139e-06, -6.700998227615124e-06, -1.2941842799635278e-05, -2.1204100702323032e-05, -2.6653744353235787e-05, -4.116963456102144e-05, -6.553341889625587e-05, -1.7496432184148078e-05, 3.4776181411566384e-06, 1.3100103924340145e-05, 2.2460649033165935e-05, 4.022911834062457e-05, 8.768851928129505e-05, 8.619513203258961e-05, 5.4855007188851554e-05, -2.6197616237074037e-05, -5.5348873275843185e-05, -2.3187229498938733e-05, -1.3789665817887828e-05, -8.936936602438168e-06, -8.46684147634554e-06, -8.381988848764126e-06, -6.354936306949291e-06, -6.162227222255115e-06, -2.2598682571980385e-06, -2.118072601844436e-06, 0.0, 0.0, 0.0, 0.0, 0.0, 0.0, 0.0, 0.0, 0.0, 0.0, 0.0, 0.0, 0.0, 0.0, 0.0, 0.0, 0.0, 0.0, 0.0, 0.0, 0.0, 0.0, 0.0, 0.0, 0.0, 0.0, 0.0, 0.0, 0.0, 0.0, 0.0, 0.0, 0.0, 0.0, 0.0, 0.0, 0.0, 0.0, 0.0, 0.0, -1.4549474600065298e-05, -1.4549474600065298e-05, -8.296077500268721e-06, -1.1570144693491278e-05, -1.8213809610477326e-05, -3.099272179547025e-05, -4.384488772622108e-05, -4.8017581852997036e-05, -5.5225932820793523e-05, -7.152735297962725e-05, -9.822517129009897e-05, -7.621674873739556e-05, -3.805995237027086e-05, 1.8665091545452454e-05, 5.370657851481461e-06, 5.939331110249923e-06, 2.7754543039450974e-05, 0.00011790011836881142, 6.131538998256083e-05, -3.8115140806808037e-06, -7.658928374504033e-05, -0.00010845802926579988, -7.654209604003604e-05, -4.52131849530108e-05, -3.464289272374212e-05, -3.589668098513067e-05, -3.370624908254636e-05, -1.9143124185861616e-05, -1.4551515605372193e-05, -1.1935040284529912e-05, -1.179324462917631e-05, -9.599288325156723e-06, -1.0623718304521272e-06, 0.0, 0.0, 0.0, 0.0, 0.0, 0.0, 0.0, 0.0, 0.0, 0.0, 0.0, 0.0, 0.0, 0.0, 0.0, 0.0, 0.0, 0.0, 0.0, 0.0, 0.0, 0.0, 0.0, 0.0, 0.0, 0.0, 0.0, 0.0, 0.0, 0.0, 0.0, 0.0, 0.0, 0.0, 0.0, 0.0, 0.0, 0.0, -1.4549474600065298e-05, -1.459278106571582e-05, -8.82291672887112e-06, -1.1061106936946958e-05, -2.476972067725401e-05, -4.266601043355729e-05, -5.121241685783348e-05, -6.594925554554035e-05, -8.188223252515711e-05, -9.603706697811425e-05, -0.00012811222602048303, -0.00010020477166329452, -4.569934573119558e-05, 2.6704219388412673e-05, 3.504873070671029e-05, 5.43693911805166e-05, 0.00010742065120873574, 0.00010535837320774515, 5.945797770807514e-05, -1.563537027348806e-05, -0.00010261072057973909, -0.0001435551590438804, -0.00010773127934985835, -7.710559073860177e-05, -4.807500900496623e-05, -3.720843288425402e-05, -3.610977272405167e-05, -2.1922765074807623e-05, -1.22778542514851e-05, -1.1935040284529912e-05, -1.179324462917631e-05, -7.095126153376706e-06, 0.0, 0.0, 0.0, 0.0, 0.0, 0.0, 0.0, 0.0, 0.0, 0.0, 0.0, 0.0, 0.0, 0.0, 0.0, 0.0, 0.0, 0.0, 0.0, 0.0, 0.0, 0.0, 0.0, 0.0, 0.0, 0.0, 0.0, 0.0, 0.0, 0.0, 0.0, 0.0, 0.0, 0.0, 0.0, 0.0, 0.0, 0.0, 0.0, -1.4549474600065298e-05, -1.8035645084932248e-05, -1.2861342038068957e-05, -2.4015275346420333e-05, -4.0184270977266464e-05, -5.844558357250313e-05, -7.210334864758857e-05, -7.213258000807859e-05, -9.366820960868143e-05, -0.00012408950009668934, -0.00015238456842693482, -0.00015281816046645492, -9.401726206582666e-05, -1.2338968077638455e-05, 2.5241664402115282e-05, 7.280030061869696e-05, 0.0001392262786536368, 0.00011954930328889491, 2.981994109066088e-05, -2.6820349691232647e-05, -9.608115829045091e-05, -0.00015762105359098098, -0.0001434128465931983, -9.956665161577767e-05, -7.40062038119052e-05, -4.271223018988535e-05, -2.90685291854411e-05, -1.795258274157658e-05, -1.1935040284529912e-05, -1.1935040284529912e-05, -1.179324462917631e-05, -3.414766597881838e-06, 0.0, 0.0, 0.0, 0.0, 0.0, 0.0, 0.0, 0.0, 0.0, 0.0, 0.0, 0.0, 0.0, 0.0, 0.0, 0.0, 0.0, 0.0, 0.0, 0.0, 0.0, 0.0, 0.0, 0.0, 0.0, 0.0, 0.0, 0.0, 0.0, 0.0, 0.0, 0.0, 0.0, 0.0, 0.0, 0.0, 0.0, 0.0, 0.0, -1.4549474600065298e-05, -1.9767903710953095e-05, -2.004271228836058e-05, -3.295139325984172e-05, -5.402529986417453e-05, -7.131230818568555e-05, -7.67727127355794e-05, -9.157243164017621e-05, -0.00012750052115569245, -0.00015698709696551527, -0.00018555176722261178, -0.000211134928823555, -0.00016738631953243393, -0.00010436125934346515, -7.157585644619642e-05, 8.109380263492417e-05, 9.158804864300757e-05, 9.498782876510756e-05, 4.355061328342064e-05, -4.7264371113680985e-05, -0.00012160619531883873, -0.00019422109595724634, -0.00016950180719204347, -0.00014266379302947104, -9.146916552171375e-05, -4.962463347731086e-05, -4.141855317567792e-05, -1.5787162635662658e-05, -1.1935040284529912e-05, -1.1935040284529912e-05, -1.1262058713950245e-05, -3.0353480870060783e-07, 0.0, 0.0, 0.0, 0.0, 0.0, 0.0, 0.0, 0.0, 0.0, 0.0, 0.0, 0.0, 0.0, 0.0, 0.0, 0.0, 0.0, 0.0, 0.0, 0.0, 0.0, 0.0, 0.0, 0.0, 0.0, 0.0, 0.0, 0.0, 0.0, 0.0, 0.0, 0.0, 0.0, 0.0, 0.0, 0.0, 0.0, 0.0, 0.0, -1.4549474600065298e-05, -2.1736336127705886e-05, -3.6321999458731976e-05, -5.4180378265332644e-05, -7.052055199004525e-05, -8.176246783204306e-05, -0.0001057400995554896, -0.0001262606426669528, -0.00015223066092871472, -0.0001786521997881315, -0.00020611072613443775, -0.00023340302605944074, -0.00018340159467183857, -0.00011461247708417718, -9.39819591994143e-06, -2.2087418275703e-07, -5.072656673604872e-05, -1.274792040345144e-05, -3.691221474715422e-05, -0.00010418406463899975, -0.00016025261756291546, -0.00021799603133192358, -0.00018158100731330957, -0.00015242463629687762, -0.00012903763983714746, -8.969550719980428e-05, -8.219321031689844e-05, -3.56122220334307e-05, -2.5308034982860706e-05, -2.2389130473730505e-05, -1.7625946933831526e-05, -7.902987384592731e-06, 0.0, 0.0, 0.0, 0.0, 0.0, 0.0, 0.0, 0.0, 0.0, 0.0, 0.0, 0.0, 0.0, 0.0, 0.0, 0.0, 0.0, 0.0, 0.0, 0.0, 0.0, 0.0, 0.0, 0.0, 0.0, 0.0, 0.0, 0.0, 0.0, 0.0, 0.0, 0.0, 0.0, 0.0, 0.0, 0.0, 0.0, 0.0, 0.0, -1.4610198981587137e-05, -2.6934526089985384e-05, -3.970193395243696e-05, -6.312838465691908e-05, -8.138462901658186e-05, -0.00010922530352815012, -0.00014551122766581968, -0.00016451262155149548, -0.00018739893297043685, -0.00026373934716273793, -0.00032525885603522283, -0.0003427472032776455, -0.00022005199470503806, 2.5109948344422688e-05, 0.00014682435883746684, 0.00013531759389977257, 0.00010792229557724324, 5.002408737612192e-05, 0.0001517452052022268, -2.206833890737778e-05, -0.00019687728822156422, -0.0003169764233984235, -0.0003197980363714921, -0.0002515837009361445, -0.00019324532759043068, -0.0001518297303848179, -0.0001447224461011713, -9.235508603093851e-05, -4.212235852001408e-05, -2.7473795066201843e-05, -1.4815450949153524e-05, -4.194950649641639e-06, 0.0, 0.0, 0.0, 0.0, 0.0, 0.0, 0.0, 0.0, 0.0, 0.0, 0.0, 0.0, 0.0, 0.0, 0.0, 0.0, 0.0, 0.0, 0.0, 0.0, 0.0, 0.0, 0.0, 0.0, 0.0, 0.0, 0.0, 0.0, 0.0, 0.0, 0.0, 0.0, 0.0, 0.0, 0.0, 0.0, 0.0, 0.0, 0.0, -1.8671764139703903e-05, -3.1735242916924186e-05, -4.462316720187143e-05, -4.738769783542011e-05, -7.31885641797974e-05, -0.0001113322155831894, -0.00014786673639283237, -0.00013002328912959434, -0.00015352504395224221, -0.00024161782675412015, -0.0003177664170471039, -0.0002961277342659772, -9.6532190917398e-05, 0.00019463573251875778, 0.00023890944282088588, 0.0002764999212357627, 0.0002496936111191657, 0.00019869505261955892, 0.0002833522660422615, 5.1263236983569745e-05, -0.0001775807103003693, -0.000376701564811499, -0.00034634897840073436, -0.0002945003656981829, -0.00020649799966998537, -0.00015478577393201199, -0.00014804020592650257, -0.00011141018633232436, -5.3402197844614255e-05, -2.9493378619687923e-05, -1.2389120217840334e-05, -7.490983302931499e-07, 0.0, 0.0, 0.0, 0.0, 0.0, 0.0, 0.0, 0.0, 0.0, 0.0, 0.0, 0.0, 0.0, 0.0, 0.0, 0.0, 0.0, 0.0, 0.0, 0.0, 0.0, 0.0, 0.0, 0.0, 0.0, 0.0, 0.0, 0.0, 0.0, 0.0, 0.0, 0.0, 0.0, 0.0, 0.0, 0.0, 0.0, 0.0, 0.0, -2.3856748105884644e-05, -3.7927817902110824e-05, -4.652101331856683e-05, -4.644499728803725e-05, -8.353208938061485e-05, -0.00012071311185717127, -0.0001449883823581061, -0.00011911213651624484, -0.00015329585469122718, -0.00029525167048193235, -0.00031660780980231673, -0.00028017483281490184, -6.164262852418128e-07, 0.00024017805643928146, 0.00029056935260920016, 0.00030598701498145685, 0.00023182644721001186, 0.0003485851160446261, 0.000414075958760502, 5.67880091713743e-05, -0.00017461676796685764, -0.00041381329524056465, -0.00042375138889148346, -0.00037628643426644315, -0.0002523371709209521, -0.00016201877402942667, -0.0001618817131542886, -0.0001270744644070875, -6.852757852792492e-05, -3.320357479302985e-05, -1.2698286158370511e-05, 0.0, 0.0, 0.0, 0.0, 0.0, 0.0, 0.0, 0.0, 0.0, 0.0, 0.0, 0.0, 0.0, 0.0, 0.0, 0.0, 0.0, 0.0, 0.0, 0.0, 0.0, 0.0, 0.0, 0.0, 0.0, 0.0, 0.0, 0.0, 0.0, 0.0, 0.0, 0.0, 0.0, 0.0, 0.0, 0.0, 0.0, -9.531916839928812e-06, -1.1176618198481156e-05, -1.8259983755891543e-05, -5.036695631171311e-05, -6.654727736785992e-05, -6.558489255503964e-05, -7.735803043754464e-05, -0.00011819497770613345, -0.00010949240252730755, -0.00013854944601059496, -0.00012751040265972477, -0.00022427072801908696, -0.0002332133863085309, -0.00021111700674671718, -0.00016768758176809105, 9.041778174636321e-05, 0.00025320673807376027, 0.00029463213691115436, 0.00021877178580661038, 0.0002582226821628636, 0.0003918399299369506, 0.0005259066628348337, 0.0001329026861711824, -0.00017851884160140983, -0.0004973035061363636, -0.000540208867330006, -0.0004854287720472701, -0.00037827207013443805, -0.0002586219650706152, -0.00022779016102066792, -0.0001764878101702131, -0.00011565846535347443, -6.719296762212467e-05, -3.775652169745713e-05, -1.970738570168095e-05, -1.1162689556707765e-05, -9.068647286260509e-06, 0.0, 0.0, 0.0, 0.0, 0.0, 0.0, 0.0, 0.0, 0.0, 0.0, 0.0, 0.0, 0.0, 0.0, 0.0, 0.0, 0.0, 0.0, 0.0, 0.0, 0.0, 0.0, 0.0, 0.0, 0.0, 0.0, 0.0, 0.0, 0.0, 0.0, 0.0, 0.0, 0.0, 0.0, -1.1146211374189109e-05, -2.1605501228648255e-05, -2.2716283388393404e-05, -5.408323088104538e-05, -7.788486425375369e-05, -9.522764436679174e-05, -0.00012192225991309928, -0.00018560603908255018, -0.00019425948594500668, -0.000245748426727221, -0.0002740905472533078, -0.0003305356959309705, -0.0003328791200313331, -0.0004702383524178135, -0.0003688551342010534, -0.0001918548985805555, -9.192862690424997e-05, -0.00015726682992118043, -7.840283033922415e-05, 0.00023147342317306614, 0.0005639109081709116, 0.0006749387900169504, 0.000349705829251864, 5.304067640358307e-05, -0.00039933607230824, -0.0005504832462733157, -0.0006861778644985453, -0.0004904540121015228, -0.00043397581281200506, -0.0003863554840546082, -0.0002980710195190337, -0.00020498464190808478, -0.0001272843016004248, -6.215258304999516e-05, -4.4686586198193975e-05, -2.3405122659518248e-05, -9.689416401033246e-06, 0.0, 0.0, 0.0, 0.0, 0.0, 0.0, 0.0, 0.0, 0.0, 0.0, 0.0, 0.0, 0.0, 0.0, 0.0, 0.0, 0.0, 0.0, 0.0, 0.0, 0.0, 0.0, 0.0, 0.0, 0.0, 0.0, 0.0, 0.0, 0.0, 0.0, 0.0, 0.0, 0.0, 0.0, -2.1827872301464476e-05, -2.6278078772175138e-05, -2.6278078772175138e-05, -6.231467612562727e-05, -9.821689571084703e-05, -0.00014220868058065084, -0.00019429026065553626, -0.0002857020069102144, -0.00032107327040808184, -0.00043539814556644657, -0.0005008372489815031, -0.0005055085047045909, -0.0005595751068943973, -0.0007086890164811666, -0.000581948680546162, -0.00036033698459266754, -0.0002414060766968858, -0.00014638334216898093, 0.0002618804545211412, 0.000819177789226833, 0.0010714983835004195, 0.0009671833659932072, 0.00048615747758139877, 5.182369653199393e-06, -0.0006196641462550829, -0.0009265960060723344, -0.0010155892126651512, -0.0007438454158104688, -0.0006363139567166913, -0.0005345937054851719, -0.00041202729612434757, -0.0002687007685038853, -0.0001467949105059328, -7.19078100227076e-05, -4.8182265523679636e-05, -2.816857718060202e-05, -1.5504829881231293e-05, 0.0, 0.0, 0.0, 0.0, 0.0, 0.0, 0.0, 0.0, 0.0, 0.0, 0.0, 0.0, 0.0, 0.0, 0.0, 0.0, 0.0, 0.0, 0.0, 0.0, 0.0, 0.0, 0.0, 0.0, 0.0, 0.0, 0.0, 0.0, 0.0, 0.0, 0.0, 0.0, 0.0, 0.0, -2.5477517001805635e-05, -2.6278078772175138e-05, -4.18441015166741e-05, -7.470334583420451e-05, -0.00013992422873678525, -0.00021194385663986852, -0.00025567583538512985, -0.00037475211057095404, -0.00043693118938685564, -0.0005805891219780337, -0.0007025395463076188, -0.0007518625551023381, -0.0007209742964682272, -0.0006913293946084443, -0.0005867840700636182, -0.000384817895144144, -0.0001531384863331657, -2.3972874286081066e-07, 0.0005160010557939624, 0.0010455066147036537, 0.0012211802472506565, 0.0011417055274047252, 0.0005166184600943604, -0.0002218910693406586, -0.0009859178274765434, -0.0012573130402932747, -0.0013125224479788955, -0.0010202239586480494, -0.0008314169275307011, -0.0007129710138861606, -0.0005745416226430174, -0.00033696017026323767, -0.00018457701197647749, -0.00010871896552710171, -6.792284527638099e-05, -4.3799715514297814e-05, -3.3427615134233566e-05, -1.0481162302749386e-05, 0.0, 0.0, 0.0, 0.0, 0.0, 0.0, 0.0, 0.0, 0.0, 0.0, 0.0, 0.0, 0.0, 0.0, 0.0, 0.0, 0.0, 0.0, 0.0, 0.0, 0.0, 0.0, 0.0, 0.0, 0.0, 0.0, 0.0, 0.0, 0.0, 0.0, 0.0, 0.0, 0.0, -2.6294597598056356e-05, -2.8443090727239217e-05, -5.544000344988116e-05, -0.00010678153999958351, -0.00016298004686702498, -0.00023596012027190028, -0.0002759528633614312, -0.0004296794010802428, -0.0005942030236840505, -0.0007847105983076508, -0.0009461073866753902, -0.0010904967335598724, -0.0009076155565028394, -0.0008596982110169282, -0.000873890593634884, -0.0005737882753424604, -0.000200796151814951, 0.00027124192164693295, 0.0010082611067629753, 0.001495794704044226, 0.0016399349183849356, 0.0014306866220068523, 0.00035927370057922, -0.0005837908654316856, -0.0015727482762319344, -0.0017833612418606819, -0.0016644284251406123, -0.001317592588809243, -0.0010576911863892282, -0.0008717239215098311, -0.0006761224785463363, -0.00043236715598161046, -0.00022688972117591375, -0.00014041749930782923, -7.831913752735537e-05, -5.051733008680392e-05, -4.14511033178922e-05, -1.8234087449383765e-05, -1.824711311480173e-06, 0.0, 0.0, 0.0, 0.0, 0.0, 0.0, 0.0, 0.0, 0.0, 0.0, 0.0, 0.0, 0.0, 0.0, 0.0, 0.0, 0.0, 0.0, 0.0, 0.0, 0.0, 0.0, 0.0, 0.0, 0.0, 0.0, 0.0, 0.0, 0.0, 0.0, 0.0, 0.0, -2.6294597598056356e-05, -2.9478522248530806e-05, -7.818627683445826e-05, -0.00011410311680166424, -0.00016304092546303535, -0.00024619787969533706, -0.0003009077665890615, -0.0005206752862723365, -0.000793222641448158, -0.0010333614118495003, -0.0013418367084941938, -0.0016241310128833216, -0.0014192683978001732, -0.0016553558473587735, -0.0017514126625694756, -0.001346047911326572, -0.0006341434438579051, 0.00018751953729207415, 0.0009394824961909182, 0.00183536409117488, 0.002175233840536104, 0.0018534463737535209, 0.0006736781836575418, -0.0006876871523371924, -0.002163199193599125, -0.0025159553030844268, -0.0023476694103365995, -0.0018427849254302549, -0.0014576271534986595, -0.001124188507002851, -0.0008254780098126661, -0.0005306075395733906, -0.0003113890264181552, -0.0001785598260747496, -0.00010125128416059494, -5.479869324533059e-05, -4.1813353248816084e-05, -1.8234087449383765e-05, -1.824711311480173e-06, 0.0, 0.0, 0.0, 0.0, 0.0, 0.0, 0.0, 0.0, 0.0, 0.0, 0.0, 0.0, 0.0, 0.0, 0.0, 0.0, 0.0, 0.0, 0.0, 0.0, 0.0, 0.0, 0.0, 0.0, 0.0, 0.0, 0.0, 0.0, 0.0, 0.0, 0.0, 0.0, -2.6294597598056356e-05, -4.658360411345073e-05, -8.625940020122169e-05, -0.00011925909310409026, -0.00017007684934371582, -0.00031009485483021596, -0.00042468695145886175, -0.0007493366491979077, -0.0010957318884417613, -0.0014855106652387731, -0.0018698048278878551, -0.0023377118211688735, -0.002314967243377269, -0.0027557544639604213, -0.002663209090509198, -0.002012102236024676, -0.0006654872433731425, 0.0007908769063633027, 0.0019952498445253686, 0.0031973258860481133, 0.0029497498086118066, 0.0021730554088609235, 0.0002474703900425206, -0.0016409111047845613, -0.0033407878925810165, -0.0035324984147763363, -0.003159914392877697, -0.002427444232173653, -0.0019495173617905162, -0.0014682181847967203, -0.0010584907989392442, -0.000651090514350027, -0.0004236144873841567, -0.0002323846289299737, -0.0001084751914796259, -5.7984227180267077e-05, -4.569166641077905e-05, -1.841521241484571e-05, -1.824711311480173e-06, 0.0, 0.0, 0.0, 0.0, 0.0, 0.0, 0.0, 0.0, 0.0, 0.0, 0.0, 0.0, 0.0, 0.0, 0.0, 0.0, 0.0, 0.0, 0.0, 0.0, 0.0, 0.0, 0.0, 0.0, 0.0, 0.0, 0.0, 0.0, 0.0, 0.0, 0.0, 0.0, -2.8630433216559782e-05, -6.0474206611635424e-05, -8.760089702125785e-05, -0.00011670950567243198, -0.00018063638946594959, -0.0003489236775563627, -0.00047152467918339265, -0.0008303477023648598, -0.0011870191562359344, -0.001675285117614248, -0.0021388938207874443, -0.0026959706140701175, -0.003082356245989671, -0.003541208562125611, -0.003435849549304461, -0.0019872985282131696, 0.00029281627170567884, 0.002243144226474408, 0.003705054496500494, 0.004839481851768209, 0.004693814640072543, 0.003213179705922629, 0.0003010870578519543, -0.002084923881205149, -0.004164827785025428, -0.004675886149389809, -0.004074209016526996, -0.0030025416919642564, -0.002178034064391311, -0.0016033281381064351, -0.0011578852270153382, -0.0007410404295344539, -0.000486695812590424, -0.0002886892255499846, -0.00013333105891888977, -5.8489644775006494e-05, -4.944351119445482e-05, -1.9682638195088104e-05, -1.824711311480173e-06, 0.0, 0.0, 0.0, 0.0, 0.0, 0.0, 0.0, 0.0, 0.0, 0.0, 0.0, 0.0, 0.0, 0.0, 0.0, 0.0, 0.0, 0.0, 0.0, 0.0, 0.0, 0.0, 0.0, 0.0, 0.0, 0.0, 0.0, 0.0, 0.0, 0.0, 0.0, 0.0, -3.566466427656418e-05, -5.865000112821899e-05, -7.772344764098152e-05, -0.00011323780739021961, -0.0001944287998638113, -0.0003745843267721402, -0.0005146992442893225, -0.0008530787539531463, -0.0012453108871195104, -0.0017303250489626582, -0.002310927953773055, -0.0030432626334172186, -0.003581398980048053, -0.003924782018720958, -0.0031356357396290077, -0.0010911337690195243, 0.001157752243646126, 0.0034052319345230088, 0.005000979849249437, 0.006552654292635889, 0.006102358235067994, 0.004329468671117094, 0.000928413051751467, -0.0021066651111560004, -0.004469934260854242, -0.005186203270171812, -0.004709268741424734, -0.003563494910770989, -0.002458007186338563, -0.0017308130536618778, -0.001230105941076264, -0.0008005057268421472, -0.0005228197410089447, -0.000307798186498798, -0.00015932163227409834, -5.8355182435736676e-05, -4.0034531222586715e-05, -1.8971369956490666e-05, -1.9052112961299258e-06, 0.0, 0.0, 0.0, 0.0, 0.0, 0.0, 0.0, 0.0, 0.0, 0.0, 0.0, 0.0, 0.0, 0.0, 0.0, 0.0, 0.0, 0.0, 0.0, 0.0, 0.0, 0.0, 0.0, 0.0, 0.0, 0.0, 0.0, 0.0, 0.0, 0.0, 0.0, 0.0, -4.2398323393263736e-05, -5.787850676462292e-05, -7.900034196159283e-05, -0.00012824095624704355, -0.00021513355489395078, -0.0003905732750690681, -0.0005426269304885996, -0.0009094111755013289, -0.0013274507683440134, -0.00179400173499744, -0.0024589110582188753, -0.0034428520226827343, -0.003726983260334842, -0.0033826284431630813, -0.002358036478945842, -0.00010491314502618414, 0.0023183655668461397, 0.004235942766514302, 0.006257293182136001, 0.007546064701668796, 0.0072078019020915636, 0.005324512160240899, 0.001977900472072219, -0.0012460003172728672, -0.004504892585554123, -0.005493526162564242, -0.005197990139925956, -0.0039590406878994445, -0.0027661827159881354, -0.0018147344670788326, -0.0012824963136130291, -0.0008783452390595542, -0.0005545451929657779, -0.0003373466047285408, -0.0001850826594125065, -6.846667562605733e-05, -4.7997485877944515e-05, -1.7557260473610242e-05, -2.4284611963533203e-06, 0.0, 0.0, 0.0, 0.0, 0.0, 0.0, 0.0, 0.0, 0.0, 0.0, 0.0, 0.0, 0.0, 0.0, 0.0, 0.0, 0.0, 0.0, 0.0, 0.0, 0.0, 0.0, 0.0, 0.0, 0.0, 0.0, 0.0, 0.0, 0.0, 0.0, 0.0, 0.0, -4.876994308566491e-05, -5.817892871619931e-05, -8.73038809050323e-05, -0.00013222971290244114, -0.00022659169717261367, -0.0004018165378699601, -0.0005720463851421549, -0.0009409380684437388, -0.001437789029353577, -0.0018884611329664368, -0.0025368389022600874, -0.003537360595736143, -0.003648743519646116, -0.0029015308295814754, -0.0014337382663935992, 0.0006302602886238074, 0.002946020937470892, 0.0051522269647020814, 0.006938501324591605, 0.008191248918515337, 0.00828681859012056, 0.0062703501641986565, 0.0029015586620443163, -0.0005809403493519125, -0.00414666162211457, -0.005554664319264842, -0.00543725209722307, -0.004213922683577073, -0.003001618200884964, -0.0019667835229191027, -0.0013549867270624479, -0.0009210743854696101, -0.0005620438113098054, -0.0003548696113539975, -0.00020401680132135425, -8.392633144992174e-05, -5.2765908642804126e-05, -1.6240819659421652e-05, -1.2603080918422246e-06, 0.0, 0.0, 0.0, 0.0, 0.0, 0.0, 0.0, 0.0, 0.0, 0.0, 0.0, 0.0, 0.0, 0.0, 0.0, 0.0, 0.0, 0.0, 0.0, 0.0, 0.0, 0.0, 0.0, 0.0, 0.0, 0.0, 0.0, 0.0, 0.0, 0.0, 0.0, 0.0, -5.121815750604527e-05, -5.8295759475145686e-05, -9.503458448947795e-05, -0.000145889356713197, -0.0002439461255344671, -0.0004225359559948751, -0.0005954571178035618, -0.0009677539050089144, -0.0015178451025136405, -0.0019652461712419953, -0.002616324970097201, -0.0032808519227188315, -0.002992871679212482, -0.0020767003105283325, -0.0008859275287919089, 0.0008706258938618834, 0.0033240617673496137, 0.005005414673271141, 0.007043488422081501, 0.00898064459216661, 0.009438018811445561, 0.00753206264643327, 0.003867085128972335, 1.245953848619505e-05, -0.0037622169883509433, -0.005453629552888627, -0.005468799823104117, -0.00426756505766063, -0.0031378721041760527, -0.002115707604628129, -0.0014170679087965306, -0.0009597926882844273, -0.0005575529419169438, -0.0003547671873968387, -0.0002153846367744994, -9.953389381206803e-05, -5.122490021719773e-05, -1.5150317432309366e-05, -1.14712478125898e-06, 0.0, 0.0, 0.0, 0.0, 0.0, 0.0, 0.0, 0.0, 0.0, 0.0, 0.0, 0.0, 0.0, 0.0, 0.0, 0.0, 0.0, 0.0, 0.0, 0.0, 0.0, 0.0, 0.0, 0.0, 0.0, 0.0, 0.0, 0.0, 0.0, 0.0, 0.0, -2.012499616243824e-08, -4.983956280286914e-05, -5.634745941690588e-05, -9.727881583881758e-05, -0.00014845866187678018, -0.0002602029971992848, -0.0004326027702991334, -0.0006164036404373144, -0.0010311107664332762, -0.0015809967871267198, -0.0020924850892527994, -0.002815461952326652, -0.0028046280317648217, -0.0025857970885430487, -0.0019405492180853531, -0.0005977457669795463, 0.0008683362721559827, 0.002678594284533825, 0.004965525406244109, 0.007435194468922529, 0.009252531721105708, 0.009762682597368462, 0.008167755050452011, 0.004486950907147119, 0.0004273931103494354, -0.003575506057985695, -0.005293793346478144, -0.005407077616417316, -0.004272307094340695, -0.0032051093477041635, -0.0022289753913956015, -0.0014782856093155665, -0.0009514704238754786, -0.0005727190602504257, -0.00036407263102498493, -0.0002389327337528103, -0.00010726301198080504, -4.854004887651037e-05, -1.6064235831320225e-05, -1.1873747735838561e-06, 0.0, 0.0, 0.0, 0.0, 0.0, 0.0, 0.0, 0.0, 0.0, 0.0, 0.0, 0.0, 0.0, 0.0, 0.0, 0.0, 0.0, 0.0, 0.0, 0.0, 0.0, 0.0, 0.0, 0.0, 0.0, 0.0, 0.0, 0.0, 0.0, 0.0, 0.0, -2.012499616243824e-08, -3.6348350292519836e-05, -4.553412923755459e-05, -7.850853556308558e-05, -0.00013152867758776414, -0.00024466858188999834, -0.0004210441070565711, -0.000622331361282075, -0.0010375516897473706, -0.0016007812853314997, -0.0021922124248937996, -0.002842365876598462, -0.0029734868568516157, -0.0026429465416506225, -0.0020096665017405803, -0.0007559976630902556, 0.0003748625575695051, 0.002190478165086061, 0.004267817701067106, 0.007101962575744473, 0.009330801013755085, 0.010007237544198104, 0.008445928536739039, 0.004968122303749865, 0.0008807243486251867, -0.003311244497998435, -0.005115371600690272, -0.0053215252312766425, -0.00428235657000942, -0.003241285936855869, -0.0022895012472782658, -0.0015487548616798718, -0.0009368927036280861, -0.0005900949910514158, -0.00036265691837935465, -0.00024158876084303348, -0.00011217951449171578, -5.119292102640081e-05, -1.817705466683642e-05, -1.1873747735838561e-06, 0.0, 0.0, 0.0, 0.0, 0.0, 0.0, 0.0, 0.0, 0.0, 0.0, 0.0, 0.0, 0.0, 0.0, 0.0, 0.0, 0.0, 0.0, 0.0, 0.0, 0.0, 0.0, 0.0, 0.0, 0.0, 0.0, 0.0, 0.0, 0.0, 0.0, 0.0, -2.012499616243824e-08, -3.4063029678045275e-05, -4.4585075100455606e-05, -6.799863860679111e-05, -0.00013706944274383196, -0.00024268396444192622, -0.0004280680408171316, -0.0006319200574469278, -0.0010553293103691028, -0.001631639468723555, -0.0022589957718455217, -0.002956057664014166, -0.0031198946243949726, -0.0025777086420095824, -0.002289821620464414, -0.0014068139030848955, -0.00030229491871345453, 0.0009644613076458854, 0.003222695721701432, 0.006482923120928003, 0.009145674383537125, 0.009839745111519346, 0.008286098926379524, 0.00486867381016418, 0.000943633004147231, -0.003279744100054044, -0.005070836693854904, -0.005242578443274468, -0.004278285237764549, -0.003257406150551575, -0.0023095083808116544, -0.0015546608883613628, -0.0009451901210503901, -0.0005923933590342163, -0.00037414239276338957, -0.00023760337904524582, -0.00011517331393702667, -5.632696336304438e-05, -2.067929741085121e-05, -1.1873747735838561e-06, 0.0, 0.0, 0.0, 0.0, 0.0, 0.0, 0.0, 0.0, 0.0, 0.0, 0.0, 0.0, 0.0, 0.0, 0.0, 0.0, 0.0, 0.0, 0.0, 0.0, 0.0, 0.0, 0.0, 0.0, 0.0, 0.0, 0.0, 0.0, 0.0, 0.0, 0.0, -2.012499616243824e-08, -3.431917086996022e-05, -4.729722808344695e-05, -6.704484216712219e-05, -0.0001371020447363487, -0.00023769388222824294, -0.00041824839364983666, -0.0006119739675807623, -0.0010401008324099827, -0.0016165635050006287, -0.0022407963407005916, -0.002929441045012933, -0.0034092261775611867, -0.0030328023499719735, -0.002909901225175654, -0.00251636413489528, -0.001596372683104566, -0.00014466937844710554, 0.0025763581781654494, 0.006019881920273781, 0.008983061349478535, 0.009735490864058857, 0.008161062537639431, 0.0045135371360674826, 0.0006961429322553197, -0.003360924850673958, -0.005011437654643991, -0.005139469718991475, -0.0042125077963864705, -0.0031995636747219813, -0.0022745176206573257, -0.0014886063911284959, -0.0009333341506100913, -0.0005752348749835181, -0.00037734868011906437, -0.0002369105234308627, -0.00011488207690906586, -5.939183661520203e-05, -2.2361441111445204e-05, -2.9114714061391178e-06, 0.0, 0.0, 0.0, 0.0, 0.0, 0.0, 0.0, 0.0, 0.0, 0.0, 0.0, 0.0, 0.0, 0.0, 0.0, 0.0, 0.0, 0.0, 0.0, 0.0, 0.0, 0.0, 0.0, 0.0, 0.0, 0.0, 0.0, 0.0, 0.0, 0.0, 0.0, 0.0, -3.1230194570849135e-05, -4.411978850462561e-05, -6.758211003478134e-05, -0.00012482877651878358, -0.00024181288047552788, -0.0004197649422825815, -0.0006156392465559956, -0.0010341538765498465, -0.0015951054457575807, -0.002237139172904039, -0.0029966688883455933, -0.0035514170033926614, -0.0036936185582957183, -0.0036954242869220843, -0.003416073586766407, -0.002674753768625899, -0.001017176423834354, 0.0017977748178453021, 0.005271505482030304, 0.008433258804994752, 0.009232949218677957, 0.0076301762977457, 0.003903877416274804, 0.00017764323054546416, -0.0036209744240259193, -0.005089580372629952, -0.005121470671735984, -0.004136001433336489, -0.0031432822025502624, -0.0021767546012486615, -0.0014649456634735867, -0.0009101616381677894, -0.0005757395896023392, -0.0003774838352080862, -0.00023469844779636743, -0.0001106398231644966, -6.039834877122367e-05, -2.272243523111646e-05, -4.428507875599052e-06, 0.0, 0.0, 0.0, 0.0, 0.0, 0.0, 0.0, 0.0, 0.0, 0.0, 0.0, 0.0, 0.0, 0.0, 0.0, 0.0, 0.0, 0.0, 0.0, 0.0, 0.0, 0.0, 0.0, 0.0, 0.0, 0.0, 0.0, 0.0, 0.0, 0.0, 0.0, 0.0, -2.9672542190949645e-05, -4.3421892570967505e-05, -7.248575571871041e-05, -0.00012932437228869406, -0.00024187018003817698, -0.000414520152208976, -0.0006242725061047381, -0.001019644689582967, -0.0015881428356006326, -0.002245368983695279, -0.003038512589980062, -0.0037374468554486726, -0.004050339155460896, -0.0041816086283448, -0.0038646690190250904, -0.003447127237221191, -0.0018141156845917449, 0.0010758495266088948, 0.004670784945731374, 0.007873779019000106, 0.008541270939911087, 0.006812182567487023, 0.0032607822714197142, -0.00046002168904366665, -0.004113431731763232, -0.005224962808011144, -0.0051260834278864095, -0.004048822630460072, -0.0029734728747266496, -0.0021253390915163916, -0.0014728106404099284, -0.0008964161763373863, -0.0005749717112063371, -0.00038076286207659103, -0.00021820355326323073, -0.0001075312722633258, -6.183273592676171e-05, -2.2675574494307255e-05, -5.738589536456594e-06, 0.0, 0.0, 0.0, 0.0, 0.0, 0.0, 0.0, 0.0, 0.0, 0.0, 0.0, 0.0, 0.0, 0.0, 0.0, 0.0, 0.0, 0.0, 0.0, 0.0, 0.0, 0.0, 0.0, 0.0, 0.0, 0.0, 0.0, 0.0, 0.0, 0.0, 0.0, 0.0, -2.7928199870272867e-05, -4.2415776318222725e-05, -8.545000489100441e-05, -0.00013083905797090352, -0.00023984239395336286, -0.0004045969951211331, -0.0006189806911151812, -0.0009984475475334912, -0.0015714866553500394, -0.0021992656232386115, 