{"last": {"acc": 0.7944, "bias": [0.012951878837948622, 0.02273146521990197, -0.022362762039600494, -0.009986928275176537, 0.013880742547966887, 0.0012794228515013893, -0.013192710417677422, 0.04132060495858837, -0.04696050904432496, 0.0003387953608721899], "weights": [[0.0, 0.0, 0.0, 0.0, 0.0, 0.0, 0.0, 0.0, 0.0, 0.0, 0.0, 0.0, 0.0, 0.0, 0.0, 0.0, 0.0, 0.0, 0.0, 0.0, 0.0, 0.0, 0.0, 0.0, 0.0, 0.0, 0.0, 0.0, 0.0, 0.0, 0.0, 0.0, 0.0, 0.0, 0.0, 0.0, 0.0, 0.0, 0.0, 0.0, 0.0, 0.0, 0.0, 0.0, 0.0, 0.0, 0.0, 0.0, 0.0, 0.0, 0.0, 0.0, 0.0, 0.0, 0.0, 0.0, 0.0, 0.0, 0.0, 0.0, 0.0, 0.0, 0.0, 0.0, 0.0, 0.0, 0.0, 0.0, 0.0, 0.0, 0.0, 0.0, 0.0, 0.0, 0.0, 0.0, 0.0, 0.0, 0.0, 0.0, 0.0, 0.0, 0.0, 0.0, 0.0, 0.0, 0.0, 0.0, 0.0, 0.0, 0.0, 0.0, 0.0, 0.0, 0.0, 0.0, 0.0, 0.0, 0.0, 0.0, 0.0, 0.0, 0.0, 0.0, 0.0, 0.0, 0.0, 0.0, 0.0, 0.0, 0.0, 0.0, 0.0, 0.0, 0.0, 0.0, 0.0, 0.0, 0.0, 0.0, 0.0, 0.0, 0.0, 0.0, 0.0, 0.0, 0.0, 0.0, 0.0, 0.0, 0.0, 0.0, 0.0, 0.0, 0.0, 0.0, 0.0, 0.0, 0.0, 0.0, 0.0, 0.0, 0.0, 0.0, 0.0, 0.0, 0.0, 0.0, 0.0, 0.0, 0.0, 0.0, 0.0, 0.0, 0.0, 0.0, 0.0, 0.0, 0.0, 0.0, 0.0, 0.0, 0.0, 0.0, 0.0, 0.0, 0.0, 0.0, 0.0, 0.0, 0.0, 0.0, 0.0, 0.0, 0.0, 0.0, 0.0, 0.0, 0.0, 0.0, 0.0, 0.0, 0.0, 0.0, 0.0, 0.0, 0.0, 0.0, 0.0, 0.0, 0.0, 0.0, 0.0, 0.0, 0.0, 0.0, 0.0, 0.0, 0.0, 0.0, 0.0, 0.0, 0.0, 0.0, 0.0, 0.0, 0.0, 0.0, 0.0, 0.0, 0.0, 0.0, 0.0, 0.0, 0.0, 0.0, 0.0, 0.0, 0.0, 0.0, 0.0, 0.0, 0.0, 0.0, 0.0, 0.0, 0.0, 0.0, 0.0, 0.0, 0.0, 0.0, 0.0, 0.0, 0.0, 0.0, 0.0, 0.0, 0.0, 0.0, 0.0, 0.0, 0.0, 0.0, 0.0, 0.0, 0.0, 0.0, 0.0, 0.0, 0.0, 0.0, 0.0, 0.0, 0.0, 0.0, 0.0, 0.0, 0.0, 0.0, 0.0, 0.0, 0.0, 0.0, 0.0, 0.0, 0.0, 0.0, 0.0, 0.0, 0.0, 0.0, 0.0, 0.0, 0.0, 0.0, 0.0, 0.0, 0.0, 0.0, 0.0, 0.0, 0.0, 0.0, 0.0, 0.0, 0.0, 0.0, 0.0, 0.0, 0.0, 0.0, 0.0, 0.0, 0.0, 0.0, 0.0, 0.0, 0.0, 0.0, 0.0, 0.0, 0.0, 0.0, 0.0, 0.0, 0.0, 0.0, 0.0, 0.0, 0.0, 0.0, 0.0, 0.0, 0.0, 0.0, 0.0, 0.0, 0.0, 0.0, 0.0, 0.0, 0.0, 0.0, 0.0, 0.0, 0.0, 0.0, 0.0, 0.0, 0.0, 0.0, 0.0, 0.0, 0.0, 0.0, 0.0, 0.0, 0.0, 0.0, 0.0, 0.0, 0.0, 0.0, 0.0, 0.0, 0.0, 0.0, 0.0, 0.0, 0.0, 0.0, 0.0, 0.0, 0.0, 0.0, 0.0, 0.0, 0.0, 0.0, 0.0, 0.0, 0.0, 0.0, 0.0, 0.0, 0.0, 0.0, 0.0, 0.0, 0.0, 0.0, 0.0, 0.0, 0.0, 0.0, 0.0, 0.0, 0.0, 0.0, 0.0, 0.0, -0.0001477384359669458, -0.0001962490686131717, 4.381492138414733e-05, 0.0002327428152345518, 0.0002288344375760392, 0.00023349415379129255, 0.00022529896943751043, 0.00021511628470543827, 0.00021360223356667627, 0.00027674626755446683, 0.00021517077964307546, -7.259092784814187e-05, -0.00015453553584757898, 0.0, 0.0, 0.0, 0.0, 0.0, 0.0, 0.0, 0.0, 0.0, 0.0, 0.0, 0.0, 0.0, 0.0, 0.0, 0.0, 0.0, 0.0, 0.0, 0.0, 0.0, 0.0, 0.0, 0.0, 0.0, 0.0, 0.0, 0.0, 0.0, 0.0, 0.0, 0.0, 0.0, 0.0, 0.0, 0.0, 0.0, 0.0, 0.0, 0.0, 0.0, 0.0, 0.0, 0.0, 0.0, 0.0, 0.0, 0.0, -5.0805202296998854e-05, -0.00011101877538973828, -0.00011101877538973828, -0.00011101877538973828, -0.00011101877538973828, -0.00011101877538973828, -0.00011101877538973828, -0.00011101877538973828, -0.00011101877538973828, -0.00011101877538973828, -0.0002587572113566842, 0.00018650130351138619, 0.0003389645766138993, 0.00014684790028005466, 0.00013366718387333777, 6.256004630498202e-05, 2.458692340280487e-05, -4.254496464251543e-05, 1.6323485506447104e-05, 0.00013420658600973688, 0.00011887200360156537, 0.0006442517682308117, 0.0002760628534578166, -0.00011101877538973828, -0.00011101877538973828, -0.00011101877538973828, -0.00011101877538973828, -0.00010913710123059016, -3.763348318296212e-05, 0.0, 0.0, 0.0, 0.0, 0.0, 0.0, 0.0, 0.0, 0.0, 0.0, 0.0, 0.0, 0.0, 0.0, 0.0, 0.0, 0.0, 0.0, 0.0, 0.0, 0.0, 0.0, 0.0, 0.0, 0.0, 0.0, 0.0, 0.0, 0.0, 0.0, 0.0, 0.0, 0.0, 0.0, 0.0, 0.0, 0.0, 0.0, 0.0, 0.0, 0.0, 0.0, -0.00022297838785905055, -0.00023991345529138352, -0.00023991345529138352, -0.00023991345529138352, -0.00023991345529138352, -0.00023991345529138352, -0.00023991345529138352, -0.00023991345529138352, -0.00023991345529138352, -0.00023991345529138352, -0.00013270216248813054, 0.00040560204811937494, 0.0001673757873325734, -0.00011212898065552598, -0.00042863325935463975, -0.00028806307901021, -0.0002591311051198244, -0.00028081633027502757, -0.0004785865177675137, -0.0007247816425141478, -0.0001336017462432672, 0.0004275676713958012, 0.0008274453748702167, -3.174421433341804e-06, -0.00023991345529138352, -0.00023991345529138352, -0.00023991345529138352, -0.00023991345529138352, -0.000194753275471829, 0.0, 0.0, 0.0, 0.0, 0.0, 0.0, 0.0, 0.0, 0.0, 0.0, 0.0, 0.0, 0.0, 0.0, 0.0, 0.0, 0.0, 0.0, 0.0, 0.0, 0.0, 0.0, 0.0, 0.0, 0.0, 0.0, 0.0, 0.0, 0.0, 0.0, 0.0, 0.0, 0.0, 0.0, 0.0, 0.0, 0.0, 0.0, 0.0, 0.0, 0.0, 0.0, -0.0002625401087874173, -0.00027326488096472793, -0.00027326488096472793, -0.00027326488096472793, -0.00027326488096472793, -0.00027326488096472793, -0.00027326488096472793, -0.00027326488096472793, -0.00027326488096472793, -0.00023429762118782677, 0.0004764859711281717, 0.00033605195869248583, 0.0001517428487397123, -0.0006152516934723427, -0.00026546577825204055, -0.00022967615548038543, -0.000244887217420241, -0.0002473776187584242, -0.00037157003660393293, -0.000933248140107065, -0.0009990363196068872, 0.0001365624178482252, 0.0006861246353797615, 0.00035140918476409927, -0.0003083154702278415, -0.00027326488096472793, -0.00027326488096472793, -0.0002713832068055798, -0.00015852487041586585, 0.0, 0.0, 0.0, 0.0, 0.0, 0.0, 0.0, 0.0, 0.0, 0.0, 0.0, 0.0, 0.0, 0.0, 0.0, 0.0, 0.0, 0.0, 0.0, 0.0, 0.0, 0.0, 0.0, 0.0, 0.0, 0.0, 0.0, 0.0, 0.0, 0.0, 0.0, 0.0, 0.0, 0.0, 0.0, 0.0, 0.0, 0.0, 0.0, 0.0, 0.0, 0.0, -0.00027326488096472793, -0.00027326488096472793, -0.00014813354938137882, -4.1551138059596256e-05, -0.00034073834202891093, -0.0003422649189336515, -0.0003650829873274135, -0.0003836363202217633, -0.00022540563149300958, -0.0002475436589435462, 0.00040320540816636156, -0.00018948508697536493, -0.0010061909148857, -0.0011493410985803259, -0.0009552360967387901, -0.0010150852746849102, -0.0010172223733503404, -0.0011065013042502322, -0.001192561758612024, -0.001261482407347533, -0.001447620650453923, -0.0008586363926691325, 0.00025243713842118163, 0.00040232811419132987, -0.0005400360817446266, -0.0004374322107570757, -0.00041766055193977143, -0.00011847334797045654, -0.00011690386911524038, -8.512192229711229e-05, -8.029543069486224e-05, -8.199712386251962e-06, -1.6720982120984391e-06, 0.0, 0.0, 0.0, 0.0, 0.0, 0.0, 0.0, 0.0, 0.0, 0.0, 0.0, 0.0, 0.0, 0.0, 0.0, 0.0, 0.0, 0.0, 0.0, 0.0, 0.0, 0.0, 0.0, 0.0, 0.0, 0.0, 0.0, 0.0, 0.0, 0.0, 0.0, 0.0, 0.0, 0.0, 0.0, 0.0, 0.0, 0.0, -0.00027326488096472793, -0.00030587290891523176, -0.00014436922369324442, -3.838352911926538e-05, -0.0005245764039192979, -0.001046829643157378, -0.0010206294233626842, -0.0006949441200401504, -0.0009517315353633526, -0.0009166852365863321, -0.0003863731602088804, -0.001136984135121412, -0.002215649153593945, -0.0021841390297691965, -0.002480114492802281, -0.0033222341466526196, -0.0038786676443443454, -0.003999788793985351, -0.00407700456554322, -0.004017486015382462, -0.0041908542006025935, -0.0036157539453764514, -0.0019623968655179654, -0.0015132045264932205, -0.0021655962248319583, -0.0025084036701395634, -0.0021537467269024807, -0.0010491629740074198, -0.0003518167125541342, -0.00022861227678304112, -0.00022480349068668725, -2.1548399939324955e-05, -1.6196746028294713e-06, 0.0, 0.0, 0.0, 0.0, 0.0, 0.0, 0.0, 0.0, 0.0, 0.0, 0.0, 0.0, 0.0, 0.0, 0.0, 0.0, 0.0, 0.0, 0.0, 0.0, 0.0, 0.0, 0.0, 0.0, 0.0, 0.0, 0.0, 0.0, 0.0, 0.0, 0.0, 0.0, 0.0, 0.0, 0.0, 0.0, 0.0, 0.0, -0.00027326488096472793, -0.0003218080731297716, -0.00021180731389999375, -9.275438255278008e-05, -0.0007719440135578136, -0.0008505691123445382, -0.0009490554676705883, -0.0008274663579128657, -0.001007584605844243, -0.001197020015933626, -0.0011895025926834742, -0.001760955910188629, -0.0034233535148386974, -0.003520254167342306, -0.003663594309855763, -0.0036938991980075926, -0.0037969765267626583, -0.004431123617346585, -0.004889619104983889, -0.004719822659657997, -0.004868634184729661, -0.004227533653465707, -0.0025358291680374085, -0.002236967198949378, -0.002390157936837716, -0.0029132427946001304, -0.0028692896536788026, -0.002049362595452048, -0.00029196301242882686, -0.00022962998228893733, -0.00022480349068668725, -1.467580070780531e-05, 0.0, 0.0, 0.0, 0.0, 0.0, 0.0, 0.0, 0.0, 0.0, 0.0, 0.0, 0.0, 0.0, 0.0, 0.0, 0.0, 0.0, 0.0, 0.0, 0.0, 0.0, 0.0, 0.0, 0.0, 0.0, 0.0, 0.0, 0.0, 0.0, 0.0, 0.0, 0.0, 0.0, 0.0, 0.0, 0.0, 0.0, 0.0, 0.0, -0.00027326488096472793, -0.0004035847266702461, -0.0003060433043009577, -0.0004522870024119031, -0.0005930011854622807, -0.0010275042245966434, -0.0009597489364664386, -0.0007886526535393433, -0.0016420380321780276, -0.0014629183244570267, -0.0017385725807105943, -0.0028824579599045276, -0.0036794250816003654, -0.0033135872640063773, -0.003590154536379693, -0.0037540249579573392, -0.003916432428426595, -0.003988522437631736, -0.004300403748104268, -0.004798031278961335, -0.004914535891720842, -0.004634493323898534, -0.003260359440691771, -0.0021014438861538635, -0.0026503361129885583, -0.003200284467218745, -0.002830788410816354, -0.0016882084482426568, -0.00022962998228893733, -0.00022962998228893733, -0.00022480349068668725, -6.170768983107568e-06, 0.0, 0.0, 0.0, 0.0, 0.0, 0.0, 0.0, 0.0, 0.0, 0.0, 0.0, 0.0, 0.0, 0.0, 0.0, 0.0, 0.0, 0.0, 0.0, 0.0, 0.0, 0.0, 0.0, 0.0, 0.0, 0.0, 0.0, 0.0, 0.0, 0.0, 0.0, 0.0, 0.0, 0.0, 0.0, 0.0, 0.0, 0.0, 0.0, -0.00027326488096472793, -0.0004447302127283465, -0.0005743059367627608, -0.0001046143658697754, -0.0007463061701278141, -0.0008641336176419491, -0.001053248763047915, -0.0015869846405116702, -0.0020904270702553434, -0.0029628385101195887, -0.0028945721636145635, -0.003537965722849883, -0.0046534940041395795, -0.004070184375446047, -0.0039376684447423455, -0.004047072363288163, -0.004149374361761015, -0.004313804204796669, -0.0044756199491163195, -0.004842405474915952, -0.005522719020159295, -0.005613461537883034, -0.004061131654046702, -0.0036606323081562198, -0.003287334284137575, -0.0039505518589425, -0.0030361373332754515, -0.0012683417248153738, -0.00022962998228893733, -0.00022962998228893733, -0.00022187137488530144, -4.627641722369918e-07, 0.0, 0.0, 0.0, 0.0, 0.0, 0.0, 0.0, 0.0, 0.0, 0.0, 0.0, 0.0, 0.0, 0.0, 0.0, 0.0, 0.0, 0.0, 0.0, 0.0, 0.0, 0.0, 0.0, 0.0, 0.0, 0.0, 0.0, 0.0, 0.0, 0.0, 0.0, 0.0, 0.0, 0.0, 0.0, 0.0, 0.0, 0.0, 0.0, -0.00027326488096472793, -0.0005671735782148131, -0.0004124453960890169, -0.00021562457818497278, -0.0006973784533417423, -0.0007830909974149633, -0.0017504014821093927, -0.0020836998157952964, -0.004036849935285395, -0.003407512286725849, -0.004003618892690064, -0.004733580921629319, -0.005608158214300588, -0.005155674573396397, -0.004675074590168072, -0.004086304754574027, -0.004354062405800266, -0.004632950416335798, -0.004580485965939088, -0.0042611079463710485, -0.006044382830785252, -0.006052628215050598, -0.005724269721591283, -0.00493149502091842, -0.004860773886194194, -0.004318763892790604, -0.0030989448548362263, -0.0008109047834740608, -0.0002833326565542953, -0.00024595294714988176, -0.00021937410058784664, -4.4287103205934395e-06, 0.0, 0.0, 0.0, 0.0, 0.0, 0.0, 0.0, 0.0, 0.0, 0.0, 0.0, 0.0, 0.0, 0.0, 0.0, 0.0, 0.0, 0.0, 0.0, 0.0, 0.0, 0.0, 0.0, 0.0, 0.0, 0.0, 0.0, 0.0, 0.0, 0.0, 0.0, 0.0, 0.0, 0.0, 0.0, 0.0, 0.0, 0.0, 0.0, -0.00027677427245409306, -0.0006383846385832868, -0.00016732053534172954, -0.00030239848598271815, -0.0003628417103336736, -0.0016464743473942598, -0.0026042914723675946, -0.0039075741205675234, -0.004404572243853598, -0.00506946185288002, -0.004933456855383862, -0.00506893560411283, -0.004993165924102167, -0.004226947955850165, -0.0034186391926226893, -0.0029248594131756444, -0.0024355169731320684, -0.0026250052768083103, -0.002868875395357291, -0.0031974968469899133, -0.005306667888409931, -0.007355932313652449, -0.005928950183596152, -0.006384668007897013, -0.005884137127447713, -0.005506572261643504, -0.004182500662240039, -0.0011405659319052282, -0.0006134950102666706, -0.0003926798320855209, -0.00022425824558304996, -2.350784625149125e-06, 0.0, 0.0, 0.0, 0.0, 0.0, 0.0, 0.0, 0.0, 0.0, 0.0, 0.0, 0.0, 0.0, 0.0, 0.0, 0.0, 0.0, 0.0, 0.0, 0.0, 0.0, 0.0, 0.0, 0.0, 0.0, 0.0, 0.0, 0.0, 0.0, 0.0, 0.0, 0.0, 0.0, 0.0, 0.0, 0.0, 0.0, 0.0, 0.0, -0.000462941775649512, -0.0003689718432634873, -0.00025062376564111057, 0.00016908046179007672, 0.00038800205433440647, -0.0018203180468064218, -0.003985789317741922, -0.003620670943149044, -0.005240855569657998, -0.005352194918868022, -0.003992880436063782, -0.003939087282410441, -0.0037898763681133685, -0.00195680622878161, -0.0016247551890212568, -0.0013910809620719632, -0.0017045519214112577, -0.001291726461731429, -0.0016991743937852148, -0.0014325323193095283, -0.0023405632870252863, -0.004981005033448791, -0.004346053489887333, -0.002649642742992794, -0.0035365785350396687, -0.0036948458641192067, -0.0027939134360344033, -0.0013435962876186345, -0.00016420889865632605, -0.0003945398283958006, -0.00022031768887934046, -4.1978296877662935e-07, 0.0, 0.0, 0.0, 0.0, 0.0, 0.0, 0.0, 0.0, 0.0, 0.0, 0.0, 0.0, 0.0, 0.0, 0.0, 0.0, 0.0, 0.0, 0.0, 0.0, 0.0, 0.0, 0.0, 0.0, 0.0, 0.0, 0.0, 0.0, 0.0, 0.0, 0.0, 0.0, 0.0, 0.0, 0.0, 0.0, 0.0, 0.0, 0.0, -0.0005372217444277824, -0.00024198570868195013, -0.00030664809112244365, 0.0005888974153710633, 0.0005051914156844543, -0.002490150436203221, -0.003916433729382613, -0.0039480976968052466, -0.005934313407250741, -0.0049057546269702795, -0.003300724841698536, -0.0030819715572484776, -0.002346002157996191, -0.0008188010932666995, 0.00037216918186750564, -0.0006088564904777128, -0.0003081376227635027, 0.0002622638700042572, 0.0007512131307895805, -0.0007900086657944557, -0.0003124010013975182, -0.001594904705006871, -0.003818512159741519, -0.0020828481854993914, -0.002620451941543973, -0.0026017543710144197, -0.0018266088587225093, -0.001639796657408763, -1.864389360623493e-05, -0.00034283490909968245, -0.00022839973705215334, 0.0, 0.0, 0.0, 0.0, 0.0, 0.0, 0.0, 0.0, 0.0, 0.0, 0.0, 0.0, 0.0, 0.0, 0.0, 0.0, 0.0, 0.0, 0.0, 0.0, 0.0, 0.0, 0.0, 0.0, 0.0, 0.0, 0.0, 0.0, 0.0, 0.0, 0.0, 0.0, 0.0, 0.0, 0.0, 0.0, 0.0, -0.00031536272823778216, -0.0003755284413395983, -0.0006381522746895965, -0.0012035251334341713, -0.0011323386061688786, -0.000841077021325509, 0.0002950772290083383, -0.0017279761253964452, -0.003435545946227861, -0.004947881404965697, -0.006258391721052219, -0.00767750664313068, -0.005396507473111109, -0.003982440616303015, -0.003003397686321085, -0.001582365008040253, 0.00011390921342051865, -0.0007796853649579575, 0.00046107468625412683, 0.0001276541670284537, 0.00011857632130816115, 0.0005375751531848151, 0.0009412335938985448, -0.001267369924486714, -0.00026750717357149984, -0.0029739910284038297, -0.003861190178497803, -0.0038767533370793537, -0.0046731395619865395, -0.002935463979699178, -0.002543479491447821, -0.0013047033779082274, -0.0009514885762721566, -0.0012729197130132888, -0.0006778043618122561, -0.00038190244676075864, -0.0003134732395613204, 0.0, 0.0, 0.0, 0.0, 0.0, 0.0, 0.0, 0.0, 0.0, 0.0, 0.0, 0.0, 0.0, 0.0, 0.0, 0.0, 0.0, 0.0, 0.0, 0.0, 0.0, 0.0, 0.0, 0.0, 0.0, 0.0, 0.0, 0.0, 0.0, 0.0, 0.0, 0.0, 0.0, 0.0, -0.0003842933419069589, -0.0007671372736429835, -0.0008041881114804782, -0.001098175740091298, -0.0013388158742095122, -0.0008905033972364163, -3.31577972752775e-05, -0.00414175430143749, -0.004647008246424541, -0.006238544912230361, -0.008185514934143422, -0.009956174844884586, -0.007725627026675453, -0.005767492218582397, -0.004785979471223996, -0.003142754068580742, -0.001870312283969396, 0.0003593419795010907, 0.0040148313411093066, 0.002788080497975172, 0.0020165851227938376, 0.0015539175966697426, 3.0124082080065765e-05, -0.0025670456300565686, -0.0016574343502115767, -0.003729840806412472, -0.006133381365612297, -0.0067551727372330075, -0.00828246378332481, -0.005372735365275185, -0.004206542206280102, -0.00248433958439583, -0.0013637980975053567, -0.0018207914521400186, -0.0014097761328958783, -0.000975448802762502, -0.00044150031914666645, 0.0, 0.0, 0.0, 0.0, 0.0, 0.0, 0.0, 0.0, 0.0, 0.0, 0.0, 0.0, 0.0, 0.0, 0.0, 0.0, 0.0, 0.0, 0.0, 0.0, 0.0, 0.0, 0.0, 0.0, 0.0, 0.0, 0.0, 0.0, 0.0, 0.0, 0.0, 0.0, 0.0, 0.0, -0.0008504451376296032, -0.0010014166612822178, -0.0010014166612822178, -0.001366090312226182, -0.001159856544300912, -0.0005320122626694997, -0.0010822414625332852, -0.004716228637119448, -0.006046305274920434, -0.006797111879015846, -0.008956174479247982, -0.01036849211896343, -0.008810952839037664, -0.005116146521815604, -0.0015245783490488998, 0.0016726430000350468, 0.004613687732733017, 0.004799973243529425, 0.00683143093586319, 0.0038423962727754746, 0.004130461472359094, 0.003409946473076746, 0.0021248058684812583, -0.001924831268945671, -0.0019470876715012042, -0.0025141716726937453, -0.006079994008146751, -0.006655736169514386, -0.010193659559955812, -0.006607955957996032, -0.0045564549819295235, -0.003263175990679873, -0.0014400532830343646, -0.0017104348875256776, -0.0016113267572232832, -0.0012506357644019952, -0.0007410721656415241, 0.0, 0.0, 0.0, 0.0, 0.0, 0.0, 0.0, 0.0, 0.0, 0.0, 0.0, 0.0, 0.0, 0.0, 0.0, 0.0, 0.0, 0.0, 0.0, 0.0, 0.0, 0.0, 0.0, 0.0, 0.0, 0.0, 0.0, 0.0, 0.0, 0.0, 0.0, 0.0, 0.0, 0.0, -0.0009758675971680806, -0.0010014166612822178, -0.0011843456154917178, -0.0013772710261836403, -0.0014718009451679076, -0.0004598419316517169, -0.0023784440468291616, -0.005921559050204948, -0.006519151595577336, -0.008264301595424033, -0.009599623049642883, -0.01097613500425834, -0.00874032759683919, -0.0016453446787371656, 0.002351807203676295, 0.005635341935469293, 0.005112534681265404, 0.0045607110447051695, 0.0053828420802038285, 0.0022617200111994915, 0.0018599418691543235, 0.003770061473247087, 0.004206410798898477, -0.0010626842407955631, -0.0024404139341528126, -0.004466174342325136, -0.005864167010983329, -0.006473393845107508, -0.012076819614213117, -0.008448349946849463, -0.005726941894368054, -0.00399426414438211, -0.001974317515682846, -0.0018607809520282805, -0.0018536527024059185, -0.0012865163988153728, -0.00105131508099066, -0.00010250952940292545, 0.0, 0.0, 0.0, 0.0, 0.0, 0.0, 0.0, 0.0, 0.0, 0.0, 0.0, 0.0, 0.0, 0.0, 0.0, 0.0, 0.0, 0.0, 0.0, 0.0, 0.0, 0.0, 0.0, 0.0, 0.0, 0.0, 0.0, 0.0, 0.0, 0.0, 0.0, 0.0, -4.99204777637462e-07, -0.0010655941488810507, -0.0011325943624653778, -0.0013155130356529534, -0.0010847280364184725, -0.0006556553133557879, -2.963377811626455e-05, -0.0018974377776569493, -0.004344437093019568, -0.006018014339649724, -0.007815973408221268, -0.008737569992627639, -0.009822738365784855, -0.0046371516773625185, 0.0010939485505694687, 0.006550514234409142, 0.007641356640029653, 0.00912471528824175, 0.00961053733142767, 0.011506900611045253, 0.008894497018716196, 0.007980234459713314, 0.008639894549135538, 0.009956961023047016, 0.005400948870204945, 0.000858243296670085, -0.004720347899711939, -0.005730892955066747, -0.004584503164662488, -0.008144918259948494, -0.008777920569805338, -0.005308964332998187, -0.002847194448245257, -0.001338587122413153, -0.000756452551388245, -0.0012307908547033357, -0.0010278070050963645, -0.0010880153625659372, -0.00011780366250082756, -3.0097792145238036e-06, 0.0, 0.0, 0.0, 0.0, 0.0, 0.0, 0.0, 0.0, 0.0, 0.0, 0.0, 0.0, 0.0, 0.0, 0.0, 0.0, 0.0, 0.0, 0.0, 0.0, 0.0, 0.0, 0.0, 0.0, 0.0, 0.0, 0.0, 0.0, 0.0, 0.0, 0.0, -4.99204777637462e-07, -0.0010655941488810507, -0.001127908635549249, -0.0005247160469158228, -9.708022957433517e-06, 0.00018671082635241082, -0.0008344749060522318, -0.0014715400652855427, -0.0049674344437374155, -0.0076394695863385605, -0.008404387101601457, -0.011483458001519897, -0.011095487502698849, -0.007786532227497023, 0.00036655046594563233, 0.004303303935200035, 0.004135523424716242, 0.0073168881993740794, 0.009723501498304057, 0.014889268440847207, 0.01127456601420295, 0.00895195299568681, 0.010247522018963862, 0.007746587179551939, -6.209377270313271e-05, -0.0016381575458059656, -0.00534449330179155, -0.00992693205584685, -0.011466329196807894, -0.00907690988512274, -0.0077755352199638805, -0.007324294185106858, -0.003487323313113844, -0.0020279538693512176, -0.00041260336188917124, -0.0008799813622126126, -0.00026867465055879964, -0.00011430561949511262, 1.301953683114312e-06, -3.0097792145238036e-06, 0.0, 0.0, 0.0, 0.0, 0.0, 0.0, 0.0, 0.0, 0.0, 0.0, 0.0, 0.0, 0.0, 0.0, 0.0, 0.0, 0.0, 0.0, 0.0, 0.0, 0.0, 0.0, 0.0, 0.0, 0.0, 0.0, 0.0, 0.0, 0.0, 0.0, 0.0, -4.99204777637462e-07, -0.0010655941488810507, -0.0003709294077781189, 0.00013114845889837634, -0.00010251097502928492, 0.0003144231646785411, -0.002240505788615074, -0.003935496157780358, -0.00774440331112559, -0.009692018322073614, -0.013116070008274801, -0.018176384128606192, -0.017927809456602294, -0.009916536928437046, -0.006729324821831118, -0.005215800263569263, 0.002683750884929809, 0.00837440473025837, 0.009864255032410486, 0.011780248375669928, 0.004874044575857786, 0.002891655301951712, 0.004897540483759497, 0.005358949431643121, -0.002966916033222846, -0.00786241255585415, -0.008559737656146432, -0.014461828627461405, -0.014535568185095209, -0.01470235279890843, -0.008388526264229425, -0.005271282458978304, -0.0048360589300255885, -0.002743709980191295, -0.0009504919974396118, -0.0006174820838302161, -0.0004894630082591013, 0.00012554453343386373, 0.0009973806634004131, 4.030135394327323e-05, 0.0, 0.0, 0.0, 0.0, 0.0, 0.0, 0.0, 0.0, 0.0, 0.0, 0.0, 0.0, 0.0, 0.0, 0.0, 0.0, 0.0, 0.0, 0.0, 0.0, 0.0, 0.0, 0.0, 0.0, 0.0, 0.0, 0.0, 0.0, 0.0, 0.0, 0.0, -4.99204777637462e-07, -0.0008794276221337381, 0.00037411208847662556, 1.798341877102123e-05, 1.7145326717238407e-05, 6.406390321668493e-05, -0.002653368731861007, -0.00438421941951769, -0.005229168278252145, -0.008941544435357033, -0.012387460603009189, -0.01778066314878895, -0.015994854799583326, -0.013750734727337056, -0.004764852357905604, 0.004650112121829697, 0.009218755314514587, 0.010338904760064858, 0.009482415797858945, 0.002604170253798588, -0.004497656050235932, -0.001687748681381048, 0.007066658427542918, 0.01200706510420218, 0.0064970472884109485, 0.0014693104260977829, -0.0030811304009512454, -0.009754111323113844, -0.01725583718945102, -0.013531424596283165, -0.006653011038341315, -0.0024524521196214928, -0.0008762008925850333, -0.002641542890258421, -0.0017686431396596231, -0.0007842618266835108, -0.0005756389935651668, -1.4205953151402542e-05, 0.0012093126737026886, 0.0006574850014418814, 0.0, 0.0, 0.0, 0.0, 0.0, 0.0, 0.0, 0.0, 0.0, 0.0, 0.0, 0.0, 0.0, 0.0, 0.0, 0.0, 0.0, 0.0, 0.0, 0.0, 0.0, 0.0, 0.0, 0.0, 0.0, 0.0, 0.0, 0.0, 0.0, 0.0, 0.0, -4.99204777637462e-07, -0.00025494417074416545, 0.0003611009752347517, 3.5010631912540556e-05, -0.0002488895307016609, 0.00011141830744636105, -0.0023139431239907866, -0.003009872788773811, -0.0037906104690004507, -0.007350540365915039, -0.011598825247776194, -0.01293825451052391, -0.0162991939531671, -0.007673955132977154, 0.004927028310601104, 0.006579332068647744, 0.006494849995788309, 0.010273965086084923, 0.005816957474650567, -0.002678392894137397, -0.011837666265631635, -0.008529288143957953, 0.0018158530920933296, 0.010791921667077046, 0.014404549446800561, 0.01404015029755783, 0.009604589773947108, -0.003325227428843396, -0.005650356619406712, -0.010994764583724184, -0.002426222794277212, 0.0016392585185069288, 0.002899524182468583, 0.0007961754843584073, -0.001166494977814512, -0.00021148752240854874, -0.0004952383400524444, 0.000504544755495311, 0.001169131651760797, 0.0012343308542910791, 0.0, 0.0, 0.0, 0.0, 0.0, 0.0, 0.0, 0.0, 0.0, 0.0, 0.0, 0.0, 0.0, 0.0, 0.0, 0.0, 0.0, 0.0, 0.0, 0.0, 0.0, 0.0, 0.0, 0.0, 0.0, 0.0, 0.0, 0.0, 0.0, 0.0, 0.0, -4.99204777637462e-07, 0.000135843433348722, 0.0003325176496201457, -0.00010653120547263092, -0.0006334581058709988, 0.0008802253415739098, -0.0006041374107853407, -0.001814050024792939, -0.0024805663255911777, -0.005012890043354577, -0.006751798790113131, -0.009244767375849125, -0.011864714752680168, -0.0010697444844515575, 0.007594415977007484, 0.0037982206935184832, 0.007646531185494006, 0.012066042692675598, 0.005331313299478278, -0.007218795448263346, -0.014293257533721, -0.010844683060659917, 0.0009118374056156877, 0.010057033362875936, 0.014037548872380186, 0.01982535154649369, 0.017156864829558666, 0.007012713340376626, -0.0009918634849919797, -0.0009052527730949008, 0.0015862207229927752, 0.0049524930119568605, 0.0032151803806711042, 0.0040234908645407795, 0.0004991549508582784, 0.00015623088964389792, -0.0006650185405956659, 0.00011964774674890382, 0.0011390005063423888, 0.0013592284416677307, 0.00018407231592063744, 0.0, 0.0, 0.0, 0.0, 0.0, 0.0, 0.0, 0.0, 0.0, 0.0, 0.0, 0.0, 0.0, 0.0, 0.0, 0.0, 0.0, 0.0, 0.0, 0.0, 0.0, 0.0, 0.0, 0.0, 0.0, 0.0, 0.0, 0.0, 0.0, 0.0, -4.99204777637462e-07, 0.00038505851130630434, 0.0003198938657112776, -0.0004287001688802452, 1.2891089932823908e-05, 0.0017169865715177283, 0.0007737857025798716, 7.115214803229812e-05, -0.0009444183723266098, -0.0024983216873068095, -0.000697354322876218, -0.006533564333676037, -0.008474656397999162, 0.002134189762645165, 0.004014912788440206, 0.006854615312150909, 0.014564455982720924, 0.018153051337120446, 0.0050327148148978105, -0.008349255939026792, -0.014770174112125061, -0.014571061710602504, 0.001965950305507567, 0.01668478737617628, 0.01695731597398531, 0.019034254788278204, 0.01985493960081804, 0.015163930298535333, 0.004204375895561683, 0.006167492303076864, 0.00796536303649618, 0.009450704981475459, 0.004278797585135938, 0.005168578524236144, 0.002554273023606151, 0.0011830478717353042, -0.0005531254822784194, -0.00018270379509083832, 0.001079999466392508, 0.0013507702835083317, 0.00038980019842017335, 0.0, 0.0, 0.0, 0.0, 0.0, 0.0, 0.0, 0.0, 0.0, 0.0, 0.0, 0.0, 0.0, 0.0, 0.0, 0.0, 0.0, 0.0, 0.0, 0.0, 0.0, 0.0, 0.0, 0.0, 0.0, 0.0, 0.0, 0.0, 0.0, 0.0, -4.99204777637462e-07, 0.0004978261554236445, 0.00033343765503201784, -0.00023406718996320778, 0.0005542869209845594, 0.0025969763087590964, 0.0025418126959785435, 0.0013386159595910746, 0.0007509994265522592, 0.002157604690798108, -0.002010068196623877, -0.003990868954495947, -0.006977347605047804, 0.003077897876570072, 0.0025559260356124883, 0.010107942022385285, 0.01799669357182355, 0.013553729989907152, 0.004331426027406435, -0.01048854133032222, -0.017525374570334224, -0.019320552135353233, -0.002100764679567523, 0.015292214957888605, 0.019861107891641427, 0.019029366250821855, 0.018742896328189214, 0.0145386785091341, 0.01198962826818345, 0.010424404884142344, 0.010262885568524126, 0.011515065045402478, 0.007854386546942226, 0.005430372278518953, 0.004500345098323762, 0.002666305040928692, 4.718693939691094e-05, -0.00010687314477282333, 0.0008791984683956144, 0.0013457644872119808, 0.0004872502480252166, 0.0, 0.0, 0.0, 0.0, 0.0, 0.0, 0.0, 0.0, 0.0, 0.0, 0.0, 0.0, 0.0, 0.0, 0.0, 0.0, 0.0, 0.0, 0.0, 0.0, 0.0, 0.0, 0.0, 0.0, 0.0, 0.0, 0.0, 0.0, 0.0, 0.0, 9.718440227727575e-06, 0.0009644204594992878, 0.0009162079744838155, 0.0007217949959980794, 0.0014729461356910024, 0.004554804976447383, 0.004011002129272371, 0.0033047996483893936, 0.004748756851705128, 0.004082560945045925, 0.001818852915834333, -0.0016391707516373573, -0.0002524959489056647, 0.00420506873755761, 0.004147556437839088, 0.00766642694467904, 0.014303403803942894, 0.010106780964094201, -0.002385446558783422, -0.013884498272320262, -0.02236288743468883, -0.02277046966068166, -0.007825434793065626, 0.011330632196607444, 0.017072675706976043, 0.01778350156230926, 0.019375224702714685, 0.01891080815616736, 0.016341114590579985, 0.012891910617454002, 0.014756157598706379, 0.012594127741723015, 0.012024494585910903, 0.006811301699573312, 0.004602911788278391, 0.003940126645319067, 0.0008844025249969703, 0.00045327434004043416, 0.0008261253609873295, 0.0013445442106438115, 0.0005089058146041152, 0.0, 0.0, 0.0, 0.0, 0.0, 0.0, 0.0, 0.0, 0.0, 0.0, 0.0, 0.0, 0.0, 0.0, 0.0, 0.0, 0.0, 0.0, 0.0, 0.0, 0.0, 0.0, 0.0, 0.0, 0.0, 0.0, 0.0, 0.0, 0.0, 0.0, 9.718440227727575e-06, 0.0011317884801187058, 0.0014079046430797867, 0.0012603292096099491, 0.0025665740955975397, 0.006178290425237881, 0.004699828891134265, 0.006847764463606748, 0.006098367391117934, 0.003969993029162972, 0.005206037469438906, 0.0035315371267380775, 0.0024545561279180057, 0.00182787194122948, 0.0035809768064188393, 0.004989301635734676, 0.00895625805439878, 0.0031351250183021995, -0.006065273904309029, -0.01843481183704721, -0.02490442217489429, -0.026827075266591876, -0.01569230586250842, 0.0025584798755846918, 0.011390043258621039, 0.010623462967528063, 0.019195740734827636, 0.020865602994077834, 0.018160661735594108, 0.018199045882904316, 0.018158518377802628, 0.015323100463845074, 0.013316129521360309, 0.01139337159363573, 0.006071252096581704, 0.005442722606550976, 0.0016597957136336345, 0.000717897915063774, 0.0010094007421653018, 0.0013445442106438115, 0.0005089058146041152, 0.0, 0.0, 0.0, 0.0, 0.0, 0.0, 0.0, 0.0, 0.0, 0.0, 0.0, 0.0, 0.0, 0.0, 0.0, 0.0, 0.0, 0.0, 0.0, 0.0, 0.0, 0.0, 0.0, 0.0, 0.0, 0.0, 0.0, 0.0, 0.0, 0.0, 9.718440227727575e-06, 0.0012553350329957442, 0.0018061309774653031, 0.0016011315398379625, 0.0038948074614324445, 0.006762324844818339, 0.007033970009583425, 0.008060545741699555, 0.007647158855058905, 0.005597504985456875, 0.008851121901069854, 0.009674892705027206, 0.0016239428460036295, 0.001891992164071735, 0.0030644184933443313, 0.00020002139084644696, 0.005064264491903959, 0.0005929822242281254, -0.007994052668362617, -0.02202342714142321, -0.02862407065613259, -0.0301641727832855, -0.017251614389242026, -0.00031541198515131033, 0.006221099134448737, 0.005429177124102734, 0.016749334543364143, 0.020039687717162278, 0.02013245234374354, 0.021729212363630315, 0.021416172065358795, 0.01841953310353717, 0.014747792117604427, 0.012690890356101195, 0.008388433465016366, 0.0063583458586596985, 0.0025786685034885474, 0.0005438339179420634, 0.0013258473174098825, 0.0013445442106438115, 0.0005089058146041152, 0.0, 0.0, 0.0, 0.0, 0.0, 0.0, 0.0, 0.0, 0.0, 0.0, 0.0, 0.0, 0.0, 0.0, 0.0, 0.0, 0.0, 0.0, 0.0, 0.0, 0.0, 0.0, 0.0, 0.0, 0.0, 0.0, 0.0, 0.0, 0.0, 0.0, 9.718440227727575e-06, 0.0014409378708560494, 0.002054002499840387, 0.002225700118232401, 0.005024746217406014, 0.00693516270847006, 0.010680710681328889, 0.008050147808485456, 0.010170049657099408, 0.011094570708129204, 0.013935251498340746, 0.01407391963177987, 0.0018312529112793714, 0.0030428709672141387, 0.0018751960287763155, 0.006121999800719498, 0.00710951819956704, -0.0018146351966199404, -0.009992567500665352, -0.027213290205573504, -0.03616051896671242, -0.03919663268728375, -0.025194544259864338, -0.012288749090163077, -0.0007709275856024584, 0.0015126502392540314, 0.010958066984635414, 0.020840516961293215, 0.021949994614440322, 0.02309366185375346, 0.026318288004142838, 0.0222665605100196, 0.017246776347837885, 0.013567912064291882, 0.010627931544537606, 0.007101179640593402, 0.003300889547872993, 0.0009045572133543284, 0.0015376168181748936, 0.0014197626080453434, 0.0005089058146041152, 0.0, 0.0, 0.0, 0.0, 0.0, 0.0, 0.0, 0.0, 0.0, 0.0, 0.0, 0.0, 0.0, 0.0, 0.0, 0.0, 0.0, 0.0, 0.0, 0.0, 0.0, 0.0, 0.0, 0.0, 0.0, 0.0, 0.0, 0.0, 0.0, 0.0, 1.0328578511811796e-05, 0.0019680178484136903, 0.0023107673242758284, 0.003008376381460017, 0.005839508786159149, 0.007760827215114085, 0.011802337531225908, 0.008157876402047176, 0.011852453126897759, 0.01602312324057105, 0.018657400660171634, 0.017157746364632652, 0.0036275629902265665, 0.002122329643771477, 0.006319508313363062, 0.00455770415259159, 0.0023886885217407634, -0.007586279466387282, -0.016017865399735536, -0.03388521047775175, -0.04147693604074068, -0.04541049466833669, -0.035346417281515, -0.022516370527982024, -0.014571460982886508, -0.004826736794878043, 0.006226813689202638, 0.018314300197266566, 0.02239511148693888, 0.023182724221281474, 0.02865461797281052, 0.02496936559572137, 0.018872826495503404, 0.013700616894166611, 0.01227145725220275, 0.008175322814810863, 0.0036070440303344778, 0.0015504775737730143, 0.0016548969282178842, 0.001509757777818994, 0.0005089058146041152, 0.0, 0.0, 0.0, 0.0, 0.0, 0.0, 0.0, 0.0, 0.0, 0.0, 0.0, 0.0, 0.0, 0.0, 0.0, 0.0, 0.0, 0.0, 0.0, 0.0, 0.0, 0.0, 0.0, 0.0, 0.0, 0.0, 0.0, 0.0, 0.0, 0.0, 1.0328578511811796e-05, 0.0024705911335759934, 0.00216079047356876, 0.0035077883507487846, 0.0060881169594482875, 0.009695417148658755, 0.01146407786558754, 0.008729950626891489, 0.014028220951323882, 0.020852643478589245, 0.02155858994337262, 0.020630693843317442, 0.005574082859243035, 0.004467162590513545, 0.0068796172220323155, -0.0004991393157862773, -0.005622151818947877, -0.018515680141302327, -0.027692246400057227, -0.045061376971387485, -0.053103053341565225, -0.057840415414211754, -0.049296496233428654, -0.03468803115367303, -0.028292230954511517, -0.015319003128516646, 0.0011322697314617213, 0.015691026889540806, 0.021363911299273654, 0.025202367683301908, 0.030493033844754592, 0.02610670719119949, 0.018991127019487488, 0.01439452259494087, 0.012396893307860691, 0.010220170740918818, 0.003720667068980259, 0.0021750563414803734, 0.0017045327354658466, 0.001562085301476972, 0.00047133825865401663, -4.3938661929939807e-07, 0.0, 0.0, 0.0, 0.0, 0.0, 0.0, 0.0, 0.0, 0.0, 0.0, 0.0, 0.0, 0.0, 0.0, 0.0, 0.0, 0.0, 0.0, 0.0, 0.0, 0.0, 0.0, 0.0, 0.0, 0.0, 0.0, 0.0, 0.0, 0.0, 1.0328578511811796e-05, 0.0026088853564686107, 0.002255430275319297, 0.003655839000292517, 0.006175954022404806, 0.01139642535273862, 0.011310488078157165, 0.009947958729901663, 0.016471572058133557, 0.0246205080901644, 0.02531012067954367, 0.022521593336358878, 0.009464782524870954, 0.00602854623015044, 0.00593941143116611, -0.005450947519918213, -0.013532404325252968, -0.026689219316062596, -0.03926922238826819, -0.05604778215031366, -0.0640112637920549, -0.07161134800882146, -0.0623651025145163, -0.048812694201188986, -0.04220200907097272, -0.024488198603526225, -0.0030344526962869213, 0.01072159562083016, 0.019991518969992197, 0.02498379539475071, 0.0308745936641423, 0.026050768120136805, 0.01848489211092504, 0.013429424140489272, 0.012354532790519398, 0.012102029050407026, 0.003956987012252118, 0.0022582056472009154, 0.0017723221781853525, 0.001595950307762232, 0.00045288402064344195, -4.3938661929939807e-07, 0.0, 0.0, 0.0, 0.0, 0.0, 0.0, 0.0, 0.0, 0.0, 0.0, 0.0, 0.0, 0.0, 0.0, 0.0, 0.0, 0.0, 0.0, 0.0, 0.0, 0.0, 0.0, 0.0, 0.0, 0.0, 0.0, 0.0, 0.0, 0.0, 2.226862679256432e-07, 0.0023463914996871304, 0.0023350920205461485, 0.0037149833291922384, 0.006295978787185631, 0.012281802502265553, 0.011058819341189224, 0.012305648271816086, 0.019487845733074313, 0.02700336266919197, 0.029060976412171282, 0.02497078193427246, 0.014159317080925281, 0.007983286028293768, 0.005538210986376768, -0.008362144177677375, -0.018662366819618095, -0.03494788077673742, -0.05066197821785787, -0.06861951433229253, -0.07380229186198156, -0.08389706413652734, -0.07373653708436366, -0.05949107573529438, -0.051579036211311144, -0.03190916862248576, -0.005569562339805148, 0.009463258788874834, 0.018407684012310774, 0.023068798816783538, 0.028970236889295432, 0.025489700206011035, 0.017089475791349992, 0.013266731450151682, 0.011878761240345965, 0.012796168130661586, 0.0042635023786226234, 0.0016492148868494669, 0.001780893425175421, 0.0016216332451801604, 0.00045288402064344195, -4.3938661929939807e-07, 0.0, 0.0, 0.0, 0.0, 0.0, 0.0, 0.0, 0.0, 0.0, 0.0, 0.0, 0.0, 0.0, 0.0, 0.0, 0.0, 0.0, 0.0, 0.0, 0.0, 0.0, 0.0, 0.0, 0.0, 0.0, 0.0, 0.0, 0.0, 0.0, -4.129934925586748e-05, 0.0022395255304075027, 0.0023033747427205946, 0.0038097786661397603, 0.006181798190920051, 0.012771272621331773, 0.010839489963112481, 0.013718698593133813, 0.020028379193278434, 0.028539103018919616, 0.03165996783238524, 0.027504325432682414, 0.016237139381831883, 0.010864400464968402, 0.003938433476129017, -0.011166070036648537, -0.02218724186009493, -0.035503355301788324, -0.05173021878556476, -0.07031264720189885, -0.07636147924547021, -0.08869212852105242, -0.08012717261413921, -0.0673655367317719, -0.05700931808969394, -0.039705820484455534, -0.011252439093269609, 0.008459262261778346, 0.01535483328217651, 0.021071018020155156, 0.026750330411703382, 0.022610095460912465, 0.014572571719744618, 0.013242184051583885, 0.011086636043473456, 0.012375947729551723, 0.004351929211935769, 0.0013298857867917332, 0.0017006242548809887, 0.0016416914844872362, 0.00045288402064344195, -4.3938661929939807e-07, 0.0, 0.0, 0.0, 0.0, 0.0, 0.0, 0.0, 0.0, 0.0, 0.0, 0.0, 0.0, 0.0, 0.0, 0.0, 0.0, 0.0, 0.0, 0.0, 0.0, 0.0, 0.0, 0.0, 0.0, 0.0, 0.0, 0.0, 0.0, 0.0, -4.129934925586748e-05, 0.0020654303101224924, 0.002200675538015296, 0.0039334314606022875, 0.005846604197011928, 0.011967259009215605, 0.0109140476976672, 0.01370464931539119, 0.020001121096106085, 0.028935102720217563, 0.034131398480984704, 0.02881873242579595, 0.018004390495672633, 0.011318154618276201, 0.002448573112506061, -0.011919337594581707, -0.020973473955272222, -0.0294029980372724, -0.04566090195027643, -0.06463134712525796, -0.07407290990842201, -0.08344777695791296, -0.07422302878426949, -0.06486595940429019, -0.060340885420865596, -0.04350194150394615, -0.015737996157061507, 0.003064621398415442, 0.012550309719371369, 0.016957204099727743, 0.022937934269552627, 0.01853251110142435, 0.011410977827352415, 0.011704701587660103, 0.009437799389451862, 0.01084371906005542, 0.003952607996278087, 0.001111092302798671, 0.001520740190218807, 0.0016266478050069291, 0.00045288402064344195, -4.3938661929939807e-07, 0.0, 0.0, 0.0, 0.0, 0.0, 0.0, 0.0, 0.0, 0.0, 0.0, 0.0, 0.0, 0.0, 0.0, 0.0, 0.0, 0.0, 0.0, 0.0, 0.0, 0.0, 0.0, 0.0, 0.0, 0.0, 0.0, 0.0, 0.0, 0.0, -4.129934925586748e-05, 0.0019095733183471194, 0.0021300441972281125, 0.0038043610849875097, 0.005292234450657776, 0.011655713399768997, 0.010874906110643876, 0.014010300919482384, 0.02002851038560929, 0.027929112887549613, 0.035185889362394876, 0.03151647053406701, 0.02179910832516186, 0.013360586306693428, 0.009237232537631382, -0.006131899899694446, -0.012207904258598351, -0.019050280921674715, -0.03583964021685281, -0.05607785336948675, -0.06720732896775644, -0.07369988372937028, -0.06442638852824317, -0.057234775907953665, -0.05362988322393727, -0.04013722062169275, -0.015613308065027027, -0.0011000069853045929, 0.008345457116000642, 0.012925664179642277, 0.017175452030276473, 0.013116648251431086, 0.0077978083457311935, 0.008780702035065513, 0.007816386638928923, 0.00918539373274802, 0.002784635507669904, 0.000625854795800453, 0.001282681648146388, 0.001588628648353221, 0.00045288402064344195, -4.3938661929939807e-07, 0.0, 0.0, 0.0, 0.0, 0.0, 0.0, 0.0, 0.0, 0.0, 0.0, 0.0, 0.0, 0.0, 0.0, 0.0, 0.0, 0.0, 0.0, 0.0, 0.0, 0.0, 0.0, 0.0, 0.0, 0.0, 0.0, 0.0, 0.0, 0.0, -4.129934925586748e-05, 0.0017938800745156643, 0.002028266179537277, 0.003188842682667168, 0.004480251853482804, 0.010761565661277832, 0.010269826981476859, 0.014617708964077733, 0.01931226688455484, 0.02828497904583481, 0.0360039442330466, 0.03385425165606192, 0.02596835413392794, 0.02070750285087039, 0.01729870261613935, 0.005280583514648579, 0.00021259529079581895, -0.008541134943004288, -0.024608185986425588, -0.04789275607353808, -0.05659791848283922, -0.061870867808047236, -0.0516348237505571, -0.04226371241060228, -0.041603687274614456, -0.030586734389488255, -0.011017494876667283, -0.0021405983202122236, 0.005822536840360084, 0.007725194763060333, 0.010818810541727222, 0.008121340589848626, 0.004376225508568272, 0.005438184518254223, 0.006002429840848421, 0.007236958327409634, 0.001447293459689022, -0.0003103742716836969, 0.0010591241732185869, 0.0015194353097248276, 0.00045288402064344195, -4.3938661929939807e-07, 0.0, 0.0, 0.0, 0.0, 0.0, 0.0, 0.0, 0.0, 0.0, 0.0, 0.0, 0.0, 0.0, 0.0, 0.0, 0.0, 0.0, 0.0, 0.0, 0.0, 0.0, 0.0, 0.0, 0.0, 0.0, 0.0, 0.0, 0.0, 0.0, -4.1410282762314226e-05, 0.0014170377117263767, 0.0018231534385252924, 0.0022291842523343274, 0.003704693108848409, 0.008766287154723685, 0.009286510090976618, 0.01325480786863576, 0.018275192846675895, 0.02613670291717131, 0.036699493419635056, 0.03533954342833187, 0.03257730478318796, 0.02921083882120236, 0.027640345777857955, 0.017138149055199812, 0.010541948164932397, 0.0025312404154696146, -0.014904359477244502, -0.03920353547102777, -0.04724249506412211, -0.049748975136544485, -0.03894761535483082, -0.02698156105428547, -0.02651052321473924, -0.01602582597618761, 0.0006900931669188927, 0.00023355989817017822, 0.0037863878876211302, 0.004133094103804468, 0.004726989945385248, 0.0033907205360867447, 0.0010510875409190273, 0.0026556519485839768, 0.003752663696551017, 0.004858008677372011, 0.0003013533396078416, -0.0012209235711047293, 0.0008642737038791539, 0.0014301503684008335, 0.00045288402064344195, -4.3938661929939807e-07, 0.0, 0.0, 0.0, 0.0, 0.0, 0.0, 0.0, 0.0, 0.0, 0.0, 0.0, 0.0, 0.0, 0.0, 0.0, 0.0, 0.0, 0.0, 0.0, 0.0, 0.0, 0.0, 0.0, 0.0, 0.0, 0.0, 0.0, 0.0, 0.0, -4.1410282762314226e-05, 0.0010900055596319977, 0.0014852392472288782, 0.0013921141491596652, 0.00293261676523399, 0.006639815319203836, 0.00794322562243438, 0.010272433675638659, 0.014617324860160293, 0.02112169719448463, 0.03350027251941883, 0.035148448362618843, 0.032226777547591484, 0.036476705385189184, 0.038570316290136984, 0.026432378006933998, 0.018883592754160298, 0.009764548984519747, -0.01102912449757417, -0.035156947614849915, -0.04329584659156681, -0.04218867175222565, -0.028612588132391967, -0.011572173936466097, -0.010096342832426814, -0.0015599207330527025, 0.009995110690717549, 0.0017386523771950263, 0.0015239849169554948, -0.001473751223702732, -0.0011759402911863165, -0.0013250685930530435, -0.0019536334694990306, 7.318278456061699e-05, 0.0020386985458081264, 0.002690840509827693, -0.0008557603420083815, -0.0015607865920974733, 0.0006050594680899287, 0.0013336534551240573, 0.00045288402064344195, -4.3938661929939807e-07, 0.0, 0.0, 0.0, 0.0, 0.0, 0.0, 0.0, 0.0, 0.0, 0.0, 0.0, 0.0, 0.0, 0.0, 0.0, 0.0, 0.0, 0.0, 0.0, 0.0, 0.0, 0.0, 0.0, 0.0, 0.0, 0.0, 0.0, 0.0, 0.0, -9.994139482407269e-06, 0.0007704983989613968, 0.001001570290893031, 0.00036335088101783846, 0.0015363229966311425, 0.0045353220646002996, 0.006529383969197865, 0.008126919913857302, 0.010746164043879413, 0.016623358783772208, 0.030243099434179115, 0.033687656946630014, 0.03229716259779469, 0.03982208837085278, 0.04230271275602617, 0.0348794586255755, 0.02583629982709865, 0.01452752075264038, -0.0038098838302805093, -0.026649301540654168, -0.035143841864430835, -0.03272422086891958, -0.016567991486797228, -0.0003776962015568579, 0.0028459446134388123, 0.010615329467589188, 0.016126291017091985, 0.004109045624740237, -0.0002142414184545356, -0.005904489440316898, -0.005045861957015902, -0.005002132533766536, -0.00359950607222718, -0.0021083656871319014, 0.0007416824984101282, 0.0008006515460306582, -0.0021181115632807764, -0.001733417766374134, 0.0005336672835649631, 0.0013230142662981417, 0.0004873758702584446, 0.0, 0.0, 0.0, 0.0, 0.0, 0.0, 0.0, 0.0, 0.0, 0.0, 0.0, 0.0, 0.0, 0.0, 0.0, 0.0, 0.0, 0.0, 0.0, 0.0, 0.0, 0.0, 0.0, 0.0, 0.0, 0.0, 0.0, 0.0, 0.0, 0.0, 1.0217645005365037e-05, 0.0007708969190334356, 0.0006958878201942394, -5.380981617876289e-05, 0.0001599677401521935, 0.00286731243556074, 0.004371858865149972, 0.0067473248950196485, 0.006747131105634508, 0.01093074914088329, 0.024443485198584167, 0.031328942921886614, 0.030256503955568764, 0.03981960816909182, 0.04373961121425634, 0.03763308950238169, 0.027318314887145468, 0.016926409017511544, 0.0007206648383341126, -0.021344340658745936, -0.029252116872090207, -0.027055699326803122, -0.0075114460890481904, 0.004426988636518195, 0.009647226529913136, 0.01718695456464084, 0.019000960180647217, 0.006954556943668767, -0.0016574555265151652, -0.009124127272272022, -0.008135724015504763, -0.008189954059999258, -0.004628268326730892, -0.004467085292163565, -0.0006007795607635893, -0.0008235763401364107, -0.002900961555374673, -0.0017214835939040384, 0.0005161825439220885, 0.0013445442106438115, 0.0005089058146041152, 0.0, 0.0, 0.0, 0.0, 0.0, 0.0, 0.0, 0.0, 0.0, 0.0, 0.0, 0.0, 0.0, 0.0, 0.0, 0.0, 0.0, 0.0, 0.0, 0.0, 0.0, 0.0, 0.0, 0.0, 0.0, 0.0, 0.0, 0.0, 0.0, 0.0, 9.718440227727575e-06, 0.0007345470281586126, 0.0004857521142672932, -0.00038250298906030713, -0.000836527924404434, 0.0010976982932866283, 0.0008845393749114806, 0.0049514833973147675, 0.0027685754367715388, 0.0030960209667438635, 0.016555342245234295, 0.0266012828810872, 0.023893358439494698, 0.03525048824101043, 0.042139890230877455, 0.036664640873606436, 0.03016246729758111, 0.01685026999735048, 0.002300327129772374, -0.020568027214553277, -0.026645627034227223, -0.022097873008677618, -0.004565850323793087, 0.006444097414264007, 0.01189787585881584, 0.02038945812342593, 0.01954158111595107, 0.009146563833508032, -0.00403525802966517, -0.010608145868689575, -0.011359724211353771, -0.009706090862524082, -0.0061821634526909855, -0.005888823388921124, -0.003033791857413724, -0.002548224072269387, -0.0031709372177959605, -0.001754127541008159, 0.0006304933054260517, 0.0013445442106438115, 0.0005089058146041152, 0.0, 0.0, 0.0, 0.0, 0.0, 0.0, 0.0, 0.0, 0.0, 0.0, 0.0, 0.0, 0.0, 0.0, 0.0, 0.0, 0.0, 0.0, 0.0, 0.0, 0.0, 0.0, 0.0, 0.0, 0.0, 0.0, 0.0, 0.0, 0.0, 0.0, -4.99204777637462e-07, 0.0005422517890477401, 0.0003382397268131654, -0.0002392205181922822, -0.0010658395305101233, -0.0009585182983333326, -0.0011243721841339598, 0.0022838088139841926, 0.0019414571468572383, -0.0018621683269931452, 0.0067773804625626205, 0.02242631815122938, 0.0219877856710936, 0.03342726638305013, 0.03914835444123052, 0.03763703293155207, 0.031410774304327746, 0.019742545516558112, 0.006583055326440165, -0.01561181596711984, -0.020973962859979947, -0.0174703706713392, -0.0002792140129175311, 0.009030851686048717, 0.01493715188337369, 0.023101164376760113, 0.020454656142370842, 0.010833192838532828, -0.006128916305523834, -0.010955504249997012, -0.013860603406521978, -0.011811062231882831, -0.008106731854111674, -0.006218230004763138, -0.004094787489968139, -0.003758062039099077, -0.0026629238537700275, -0.0012691057124283565, 0.0008473188651457403, 0.0013457644872119808, 0.0004872502480252166, 0.0, 0.0, 0.0, 0.0, 0.0, 0.0, 0.0, 0.0, 0.0, 0.0, 0.0, 0.0, 0.0, 0.0, 0.0, 0.0, 0.0, 0.0, 0.0, 0.0, 0.0, 0.0, 0.0, 0.0, 0.0, 0.0, 0.0, 0.0, 0.0, 0.0, -4.99204777637462e-07, 0.0003999329683843558, 0.00033143263162753467, -4.358281342449088e-06, -0.0009629842408266937, -0.0017256594700401967, -0.002527489947276096, -0.002300907519030272, 0.0021648648855526194, -0.003813288050084388, -0.000772243536663093, 0.014012490990779343, 0.022905770137655993, 0.03500327087181494, 0.04356610229457875, 0.04186680464970456, 0.03300898562439732, 0.021246902032691577, 0.006721315815011444, -0.011704700571171, -0.01615815715244081, -0.014839796719437052, 0.0016753135798408885, 0.01004551761534222, 0.018209380303405753, 0.026008579871499585, 0.0238704530229784, 0.008560386503569729, -0.004616273520130287, -0.011777158581491242, -0.013530442813226417, -0.010499393689314893, -0.008636566728904005, -0.006207948519558772, -0.005002408528450234, -0.0035205748466602244, -0.002364236444297684, -0.00046430976369750654, 0.000978363078220435, 0.0013512557317687385, 0.00038980019842017335, 0.0, 0.0, 0.0, 0.0, 0.0, 0.0, 0.0, 0.0, 0.0, 0.0, 0.0, 0.0, 0.0, 0.0, 0.0, 0.0, 0.0, 0.0, 0.0, 0.0, 0.0, 0.0, 0.0, 0.0, 0.0, 0.0, 0.0, 0.0, 0.0, 0.0, -4.99204777637462e-07, 0.00011649122493804466, 0.0003326142489607478, -1.067756777260763e-05, -0.0009513064427811899, -0.001120744540709269, -0.00394172103880005, -0.005275514981755965, -0.0017837162882701815, -0.005692742493639548, -0.009234524004640391, 0.0017456177689730292, 0.016867887041104326, 0.03085267022060621, 0.04393415777953762, 0.04347773504840358, 0.036311241416566144, 0.024000341432084286, 0.010216554776577442, -0.00930732036298645, -0.014865415369143842, -0.014922823077926334, 0.00235534935246892, 0.01247170660880111, 0.025896534982354103, 0.02625238955160223, 0.019337109024505774, 0.004632233839919569, -0.005037125912487548, -0.014404050632485883, -0.015314781412229807, -0.012337833141654759, -0.009631854308422533, -0.006301335616401895, -0.0051783686924191325, -0.002627624617486093, -0.001128262137040416, -6.195810941747189e-05, 0.0009909652639491322, 0.0013622382208822543, 0.00019490009921008667, 0.0, 0.0, 0.0, 0.0, 0.0, 0.0, 0.0, 0.0, 0.0, 0.0, 0.0, 0.0, 0.0, 0.0, 0.0, 0.0, 0.0, 0.0, 0.0, 0.0, 0.0, 0.0, 0.0, 0.0, 0.0, 0.0, 0.0, 0.0, 0.0, 0.0, -4.99204777637462e-07, -0.00022915609724107234, 0.00026267484014137765, 0.00023243161666424117, -0.0005992109524567691, -0.000862762847511796, -0.0028848022820583247, -0.006892598894654855, -0.007644506088328095, -0.007771947816329091, -0.014317741541308293, -0.011271983802699429, 0.0043333871522098074, 0.024609091251097986, 0.040617705480224496, 0.04571134498557197, 0.041598209851491146, 0.028344732084490763, 0.01397865840096908, -0.000853719469040028, -0.010911602837043777, -0.008363799931234966, 0.005317278221703519, 0.01883808353011912, 0.03247743638396423, 0.0239013887951759, 0.015457369681255878, 0.002341563204290062, -0.01281225470648941, -0.018871089498234243, -0.016580634749342602, -0.015424266896345035, -0.009373756022985295, -0.006744227656237194, -0.0037677424519873244, -0.0017623291302349658, -0.0003855810998841983, 6.661964652275491e-05, 0.0010565882313953445, 0.001237340633505603, 0.0, 0.0, 0.0, 0.0, 0.0, 0.0, 0.0, 0.0, 0.0, 0.0, 0.0, 0.0, 0.0, 0.0, 0.0, 0.0, 0.0, 0.0, 0.0, 0.0, 0.0, 0.0, 0.0, 0.0, 0.0, 0.0, 0.0, 0.0, 0.0, 0.0, 0.0, -4.99204777637462e-07, -0.0007242203946616946, 0.00015693559152153602, 0.00020917661400045526, -0.00022804337331695223, -0.0006816780042526979, -0.0028830339986058253, -0.00562836991572347, -0.010706158125344443, -0.011998237667656711, -0.016097873588947098, -0.02134171272580772, -0.01446728679621436, 0.009728779386128164, 0.02895240821591024, 0.04351769646164702, 0.046749325387567084, 0.036994896790722806, 0.02097667909039937, 0.011362695703935425, 0.0022528577109638902, 0.00423603542303292, 0.0172030716848268, 0.03063015409884607, 0.02777157792859301, 0.01952195799501226, 0.014624494599539939, -0.005267393581217838, -0.0234600441371728, -0.02355311865584583, -0.022325947899317026, -0.014256302188200579, -0.008411196253376458, -0.00549728866503579, -0.0027894451842086516, -0.000942658065032966, -0.00010143204203176762, 0.00011990176054931617, 0.001176169677453736, 0.000660494780656405, 0.0, 0.0, 0.0, 0.0, 0.0, 0.0, 0.0, 0.0, 0.0, 0.0, 0.0, 0.0, 0.0, 0.0, 0.0, 0.0, 0.0, 0.0, 0.0, 0.0, 0.0, 0.0, 0.0, 0.0, 0.0, 0.0, 0.0, 0.0, 0.0, 0.0, 0.0, -4.99204777637462e-07, -0.0007752234511659028, -0.0005002062679286789, 6.046593206375239e-05, -0.0001683507034091813, -0.0001546791640733497, -0.002700426857449031, -0.004630401008167606, -0.008477795834252802, -0.014996545978662805, -0.018238486642439093, -0.02467312200471289, -0.028514202512698032, -0.016461547736031715, 0.009472082049902318, 0.029866881324508716, 0.044683687742345546, 0.04103682131966263, 0.03077673593323905, 0.025833509623767004, 0.02118026035974742, 0.024667181098042994, 0.031015264505161892, 0.031121663133984175, 0.02835869152337994, 0.017032367614095087, -0.002256165291696321, -0.023880164238379336, -0.03215986607392719, -0.029377557581677403, -0.019625960351023534, -0.011699081122116754, -0.00723435704985007, -0.00411281812992522, -0.0016811619356792201, -0.00033189208433938826, -8.519591869883478e-05, 0.0004029737048166956, 0.0009763074435319907, 4.331113315779704e-05, 0.0, 0.0, 0.0, 0.0, 0.0, 0.0, 0.0, 0.0, 0.0, 0.0, 0.0, 0.0, 0.0, 0.0, 0.0, 0.0, 0.0, 0.0, 0.0, 0.0, 0.0, 0.0, 0.0, 0.0, 0.0, 0.0, 0.0, 0.0, 0.0, 0.0, 0.0, -4.99204777637462e-07, -0.0005600893661104416, -0.001092625636492117, -0.0006060045874212847, -0.0002732565425409047, -6.533946633348048e-05, -0.002077000418503521, -0.004353869411725028, -0.007185764235973657, -0.01146724444414529, -0.017286320417403304, -0.023241489075430288, -0.031302939158996373, -0.03674486933448271, -0.020594882203235163, 0.0068977583763345255, 0.027074896561303793, 0.04084885720939255, 0.038287506502641906, 0.03599504362211246, 0.03306895357055319, 0.037076198878241394, 0.036282361130644106, 0.03355458371707989, 0.015678837699408584, -0.004292696822749152, -0.02572865504890675, -0.036854030878317325, -0.03530005015845801, -0.023868343090208622, -0.015408240666669928, -0.010441261218638897, -0.005994291341868507, -0.002625231869810358, -0.0009710718216847563, -0.0002544589909395618, 0.00013268179832768786, 0.0004260084429357275, -1.749775933013294e-05, 0.0, 0.0, 0.0, 0.0, 0.0, 0.0, 0.0, 0.0, 0.0, 0.0, 0.0, 0.0, 0.0, 0.0, 0.0, 0.0, 0.0, 0.0, 0.0, 0.0, 0.0, 0.0, 0.0, 0.0, 0.0, 0.0, 0.0, 0.0, 0.0, 0.0, 0.0, 0.0, -4.99204777637462e-07, -0.0005202667378460933, -0.0007685014362617952, -0.001079201632025739, -0.0013207728764782615, -0.0006999977143218185, -0.0022145206511727964, -0.004138301434233165, -0.00661613962927319, -0.009998750874063678, -0.013950879431587286, -0.018982196681699218, -0.025258915989445886, -0.03526677130224674, -0.03602370204645928, -0.026580860195076106, -0.010778947888911608, 0.010751369588363188, 0.029329621258616368, 0.04053876858153086, 0.04550287479158402, 0.040609995584380755, 0.028217015207514837, 0.00747410973321068, -0.013932295164554919, -0.03128358196258801, -0.03850056013249247, -0.0333292369522915, -0.02643215031804187, -0.019304795969632225, -0.013707847689603737, -0.008240095403200021, -0.004217539780825563, -0.0019120351783972955, -0.0007704229088635815, -0.00022913424696778068, -0.00027124773472549985, -0.00045510851484646344, -7.81929265029819e-05, 0.0, 0.0, 0.0, 0.0, 0.0, 0.0, 0.0, 0.0, 0.0, 0.0, 0.0, 0.0, 0.0, 0.0, 0.0, 0.0, 0.0, 0.0, 0.0, 0.0, 0.0, 0.0, 0.0, 0.0, 0.0, 0.0, 0.0, 0.0, 0.0, 0.0, 0.0, 0.0, 0.0, 0.0, 0.0, 0.0, 0.0, 0.0, -2.1740188046595448e-05, -7.981798573223645e-05, -0.00020534112529456593, -0.0005435695577921972, -0.0016616727354592607, -0.003224161060636762, -0.0027757804621834042, -0.0025141867163748174, -0.0015607605580577914, -0.0021862853173925914, -0.0014480386982578994, 0.005053867659059595, 0.010204425406637583, 0.01465742261575251, 0.015480503310242439, 0.013560411460463927, 0.009125001204950788, 0.004063738082242182, -0.0016251844367982933, -0.003243758017135743, -0.004188996538972392, -0.0035284718532575016, -0.003400588019304184, -0.000847926693257349, -0.0005015277192395484, -0.00013661246822712592, -4.975984985469357e-05, -5.637475348171313e-06, 0.0, 0.0, 0.0, 0.0, 0.0, 0.0, 0.0, 0.0, 0.0, 0.0, 0.0, 0.0, 0.0, 0.0, 0.0, 0.0, 0.0, 0.0, 0.0, 0.0, 0.0, 0.0, 0.0, 0.0, 0.0, 0.0, 0.0, 0.0, 0.0, 0.0, 0.0, 0.0, 0.0, 0.0, 0.0, 0.0, 0.0, 0.0, 0.0, 0.0, 0.0, 0.0, 0.0, -4.384071229936413e-05, -7.212504281508295e-05, -7.828379746163957e-05, -0.0002901696775270894, -0.0013449258137998318, -0.0024311682127837074, -0.001555938553812351, -0.0009142273986537827, 0.0005064201140331594, 0.001180548694764534, 0.001017964038699508, 0.0013647526394517876, 0.0008064291302550605, 0.0008719155875956615, -0.0003679383334148421, -0.0008669933581619975, -0.0009381051630780729, 9.310939351818414e-05, -0.0002040657394715899, -0.0011074129452041336, -0.002536349899076974, -0.0014833577674240486, -0.0012626264753553193, 0.0001998564404043259, -0.0002303759097628211, -9.283792965064254e-05, -4.6103458740621664e-05, 0.0, 0.0, 0.0, 0.0, 0.0, 0.0, 0.0, 0.0, 0.0, 0.0, 0.0, 0.0, 0.0, 0.0, 0.0, 0.0, 0.0, 0.0, 0.0, 0.0, 0.0, 0.0, 0.0, 0.0, 0.0, 0.0, 0.0, 0.0, 0.0, 0.0, 0.0, 0.0, 0.0, 0.0, 0.0, 0.0, 0.0, 0.0, 0.0, 0.0, 0.0, 0.0, 0.0, 0.0, 0.0, 0.0, 0.0, -0.0002408509901004812, -0.0007557857158517939, -0.0022606030671594715, -0.001756577573442527, -0.0017902984079958633, -0.0004845267496131147, 0.001174912924554823, 0.0012160088744137595, 0.0012117553965135593, -0.00015667990480374818, -0.00036125052079062766, -0.001362443530804154, -0.0017576324406200004, -0.001400736019796288, 0.00011775316787034299, -0.001071282123322047, -0.0016171843161899143, -0.0020409275358142928, -0.000558196471249557, -0.00036354361728306236, 0.0002891397232505236, -5.0023930098250275e-05, -2.0892219189114215e-05, 0.0, 0.0, 0.0, 0.0, 0.0, 0.0, 0.0, 0.0, 0.0, 0.0, 0.0, 0.0, 0.0, 0.0, 0.0, 0.0, 0.0, 0.0, 0.0, 0.0, 0.0, 0.0, 0.0, 0.0, 0.0, 0.0, 0.0, 0.0, 0.0, 0.0, 0.0, 0.0, 0.0, 0.0, 0.0, 0.0, 0.0, 0.0, 0.0, 0.0, 0.0, 0.0, 0.0, 0.0, 0.0, 0.0, 0.0, 0.0, -0.00018302646087908097, -0.0005733883598406262, -0.0014091484154755446, -0.0018427194385419845, -0.002283285592984327, -0.0017512351628574123, -0.0005309164868363459, 0.000324661319286058, 0.0005967173875683358, -0.0007795687830637582, -0.0014159794057703287, -0.0014059260905619115, -0.0015164864965171736, -0.002383540079158631, -0.0008309070881961034, -0.0013253945731823238, -0.001093253574317415, -0.0010829690077697402, 6.184394108179865e-05, -1.2123978034414917e-05, 0.000340316162335894, -1.8532313882178615e-05, -6.635297081521252e-06, 0.0, 0.0, 0.0, 0.0, 0.0, 0.0, 0.0, 0.0, 0.0, 0.0, 0.0, 0.0, 0.0, 0.0, 0.0, 0.0, 0.0, 0.0, 0.0, 0.0, 0.0, 0.0, 0.0, 0.0, 0.0, 0.0, 0.0, 0.0, 0.0, 0.0, 0.0, 0.0, 0.0, 0.0, 0.0, 0.0, 0.0, 0.0, 0.0, 0.0, 0.0, 0.0, 0.0, 0.0, 0.0, 0.0, 0.0, 0.0, -4.859360768677085e-05, -0.00022734219682076867, -0.00087152241570186, -0.0008704613074552068, -0.002473845603998453, -0.0022389339398603413, -0.0013657301547793405, -0.0015040179921981347, -0.0015074714684789729, -0.002265011298068852, -0.0026357782835200907, -0.0027054900345376645, -0.0027999671706830315, -0.0025774488526680186, -0.0005133637845277626, -0.0004038158980267008, -0.00041110311275360133, -0.0001632347651532801, 0.00022809952592964293, 9.159170408434704e-05, 0.0005010202075212474, 0.0, 0.0, 0.0, 0.0, 0.0, 0.0, 0.0, 0.0, 0.0, 0.0, 0.0, 0.0, 0.0, 0.0, 0.0, 0.0, 0.0, 0.0, 0.0, 0.0, 0.0, 0.0, 0.0, 0.0, 0.0, 0.0, 0.0, 0.0, 0.0, 0.0, 0.0, 0.0, 0.0, 0.0, 0.0, 0.0, 0.0, 0.0, 0.0, 0.0, 0.0, 0.0, 0.0, 0.0, 0.0, 0.0, 0.0, 0.0, 0.0, 0.0, 0.0, -0.00014878840892730005, -0.00045800145315822794, 4.760128038264694e-06, -0.0006793927905016455, -0.0020218837209355924, -0.002021370673780385, -0.0017198339603770479, -0.0017135884096559115, -0.001967044017041087, -0.0023403940814552926, -0.0019582366399637477, -0.001105451912174009, -0.00027126594096961595, 0.0002327812871289244, 0.00012965474745551455, -8.647605492280177e-05, 0.00027923448620200206, -4.5963334748272186e-05, 0.0003292387995932148, 0.0005217471791275978, 0.0, 0.0, 0.0, 0.0, 0.0, 0.0, 0.0, 0.0, 0.0, 0.0, 0.0, 0.0, 0.0, 0.0, 0.0, 0.0, 0.0, 0.0, 0.0, 0.0, 0.0, 0.0, 0.0, 0.0, 0.0, 0.0, 0.0, 0.0, 0.0, 0.0, 0.0, 0.0, 0.0, 0.0, 0.0, 0.0, 0.0, 0.0, 0.0, 0.0, 0.0, 0.0, 0.0, 0.0, 0.0, 0.0, 0.0, 0.0, 0.0, 0.0, 0.0, -1.561725196216472e-05, -0.00019403550658227966, 0.00012353390879995307, -4.430391877926852e-05, -0.0003619266842481481, -0.0009695987418391913, -0.0009100428225227822, -0.0008802208287529954, -0.0008129174019956902, -0.0007086739630420054, -0.0003623871142540655, 0.0003321518745254693, 0.00024776586982376716, 0.00028557458728368005, 0.00028630869875908655, 0.0005445889781089694, 8.527795772401292e-05, 0.000126394367742504, 0.0003950374842828934, 0.0004659399079517467, 0.0, 0.0, 0.0, 0.0, 0.0, 0.0, 0.0, 0.0, 0.0, 0.0, 0.0, 0.0, 0.0, 0.0, 0.0, 0.0, 0.0, 0.0, 0.0, 0.0, 0.0, 0.0, 0.0, 0.0, 0.0, 0.0, 0.0, 0.0, 0.0, 0.0, 0.0, 0.0, 0.0, 0.0, 0.0, 0.0, 0.0, 0.0, 0.0, 0.0, 0.0, 0.0, 0.0, 0.0, 0.0, 0.0, 0.0, 0.0, 0.0, 0.0, 0.0, 0.0, -0.00012223164500250222, 0.00010886004089087236, 3.6220714268908494e-05, -7.607269260120633e-05, -0.0005512282526113115, -0.000447569362880859, 0.00040915648074979103, 0.0003149481412690421, 0.00043029620046149586, 0.0006762175483453572, 0.0010440234119121234, 0.0009586300368974895, 0.0009477486459175307, 0.0010324242211156504, 0.00045149277665104107, 0.00034152548822873876, 0.00039254769841631543, 0.0006243474414959776, 0.0003027537824622827, 0.0, 0.0, 0.0, 0.0, 0.0, 0.0, 0.0, 0.0, 0.0, 0.0, 0.0, 0.0, 0.0, 0.0, 0.0, 0.0, 0.0, 0.0, 0.0, 0.0, 0.0, 0.0, 0.0, 0.0, 0.0, 0.0, 0.0, 0.0, 0.0, 0.0, 0.0, 0.0, 0.0, 0.0, 0.0, 0.0, 0.0, 0.0, 0.0, 0.0, 0.0, 0.0, 0.0, 0.0, 0.0, 0.0, 0.0, 0.0, 0.0, 0.0, 0.0, -5.244930294470996e-06, -0.00015098189761079384, -5.020417474664326e-05, 0.000335777595413273, 0.00020964513278903127, 5.572440686005932e-05, 0.00010984299520405256, -6.862050597484097e-05, 0.00020410872273315877, 0.0006318113372032395, 0.0012833489163851174, 0.0013935555828958992, 0.0011476403859266486, 0.0008793227837715396, 0.0005094347377344484, 0.00044675747972432113, 0.000461019777061426, 0.0004817338880884701, 0.0006570226573074787, 6.931853437158858e-05, 0.0, 0.0, 0.0, 0.0, 0.0, 0.0, 0.0, 0.0, 0.0, 0.0, 0.0, 0.0, 0.0, 0.0, 0.0, 0.0, 0.0, 0.0, 0.0, 0.0, 0.0, 0.0, 0.0, 0.0, 0.0, 0.0, 0.0, 0.0, 0.0, 0.0, 0.0, 0.0, 0.0, 0.0, 0.0, 0.0, 0.0, 0.0, 0.0, 0.0, 0.0, 0.0, 0.0, 0.0, 0.0, 0.0, 0.0, 0.0, 0.0, 0.0, 0.0, 0.0, 0.0, -9.977770866489852e-05, 0.0005359440714164007, 0.0006380360925563468, 0.000588055625096049, 0.0006425032320531584, 0.0004923626715331149, 0.0003132321101283741, 0.0005626946348619038, 0.0007706549751594653, 0.0008243388053519403, 0.0006812615058821233, 0.0007040620108782963, 0.000707032909956331, 0.0007112214498124332, 0.0007112214498124332, 0.0007112214498124332, 0.00038164433628394415, 0.0, 0.0, 0.0, 0.0, 0.0, 0.0, 0.0, 0.0, 0.0, 0.0, 0.0, 0.0, 0.0, 0.0, 0.0, 0.0, 0.0, 0.0, 0.0, 0.0, 0.0, 0.0, 0.0, 0.0, 0.0, 0.0, 0.0, 0.0, 0.0, 0.0, 0.0, 0.0, 0.0, 0.0, 0.0, 0.0, 0.0, 0.0, 0.0, 0.0, 0.0, 0.0, 0.0, 0.0, 0.0, 0.0, 0.0, 0.0, 0.0, 0.0, 0.0, 0.0, 0.0, 0.0, -1.2417988030787092e-05, 0.00016423677477735117, 0.0008203530600686161, 0.000903975764693491, 0.0008991923018135556, 0.0008960074555705101, 0.0008684970031563378, 0.0008855279118276076, 0.0008889340935618615, 0.0008889340935618615, 0.0006943783567609286, 0.0007041480878037839, 0.000707032909956331, 0.0007112214498124332, 0.0007112214498124332, 0.00040932038989458577, -0.00010351126599917621, 0.0, 0.0, 0.0, 0.0, 0.0, 0.0, 0.0, 0.0, 0.0, 0.0, 0.0, 0.0, 0.0, 0.0, 0.0, 0.0, 0.0, 0.0, 0.0, 0.0, 0.0, 0.0, 0.0, 0.0, 0.0, 0.0, 0.0, 0.0, 0.0, 0.0, 0.0, 0.0, 0.0, 0.0, 0.0, 0.0, 0.0, 0.0, 0.0, 0.0, 0.0, 0.0, 0.0, 0.0, 0.0, 0.0, 0.0, 0.0, 0.0, 0.0, 0.0, 0.0, 0.0, 0.0, -1.0924175906052075e-05, -1.0924175906052075e-05, 4.561998210074172e-05, 0.0004194367249437226, 0.0006892085052895809, 0.0008312140598427751, 0.0008817348273698906, 0.0008889340935618615, 0.0008889340935618615, 0.0008889340935618615, 0.000695669510643244, 0.0006756937422800137, 0.0006003291142421904, 0.0004114454547060403, 7.355010161126229e-05, -0.00019576081375776103, -0.0001159211093232232, 0.0, 0.0, 0.0, 0.0, 0.0, 0.0, 0.0, 0.0, 0.0, 0.0, 0.0, 0.0, 0.0, 0.0, 0.0, 0.0, 0.0, 0.0, 0.0, 0.0, 0.0, 0.0, 0.0, 0.0, 0.0, 0.0, 0.0, 0.0, 0.0, 0.0, 0.0, 0.0, 0.0, 0.0, 0.0, 0.0, 0.0, 0.0, 0.0, 0.0, 0.0, 0.0, 0.0, 0.0, 0.0, 0.0, 0.0, 0.0, 0.0, 0.0, 0.0, 0.0, 0.0, 0.0, 0.0, 0.0, 0.0, 0.0, 0.0, 0.0, 0.0, 0.0, 0.0, 0.0, 0.0, 0.0, 0.0, 0.0, 0.0, 0.0, 0.0, 0.0, 0.0, 0.0, 0.0, 0.0, 0.0, 0.0, 0.0, 0.0, 0.0, 0.0, 0.0, 0.0, 0.0, 0.0, 0.0, 0.0, 0.0, 0.0, 0.0, 0.0, 0.0, 0.0, 0.0, 0.0, 0.0, 0.0, 0.0, 0.0, 0.0, 0.0, 0.0, 0.0, 0.0, 0.0, 0.0, 0.0, 0.0, 0.0, 0.0, 0.0, 0.0, 0.0, 0.0, 0.0, 0.0, 0.0, 0.0, 0.0, 0.0, 0.0, 0.0, 0.0, 0.0, 0.0, 0.0, 0.0, 0.0, 0.0, 0.0, 0.0, 0.0, 0.0, 0.0, 0.0, 0.0, 0.0, 0.0, 0.0, 0.0, 0.0, 0.0, 0.0, 0.0, 0.0, 0.0, 0.0, 0.0, 0.0, 0.0, 0.0, 0.0, 0.0, 0.0, 0.0, 0.0, 0.0, 0.0, 0.0, 0.0, 0.0, 0.0, 0.0, 0.0, 0.0, 0.0, 0.0, 0.0, 0.0, 0.0, 0.0, 0.0, 0.0, 0.0, 0.0, 0.0, 0.0, 0.0, 0.0, 0.0, 0.0, 0.0, 0.0, 0.0, 0.0, 0.0, 0.0, 0.0, 0.0, 0.0, 0.0, 0.0, 0.0, 0.0, 0.0, 0.0, 0.0, 0.0, 0.0, 0.0, 0.0, 0.0, 0.0, 0.0, 0.0, 0.0, 0.0, 0.0, 0.0, 0.0, 0.0, 0.0, 0.0, 0.0, 0.0, 0.0, 0.0, 0.0, 0.0, 0.0, 0.0, 0.0, 0.0, 0.0, 0.0, 0.0, 0.0, 0.0, 0.0, 0.0, 0.0, 0.0, 0.0, 0.0, 0.0, 0.0, 0.0, 0.0, 0.0, 0.0, 0.0, 0.0, 0.0, 0.0, 0.0, 0.0, 0.0, 0.0, 0.0, 0.0, 0.0, 0.0, 0.0, 0.0, 0.0, 0.0, 0.0, 0.0, 0.0, 0.0, 0.0, 0.0, 0.0, 0.0, 0.0, 0.0, 0.0, 0.0, 0.0, 0.0, 0.0, 0.0, 0.0, 0.0, 0.0, 0.0, 0.0, 0.0, 0.0, 0.0, 0.0, 0.0, 0.0, 0.0, 0.0, 0.0, 0.0, 0.0, 0.0, 0.0, 0.0, 0.0, 0.0, 0.0, 0.0, 0.0, 0.0, 0.0, 0.0, 0.0, 0.0, 0.0, 0.0, 0.0, 0.0, 0.0, 0.0, 0.0, 0.0, 0.0, 0.0, 0.0, 0.0, 0.0, 0.0, 0.0, 0.0, 0.0, 0.0, 0.0, 0.0, 0.0, 0.0, 0.0, 0.0, 0.0, 0.0, 0.0, 0.0, 0.0, 0.0, 0.0, 0.0, 0.0, 0.0, 0.0, 0.0, 0.0, 0.0, 0.0, 0.0, 0.0, 0.0, 0.0, 0.0, 0.0, 0.0, 0.0, 0.0, 0.0, 0.0, 0.0, 0.0, 0.0, 0.0, 0.0, 0.0, 0.0, 0.0, 0.0, 0.0, 0.0, 0.0, 0.0, 0.0, 0.0, 0.0, 0.0, 0.0, 0.0, 0.0, 0.0, 0.0, 0.0, 0.0, 0.0, 0.0, 0.0, 0.0, 0.0, 0.0, 0.0, 0.0, 0.0, 0.0, 0.0, 0.0, 0.0, 0.0, 0.0, 0.0, 0.0, 0.0, 0.0, 0.0, 0.0, 0.0, 0.0, 0.0, 0.0, 0.0, 0.0, 0.0, 0.0, 0.0, 0.0, 0.0, 0.0, 0.0, 0.0, 0.0, 0.0, 0.0, 0.0, 0.0, 0.0, 0.0, 0.0, 0.0, 0.0, 0.0, 0.0, 0.0, 0.0, 0.0, 0.0, 0.0, 0.0, 0.0, 0.0, 0.0, 0.0, 0.0, 0.0, 0.0, 0.0, 0.0, 0.0, 0.0, 0.0, 0.0, 0.0, 0.0, 0.0, 0.0, 0.0, 0.0, 0.0, 0.0, 0.0, 0.0, 0.0, 0.0, 0.0, 0.0, 0.0, 0.0, 0.0, 0.0, 0.0, 0.0, 0.0, 0.0, 0.0, 0.0, 0.0, 0.0, 0.0, 0.0, 0.0, 0.0, 0.0, 0.0, 0.0, 0.0, 0.0, 0.0, 0.0, 0.0, 0.0, 0.0, 0.0, 0.0, 0.0, 0.0, 0.0, 0.0, 0.0, 0.0, 0.0, 0.0, 0.0, 0.0, 0.0, 0.0, 0.0, 0.0, 0.0, 0.0, 0.0, 0.0, 0.0, 0.0, 0.0, 0.0, 0.0, 0.0, 0.0, 0.0, 0.0, 0.0, 0.0, 0.0, 0.0, 0.0, 0.0, 0.0, 0.0, 0.0, 0.0, 0.0, 0.0, 0.0, 0.0, 0.0, 0.0, 0.0, 0.0, 0.0, 0.0, 0.0, 0.0, 0.0, 0.0, 0.0, 0.0, 0.0, 0.0, 0.0, 0.0, 0.0, 0.0, 0.0, 0.0, 0.0, 0.0, 0.0, 0.0, 0.0, 0.0, 0.0, 0.0, 0.0, 0.0, 0.0, 0.0, 0.0, 0.0, 0.0, 0.0, 0.0, 0.0, 0.0, 0.0, 0.0, 0.0, 0.0, 0.0, 0.0, 0.0, 0.0, 0.0, 0.0, 0.0, 0.0, 0.0, 0.0, 0.0, 0.0, 0.0, 0.0, 0.0, 0.0, 0.0, 0.0, 0.0, 0.0, 0.0, 0.0, 0.0, 0.0, 0.0, 0.0, 0.0, 0.0, 0.0, 0.0, 0.0, 0.0, 0.0, 0.0, 0.0, 0.0, 0.0, 0.0, 0.0, 0.0, 0.0, 0.0, 0.0, 0.0, 0.0, 0.0, 0.0, 0.0, 0.0, 0.0, 0.0, 0.0, 0.0, 0.0, 0.0, 0.0, 0.0, 0.0, 0.0, 0.0, 0.0, 0.0, 0.0, 0.0, 0.0, 0.0, 0.0, 0.0, 0.0, 0.0, 0.0, 0.0, 0.0, 0.0, 0.0, 0.0, 0.0, 0.0, 0.0, 0.0, 0.0, 0.0, 0.0, 0.0, 0.0, 0.0, 0.0, 0.0, 0.0, 0.0, 0.0, 0.0, 0.0, 0.0, 0.0, 0.0, 0.0, 0.0, 0.0, 0.0, 0.0, 0.0, 0.0, 0.0, 0.0, 0.0, 0.0, 0.0, 0.0, 0.0, 0.0, 0.0, 0.0, 0.0, 0.0, 0.0, 0.0, 0.0, 0.0, 0.0, 0.0, 0.0, 0.0, 0.0, 0.0, 0.0, 0.0, 0.0, 0.0, 0.0, 0.0, 0.0, 0.0, 0.0, 0.0, 0.0, 0.0, 0.0, 0.0, 0.0, 0.0, 0.0, 0.0, 0.0, 0.0, 0.0, 0.0, 0.0, 0.0, 0.0, 0.0, 0.0, 0.0, 0.0, 0.0, 0.0, 0.0, 0.0, 0.0, 0.0, 0.0, 0.0, 0.0, 0.0, 0.0, 0.0, 0.0, 0.0, 0.0, 0.0, 0.0], [0.0, 0.0, 0.0, 0.0, 0.0, 0.0, 0.0, 0.0, 0.0, 0.0, 0.0, 0.0, 0.0, 0.0, 0.0, 0.0, 0.0, 0.0, 0.0, 0.0, 0.0, 0.0, 0.0, 0.0, 0.0, 0.0, 0.0, 0.0, 0.0, 0.0, 0.0, 0.0, 0.0, 0.0, 0.0, 0.0, 0.0, 0.0, 0.0, 0.0, 0.0, 0.0, 0.0, 0.0, 0.0, 0.0, 0.0, 0.0, 0.0, 0.0, 0.0, 0.0, 0.0, 0.0, 0.0, 0.0, 0.0, 0.0, 0.0, 0.0, 0.0, 0.0, 0.0, 0.0, 0.0, 0.0, 0.0, 0.0, 0.0, 0.0, 0.0, 0.0, 0.0, 0.0, 0.0, 0.0, 0.0, 0.0, 0.0, 0.0, 0.0, 0.0, 0.0, 0.0, 0.0, 0.0, 0.0, 0.0, 0.0, 0.0, 0.0, 0.0, 0.0, 0.0, 0.0, 0.0, 0.0, 0.0, 0.0, 0.0, 0.0, 0.0, 0.0, 0.0, 0.0, 0.0, 0.0, 0.0, 0.0, 0.0, 0.0, 0.0, 0.0, 0.0, 0.0, 0.0, 0.0, 0.0, 0.0, 0.0, 0.0, 0.0, 0.0, 0.0, 0.0, 0.0, 0.0, 0.0, 0.0, 0.0, 0.0, 0.0, 0.0, 0.0, 0.0, 0.0, 0.0, 0.0, 0.0, 0.0, 0.0, 0.0, 0.0, 0.0, 0.0, 0.0, 0.0, 0.0, 0.0, 0.0, 0.0, 0.0, 0.0, 0.0, 0.0, 0.0, 0.0, 0.0, 0.0, 0.0, 0.0, 0.0, 0.0, 0.0, 0.0, 0.0, 0.0, 0.0, 0.0, 0.0, 0.0, 0.0, 0.0, 0.0, 0.0, 0.0, 0.0, 0.0, 0.0, 0.0, 0.0, 0.0, 0.0, 0.0, 0.0, 0.0, 0.0, 0.0, 0.0, 0.0, 0.0, 0.0, 0.0, 0.0, 0.0, 0.0, 0.0, 0.0, 0.0, 0.0, 0.0, 0.0, 0.0, 0.0, 0.0, 0.0, 0.0, 0.0, 0.0, 0.0, 0.0, 0.0, 0.0, 0.0, 0.0, 0.0, 0.0, 0.0, 0.0, 0.0, 0.0, 0.0, 0.0, 0.0, 0.0, 0.0, 0.0, 0.0, 0.0, 0.0, 0.0, 0.0, 0.0, 0.0, 0.0, 0.0, 0.0, 0.0, 0.0, 0.0, 0.0, 0.0, 0.0, 0.0, 0.0, 0.0, 0.0, 0.0, 0.0, 0.0, 0.0, 0.0, 0.0, 0.0, 0.0, 0.0, 0.0, 0.0, 0.0, 0.0, 0.0, 0.0, 0.0, 0.0, 0.0, 0.0, 0.0, 0.0, 0.0, 0.0, 0.0, 0.0, 0.0, 0.0, 0.0, 0.0, 0.0, 0.0, 0.0, 0.0, 0.0, 0.0, 0.0, 0.0, 0.0, 0.0, 0.0, 0.0, 0.0, 0.0, 0.0, 0.0, 0.0, 0.0, 0.0, 0.0, 0.0, 0.0, 0.0, 0.0, 0.0, 0.0, 0.0, 0.0, 0.0, 0.0, 0.0, 0.0, 0.0, 0.0, 0.0, 0.0, 0.0, 0.0, 0.0, 0.0, 0.0, 0.0, 0.0, 0.0, 0.0, 0.0, 0.0, 0.0, 0.0, 0.0, 0.0, 0.0, 0.0, 0.0, 0.0, 0.0, 0.0, 0.0, 0.0, 0.0, 0.0, 0.0, 0.0, 0.0, 0.0, 0.0, 0.0, 0.0, 0.0, 0.0, 0.0, 0.0, 0.0, 0.0, 0.0, 0.0, 0.0, 0.0, 0.0, 0.0, 0.0, 0.0, 0.0, 0.0, 0.0, 0.0, 0.0, 0.0, 0.0, 0.0, 0.0, 0.0, 0.0, 0.0, 0.0, 0.0, 0.0, 0.0, 0.0, 0.0, 0.0, 0.0, 0.0, 0.0, 0.0, 0.0, -4.23665789182293e-05, -0.00038874298974750197, -0.00040703596847157196, -0.000518081327395979, -0.0006189777524852557, -0.000667695540883473, -0.0006893152795651278, -9.74956370655855e-05, 0.0002284117598114401, -0.0002528937836388079, -0.0005337075622745824, -0.0004926969401146822, -0.00039656558287693095, 0.0, 0.0, 0.0, 0.0, 0.0, 0.0, 0.0, 0.0, 0.0, 0.0, 0.0, 0.0, 0.0, 0.0, 0.0, 0.0, 0.0, 0.0, 0.0, 0.0, 0.0, 0.0, 0.0, 0.0, 0.0, 0.0, 0.0, 0.0, 0.0, 0.0, 0.0, 0.0, 0.0, 0.0, 0.0, 0.0, 0.0, 0.0, 0.0, 0.0, 0.0, 0.0, 0.0, 0.0, 0.0, 0.0, 0.0, 0.0, -7.958670425009349e-06, -1.7391168706501907e-05, -1.7391168706501907e-05, -1.7391168706501907e-05, -1.7391168706501907e-05, -1.7391168706501907e-05, -1.7391168706501907e-05, -1.7391168706501907e-05, -1.7391168706501907e-05, -1.7391168706501907e-05, -5.975774762473123e-05, -0.00036593202552176566, -0.0005494468562049962, -0.0006331781007140287, -0.0006388094426621669, -0.0006215384464609041, -0.0005073326046914917, 0.00025828110471265653, 0.00025004089789541745, -0.00033378229316067637, -0.0007451929140892839, -0.0005545819499534475, -0.0004150388121715497, -1.7391168706501907e-05, -1.7391168706501907e-05, -1.7391168706501907e-05, -1.7391168706501907e-05, -1.7096403135205262e-05, -5.8953114259328505e-06, 0.0, 0.0, 0.0, 0.0, 0.0, 0.0, 0.0, 0.0, 0.0, 0.0, 0.0, 0.0, 0.0, 0.0, 0.0, 0.0, 0.0, 0.0, 0.0, 0.0, 0.0, 0.0, 0.0, 0.0, 0.0, 0.0, 0.0, 0.0, 0.0, 0.0, 0.0, 0.0, 0.0, 0.0, 0.0, 0.0, 0.0, 0.0, 0.0, 0.0, 0.0, 0.0, -3.492972019865214e-05, -3.758261034032192e-05, -3.758261034032192e-05, -3.758261034032192e-05, -3.758261034032192e-05, -3.758261034032192e-05, -3.758261034032192e-05, -3.758261034032192e-05, -3.758261034032192e-05, -3.758261034032192e-05, -8.485912051113148e-05, -0.00023248762289515258, -0.0003391576498127008, -0.00033811447452161003, -0.00018587392307803857, -5.350783545547529e-05, 0.00040758780368079455, 0.0008404145269395564, 0.0007507355748501117, -0.0001928813980344701, -0.0007415753196463854, -0.000631266244366128, -0.0002943442256621664, -4.214183221771791e-05, -3.758261034032192e-05, -3.758261034032192e-05, -3.758261034032192e-05, -3.758261034032192e-05, -3.0508236629202496e-05, 0.0, 0.0, 0.0, 0.0, 0.0, 0.0, 0.0, 0.0, 0.0, 0.0, 0.0, 0.0, 0.0, 0.0, 0.0, 0.0, 0.0, 0.0, 0.0, 0.0, 0.0, 0.0, 0.0, 0.0, 0.0, 0.0, 0.0, 0.0, 0.0, 0.0, 0.0, 0.0, 0.0, 0.0, 0.0, 0.0, 0.0, 0.0, 0.0, 0.0, 0.0, 0.0, -0.0002061742428743579, -0.00028608472765927667, -0.00028608472765927667, -0.00028608472765927667, -0.00028608472765927667, -0.00028608472765927667, -0.00028608472765927667, -0.00028608472765927667, -0.00028608472765927667, -0.0003387405758562935, -0.0004878197574067793, -0.0007543986548520244, -0.0008518641372726401, -0.0007596882771636239, -0.0006074847508736675, -0.000563029569517572, 0.000240913609356766, 0.0003874740159410161, 0.0013369864014551726, 0.0005847504805140721, -0.0007030886395290335, -0.0008955626421958514, -0.0004132552941496817, -0.00033835064165255635, -0.00029457733003490584, -0.00028608472765927667, -0.00028608472765927667, -0.0002857899620879801, -0.00018606406402450995, 0.0, 0.0, 0.0, 0.0, 0.0, 0.0, 0.0, 0.0, 0.0, 0.0, 0.0, 0.0, 0.0, 0.0, 0.0, 0.0, 0.0, 0.0, 0.0, 0.0, 0.0, 0.0, 0.0, 0.0, 0.0, 0.0, 0.0, 0.0, 0.0, 0.0, 0.0, 0.0, 0.0, 0.0, 0.0, 0.0, 0.0, 0.0, 0.0, 0.0, 0.0, 0.0, -0.00028608472765927667, -0.00028608472765927667, -0.00026648281716805004, -0.0002746350537424887, -0.00028992147096201505, -0.0002899802377473943, -0.0002953111928313018, -0.00038091969426081633, -0.0005139905347160526, -0.000592629360974722, -0.0007028837083967856, -0.0008989358730278863, -0.00014776486517833156, 3.699339989672252e-05, 0.0001271838073683266, 0.000414258680898254, 0.000987665762834345, 0.0015144901176150174, 0.0011975007570882786, 0.00040487730639580136, -0.0006742882036649052, -0.0008550159221485938, -0.00043979993193711515, -0.00035430801689772417, -0.00031063939836488007, -0.0003106738235786101, -0.0003103761240055532, -0.00029508970678602685, -0.000283395489500429, -4.658758946707214e-05, -4.5304160256497165e-05, -2.6132936423533967e-05, -5.329069388328493e-06, 0.0, 0.0, 0.0, 0.0, 0.0, 0.0, 0.0, 0.0, 0.0, 0.0, 0.0, 0.0, 0.0, 0.0, 0.0, 0.0, 0.0, 0.0, 0.0, 0.0, 0.0, 0.0, 0.0, 0.0, 0.0, 0.0, 0.0, 0.0, 0.0, 0.0, 0.0, 0.0, 0.0, 0.0, 0.0, 0.0, 0.0, 0.0, -0.00028608472765927667, -0.0003176133978608074, -0.00020916413641216874, -0.00017535712779925448, -0.00019784247622773793, -0.0004088058152911024, -0.0006294787019071108, -0.0006210744458955468, -0.0007156727532402278, -0.0008962362358399257, -0.0010851735552898716, -0.00031269672126843246, 0.0002759577551063214, 0.0005085510913480653, 2.7842671203638495e-05, 0.00015253507921712313, 0.0004721902191693132, 0.0014254293508137543, 0.0010359457082990326, 0.0006646258285306335, 6.672775838076169e-05, 0.00010501299716258684, 0.0005343540107724309, 0.0009497931348142986, -0.0003042605430809338, -0.0005528279414050474, -0.0005480818078557497, -0.0003783659472741496, -0.00025311525326174306, -0.0001203182844643983, -0.00011934710537448202, -5.59962281520151e-05, -3.7587040492244157e-06, 0.0, 0.0, 0.0, 0.0, 0.0, 0.0, 0.0, 0.0, 0.0, 0.0, 0.0, 0.0, 0.0, 0.0, 0.0, 0.0, 0.0, 0.0, 0.0, 0.0, 0.0, 0.0, 0.0, 0.0, 0.0, 0.0, 0.0, 0.0, 0.0, 0.0, 0.0, 0.0, 0.0, 0.0, 0.0, 0.0, 0.0, 0.0, -0.00028608472765927667, -0.00033247959527396185, -0.0001965167112234288, -0.00011030938464668277, -0.00019991818582856797, -0.000521962782621036, -0.0006882078659340632, -0.0008158698076635243, -0.0009570474530943027, -0.0009676546277433383, -0.001165106280095686, -0.00038489733314219193, 0.00013625583920847246, 0.00047069097413168494, 0.0006272537627739116, 0.0012811390627585737, 0.0018046424215937794, 0.0021339432587525317, 0.0023734543407942484, 0.0014372735539089157, 0.0004444691203019105, 0.00010220156438577572, 0.000488282713948553, 0.0007315755976273934, -0.0004120088507307729, -0.000558033784816558, -0.0005559810178869047, -0.0003464119958783205, -0.00012729382874447444, -0.00012063053458505693, -0.00011934710537448202, -3.740062590621013e-05, 0.0, 0.0, 0.0, 0.0, 0.0, 0.0, 0.0, 0.0, 0.0, 0.0, 0.0, 0.0, 0.0, 0.0, 0.0, 0.0, 0.0, 0.0, 0.0, 0.0, 0.0, 0.0, 0.0, 0.0, 0.0, 0.0, 0.0, 0.0, 0.0, 0.0, 0.0, 0.0, 0.0, 0.0, 0.0, 0.0, 0.0, 0.0, 0.0, -0.00028608472765927667, -0.0003685003325812592, -0.00023824301981512785, -0.0002660815899295218, -0.00045524641060803187, -0.0007859967988592262, -0.0009832242086824621, -0.0008155929033684212, -0.0008335681629944051, -0.0011396389306869623, -0.0012624287556046992, -0.0013348621169766949, -0.0003877684711171264, 0.0005148507945020184, 0.0014689929274271675, 0.0027813072417322547, 0.0041811769236758745, 0.003858435003396164, 0.002586648069167963, 0.0015491762024240768, 0.0006037529885244703, -0.00017758395319065725, -2.190786540473337e-05, 0.0005320185116081922, -0.0007197566938837086, -0.0004596318695279161, -0.0004978851203847282, -0.00017610531121383665, -0.00012063053458505693, -0.00012063053458505693, -0.00011934710537448202, -1.5156011838300963e-05, 0.0, 0.0, 0.0, 0.0, 0.0, 0.0, 0.0, 0.0, 0.0, 0.0, 0.0, 0.0, 0.0, 0.0, 0.0, 0.0, 0.0, 0.0, 0.0, 0.0, 0.0, 0.0, 0.0, 0.0, 0.0, 0.0, 0.0, 0.0, 0.0, 0.0, 0.0, 0.0, 0.0, 0.0, 0.0, 0.0, 0.0, 0.0, 0.0, -0.00028608472765927667, -0.0003866239739937357, -0.00031700381413751023, -0.000422335651467924, -0.0006886707636257933, -0.0009786007507377051, -0.0009111788778204253, -0.0007702148952200677, -0.0012473917651508392, -0.0014039645948422587, -0.001798061815780441, -0.001800221479038509, -0.001001412268493665, -0.0005260706133444868, 0.0013071798031343393, 0.004403985010534623, 0.00429560710787996, 0.0046814493999144296, 0.004379832340521459, 0.0026625711591333483, 0.001243366445282172, -0.0003418658177263713, -0.00018605528253337047, 0.0002955121489612468, -4.790648521718077e-06, 0.00045558828404600556, -0.00048597874299404636, -0.0001324843032864161, -0.00012063053458505693, -0.00012063053458505693, -0.0001107039345108375, -1.0739154426355476e-06, 0.0, 0.0, 0.0, 0.0, 0.0, 0.0, 0.0, 0.0, 0.0, 0.0, 0.0, 0.0, 0.0, 0.0, 0.0, 0.0, 0.0, 0.0, 0.0, 0.0, 0.0, 0.0, 0.0, 0.0, 0.0, 0.0, 0.0, 0.0, 0.0, 0.0, 0.0, 0.0, 0.0, 0.0, 0.0, 0.0, 0.0, 0.0, 0.0, -0.00028608472765927667, -0.00040840415345535505, -0.00047425989999178665, -0.0006449193598130897, -0.0008282975378828209, -0.000916410547156505, -0.0008867308477535242, -0.0010697183087693275, -0.0015174931449451249, -0.0015717552904926757, -0.0014229144346501786, -0.0015470099926569781, -0.0007224213838913383, 0.0007300316577028052, 0.0035698082125968714, 0.003432339382065934, 0.0022408182457091612, 0.003515454659657355, 0.003634041415342595, 0.002271384043054144, 0.0016952183999940215, 0.0007279523569775274, 0.001042336741319178, 0.0010297731112905184, -3.467640950107627e-05, 0.0002572499253853649, -0.0005927397285905325, -0.00021062856149684005, -0.00015895564566904805, -0.00014861362167655523, -0.00011471583023545737, -2.0536376393813755e-05, 0.0, 0.0, 0.0, 0.0, 0.0, 0.0, 0.0, 0.0, 0.0, 0.0, 0.0, 0.0, 0.0, 0.0, 0.0, 0.0, 0.0, 0.0, 0.0, 0.0, 0.0, 0.0, 0.0, 0.0, 0.0, 0.0, 0.0, 0.0, 0.0, 0.0, 0.0, 0.0, 0.0, 0.0, 0.0, 0.0, 0.0, 0.0, 0.0, -0.00028679182932535774, -0.0004793541199083211, -0.0005887109871814979, -0.0007714572988360236, -0.0008192882894135057, -0.0008975941276938785, -0.0011988470520395544, -0.001437429221404585, -0.001800145096873975, -0.0021379893784092907, -0.0024131843751610915, -0.0023608745040773504, 2.2543891348061344e-05, 0.0037517394481733917, 0.004991081253727056, 0.004059656247715377, 0.0032686562598616743, 0.0032871353870547407, 0.0050586774469073455, 0.003447455962404434, 0.0020414841670796957, 0.0006572459601609912, 0.00021493835492109481, 0.00045647789724352557, -0.0004270950352201834, -0.00017642026349284226, -0.0010478179133425038, -0.0005276450654562782, -0.0002564251437990912, -0.00020795073031464124, -0.00010173280102728924, -1.0900825384394035e-05, 0.0, 0.0, 0.0, 0.0, 0.0, 0.0, 0.0, 0.0, 0.0, 0.0, 0.0, 0.0, 0.0, 0.0, 0.0, 0.0, 0.0, 0.0, 0.0, 0.0, 0.0, 0.0, 0.0, 0.0, 0.0, 0.0, 0.0, 0.0, 0.0, 0.0, 0.0, 0.0, 0.0, 0.0, 0.0, 0.0, 0.0, 0.0, 0.0, -0.0003306214222896689, -0.00057338972000127, -0.0007230545684026605, -0.000673316766573936, -0.0006856244530728879, -0.0008990868818112685, -0.0013163968498592332, -0.0013998474295642872, -0.001353321818233554, -0.0021306657641855615, -0.003071937791377421, -0.0021804688876125057, 0.0013741315448423364, 0.0041084812572237395, 0.00394121498899525, 0.0045108790927700865, 0.0044836994358646125, 0.0034477373967570033, 0.005503334929473292, 0.0038990107421580937, 0.0021496475912982883, -0.0006223766288132624, 0.00012954634868913916, 0.0001561680014178393, -0.00046629275312588884, -0.00027787645557284614, -0.0012404011871576294, -0.0007438704088859902, -0.00034809893965705955, -0.00020150692238834933, -9.205933477176246e-05, -1.946575961498935e-06, 0.0, 0.0, 0.0, 0.0, 0.0, 0.0, 0.0, 0.0, 0.0, 0.0, 0.0, 0.0, 0.0, 0.0, 0.0, 0.0, 0.0, 0.0, 0.0, 0.0, 0.0, 0.0, 0.0, 0.0, 0.0, 0.0, 0.0, 0.0, 0.0, 0.0, 0.0, 0.0, 0.0, 0.0, 0.0, 0.0, 0.0, 0.0, 0.0, -0.0003949313674387282, -0.0006910078288289437, -0.0007844471135294727, -0.0006141835750987603, -0.0006848755209342396, -0.0010224131524645779, -0.001364770872563276, -0.0012903455673088308, -0.001308747795300647, -0.0025878925474202862, -0.002328377573876343, -0.0005691743856875775, 0.002821091417262218, 0.005005109195389658, 0.004902129701016685, 0.0025618199910425864, -0.0011353115504397907, -0.0008646783042551742, 0.0023809143474764114, 0.0025533950169032175, 0.0023363403037235217, -0.0010111514280415077, -0.0007886279541195826, -0.00025716266039403797, -0.0004158118237737473, -0.00020580510364279035, -0.0013775119676418563, -0.000879943014607383, -0.000431892424654928, -0.00019177635695006258, -9.141645759096625e-05, 0.0, 0.0, 0.0, 0.0, 0.0, 0.0, 0.0, 0.0, 0.0, 0.0, 0.0, 0.0, 0.0, 0.0, 0.0, 0.0, 0.0, 0.0, 0.0, 0.0, 0.0, 0.0, 0.0, 0.0, 0.0, 0.0, 0.0, 0.0, 0.0, 0.0, 0.0, 0.0, 0.0, 0.0, 0.0, 0.0, 0.0, -4.8486963939489443e-05, -5.422717701951725e-05, -7.909658817929027e-05, -0.0005616362246185152, -0.0008858296574464399, -0.0008624849859481155, -0.0006831956925735332, -0.0008373357990867517, -0.00028500964719281087, -0.0007446752859733757, -0.0004268578379463648, -0.0008105725874294471, -0.001618558697205073, 0.000479838318580972, 0.001970446530029239, 0.004626292459950107, 0.005803900965466535, 0.0035823712682578556, -0.0021510036970111986, -0.0038232498617809265, -0.002252778768196228, 0.0010567016670347095, 0.0020352998609715366, 0.002795975772749553, -0.001041912543847277, -0.001938940974561267, -0.0012285386465872732, -0.0010877837020559404, -0.0005683081397328415, -0.0017372161235799173, -0.0011524544596139205, -0.0007123418732982124, -0.0003263868228008279, -0.00018997827092656129, -8.280804616994526e-05, -5.4181166467461637e-05, -4.5660326171896316e-05, 0.0, 0.0, 0.0, 0.0, 0.0, 0.0, 0.0, 0.0, 0.0, 0.0, 0.0, 0.0, 0.0, 0.0, 0.0, 0.0, 0.0, 0.0, 0.0, 0.0, 0.0, 0.0, 0.0, 0.0, 0.0, 0.0, 0.0, 0.0, 0.0, 0.0, 0.0, 0.0, 0.0, 0.0, -5.424053957533489e-05, -9.090262511694535e-05, -9.47767438354172e-05, -0.0006200963749499351, -0.0009717878989766826, -0.001058820251840974, -0.0009330399170496001, -0.0013738394262800158, -0.0013056289479088982, -0.0018247695011047124, -0.001473796863491061, 7.708656373449707e-05, 0.00040745261668078146, -0.00031157157368761793, 0.000700468168862024, 0.0030939254662928333, 0.0022835820694416227, -0.003959581343296387, -0.009269588979199902, -0.0031079539799268186, -0.00046083468977465116, 1.5937056285537497e-05, 0.0020422266164386756, 0.003693297177184178, -0.0010492683491687747, -0.0010031388129505007, -0.00033508377177511047, 0.0007063638519462782, -0.0019767968464240305, -0.0028020053227230013, -0.0020198841533525143, -0.0014844663628235198, -0.0006955672244322733, -0.0003153306732806567, -0.00018531941338856218, -0.00010133941854777043, -4.531467587720102e-05, 0.0, 0.0, 0.0, 0.0, 0.0, 0.0, 0.0, 0.0, 0.0, 0.0, 0.0, 0.0, 0.0, 0.0, 0.0, 0.0, 0.0, 0.0, 0.0, 0.0, 0.0, 0.0, 0.0, 0.0, 0.0, 0.0, 0.0, 0.0, 0.0, 0.0, 0.0, 0.0, 0.0, 0.0, -0.00012569420183389444, -0.00014117278510768376, -0.00014117278510768376, -0.0006489665705743925, -0.001092243414961401, -0.00122340237890807, -0.0013810838917355794, -0.0021898642231731828, -0.0020976241275484954, -0.0028993239888065437, -0.0025426072282718364, 0.00046742457866400444, -0.0003463995396118968, -0.001962442095798493, -0.0006481625721180492, 0.0015037637960767737, 0.00034273943852692354, -0.0033487824898484194, -0.0031938764304176182, 0.006166253717880542, 0.005262944810027501, 0.002592096816736124, 0.0023942823604419534, 0.0024411755474900397, -0.0012913393509555555, -0.0033731119530405443, -0.0022624879203692497, -0.0005443050346961728, -0.00256608483941682, -0.0036531803224524903, -0.002563263939991275, -0.0018122440149219508, -0.0007382012131185528, -0.00035268072875190384, -0.00021506088977544114, -0.00011721099276760468, -6.262104498530478e-05, 0.0, 0.0, 0.0, 0.0, 0.0, 0.0, 0.0, 0.0, 0.0, 0.0, 0.0, 0.0, 0.0, 0.0, 0.0, 0.0, 0.0, 0.0, 0.0, 0.0, 0.0, 0.0, 0.0, 0.0, 0.0, 0.0, 0.0, 0.0, 0.0, 0.0, 0.0, 0.0, 0.0, 0.0, -0.00013838783768088079, -0.00014117278510768376, -0.0001795392628745244, -0.0004911513265994547, -0.001007378628679711, -0.0014069102386804195, -0.0016403344882470815, -0.002974381962254434, -0.0026725869374554416, -0.0033730277889784588, -0.002973422748022341, -0.0014153406576787617, -0.0013854424299359154, -0.0011761097847652687, -0.000887849814344989, -0.00021642947042246782, 0.0008724684296086901, -0.0013431710519703067, 0.0016200860741532705, 0.012221626906340913, 0.008278180611900216, 0.0057491411773297856, 0.003957883440216464, 0.0022037343382970503, -0.0032244063044507523, -0.0046189153320147875, -0.0034207582117248077, -0.0020671674890399114, -0.0027481624526682095, -0.00458609987185569, -0.003639710870718591, -0.0021314985078952587, -0.0009023523986304899, -0.00044946863006941603, -0.00027272478172813547, -0.00015636651700902005, -0.00010515985454599224, -2.863587992650734e-05, 0.0, 0.0, 0.0, 0.0, 0.0, 0.0, 0.0, 0.0, 0.0, 0.0, 0.0, 0.0, 0.0, 0.0, 0.0, 0.0, 0.0, 0.0, 0.0, 0.0, 0.0, 0.0, 0.0, 0.0, 0.0, 0.0, 0.0, 0.0, 0.0, 0.0, 0.0, 0.0, -1.2663260027939887e-07, -0.00015738161530801534, -0.0001654357791910144, -0.0002212740956438108, -0.0005595811855674824, -0.0010594381597260067, -0.0015317090568036664, -0.0018268861071305586, -0.003082318235199086, -0.0033197903323921116, -0.003762601060588499, -0.003543093991231611, -0.0027127586964545334, -0.001257246857036106, -0.0025140399411729642, -0.00527565007735905, -0.0029274001010040993, 0.0005697217492720914, 0.001938413918300378, 0.006628651515067524, 0.01829995968516363, 0.01463346755059025, 0.012352333917782178, 0.007385644643156387, 0.003645494119038509, -0.0045445097249514664, -0.004794624940956948, -0.0031940229459641776, -0.0024993569414196917, -0.0035649571355501745, -0.005221406858462927, -0.004185390673351119, -0.0025829110063301116, -0.0010807259920894425, -0.0006159374254095532, -0.00034959218187795857, -0.00019315350527399923, -0.00011621410780390232, -3.7240948319383296e-05, -1.943554219885307e-06, 0.0, 0.0, 0.0, 0.0, 0.0, 0.0, 0.0, 0.0, 0.0, 0.0, 0.0, 0.0, 0.0, 0.0, 0.0, 0.0, 0.0, 0.0, 0.0, 0.0, 0.0, 0.0, 0.0, 0.0, 0.0, 0.0, 0.0, 0.0, 0.0, 0.0, 0.0, -1.2663260027939887e-07, -0.00015738161530801534, -0.00016762447206051208, -0.00029301158244052103, -0.0006636253937079328, -0.0008920056240474733, -0.0006289143454016045, -0.0009314431854005549, -0.002308972197603606, -0.003887149593673151, -0.004980253574549658, -0.006090043009130362, -0.006217572112310765, -0.0036570113826044255, -0.007566756706094142, -0.012832610320203755, -0.01226309926270248, -0.006044567902982461, -0.0036236941776320907, -2.2264547755053252e-05, 0.014251320831121024, 0.01235436826174289, 0.011145609411312919, 0.008019450743182756, 0.0027355635942489347, -0.01028384018635177, -0.007206557873285552, -0.005193252532786538, -0.003961801285893019, -0.00528071956712085, -0.005776533186009979, -0.004964454962095789, -0.003006279232915635, -0.0015184738994338297, -0.0009158951510737321, -0.0005364594663882374, -0.00030131856012815465, -0.0001774213373172538, -3.974672132637023e-05, -1.943554219885307e-06, 0.0, 0.0, 0.0, 0.0, 0.0, 0.0, 0.0, 0.0, 0.0, 0.0, 0.0, 0.0, 0.0, 0.0, 0.0, 0.0, 0.0, 0.0, 0.0, 0.0, 0.0, 0.0, 0.0, 0.0, 0.0, 0.0, 0.0, 0.0, 0.0, 0.0, 0.0, -1.2663260027939887e-07, -0.00015738161530801534, -0.0002248283822856801, -0.00034593090276319925, -0.0006580153595019278, 1.7844393978508197e-05, -0.0005602595207176919, -0.0015504828831823282, -0.003397215017804482, -0.005098412560229016, -0.007613325522613309, -0.0088483246211638, -0.009584803163927265, -0.008455176737846203, -0.014247186827216318, -0.015976584277947726, -0.015052941170863044, -0.006224069119807524, 0.0021248014807480507, 0.010809772096023386, 0.03205361743306927, 0.023768461658813404, 0.018613134655607832, 0.007944155805785814, -2.5801177102386168e-05, -0.012588467713287818, -0.012506546451640534, -0.00911103932524455, -0.005523180443322773, -0.008122205722629871, -0.008055688519010566, -0.006274141974586788, -0.0034849556537548663, -0.001986886495879536, -0.0011491828354723672, -0.0005538065697814298, -0.00031881457570190135, -0.00021129594201973244, -6.237905825535436e-05, -2.8547444042441895e-06, 0.0, 0.0, 0.0, 0.0, 0.0, 0.0, 0.0, 0.0, 0.0, 0.0, 0.0, 0.0, 0.0, 0.0, 0.0, 0.0, 0.0, 0.0, 0.0, 0.0, 0.0, 0.0, 0.0, 0.0, 0.0, 0.0, 0.0, 0.0, 0.0, 0.0, 0.0, -1.2663260027939887e-07, -0.00016834572123968815, -0.0002797803085263302, -0.00036228651340654186, -0.0006328823523807221, 6.95047092359159e-05, -0.0007774450550626895, -0.0017233067179211528, -0.0034226655056339285, -0.005093276227515928, -0.008331285195511195, -0.009795729276342263, -0.010757672619001858, -0.012248087176314317, -0.016640690367547294, -0.020095248524818587, -0.014146821275576137, 0.005805346982183409, 0.01900387477889147, 0.030806981388757773, 0.04938413827063571, 0.04013968793223807, 0.024978299569244602, 0.0028983685125207595, -0.00476720849410189, -0.017415858030256276, -0.019466998509418864, -0.013701499904478264, -0.00870145304092733, -0.009583693694866635, -0.009119613863998913, -0.006980981502789105, -0.003846303865925682, -0.002398052265799694, -0.0013936727877458808, -0.0006043974975607301, -0.00032295707278859873, -0.000233225208553149, -7.973769176236797e-05, -1.583920453135827e-05, 0.0, 0.0, 0.0, 0.0, 0.0, 0.0, 0.0, 0.0, 0.0, 0.0, 0.0, 0.0, 0.0, 0.0, 0.0, 0.0, 0.0, 0.0, 0.0, 0.0, 0.0, 0.0, 0.0, 0.0, 0.0, 0.0, 0.0, 0.0, 0.0, 0.0, 0.0, -1.2663260027939887e-07, -0.00018473160143947086, -0.00026950778885612034, -0.00032078034276433135, -0.0006012386114950006, -0.0006544956031835242, -0.0012227601327724597, -0.0017836726325569246, -0.0032071127026440664, -0.005546280624094634, -0.008372289066888368, -0.010483420779064204, -0.010783758571604045, -0.014672371894146044, -0.021548711189949592, -0.020535116231006508, -0.010128906859811668, 0.006924607961652587, 0.025544703717568833, 0.04241901086268181, 0.06125150877666532, 0.0460900249083846, 0.02559563141566396, 0.0034288502617515156, -0.009575008549577444, -0.02122812408187889, -0.022299636407419374, -0.017064471569036885, -0.011986973748603356, -0.01077904756006266, -0.010270126786989835, -0.007304448158767425, -0.004247076636993984, -0.002480040767994748, -0.0014163778833602932, -0.0006281405714854395, -0.0003155865895667548, -0.0002167899029481369, -8.502912092956235e-05, -2.8720179431907205e-05, 0.0, 0.0, 0.0, 0.0, 0.0, 0.0, 0.0, 0.0, 0.0, 0.0, 0.0, 0.0, 0.0, 0.0, 0.0, 0.0, 0.0, 0.0, 0.0, 0.0, 0.0, 0.0, 0.0, 0.0, 0.0, 0.0, 0.0, 0.0, 0.0, 0.0, 0.0, -1.2663260027939887e-07, -0.00020459848353924506, -0.00026864195733234623, -0.00031923589753819076, -0.0006223226316291582, -0.0010321390660719913, -0.002398680882901962, -0.0032307509368599487, -0.005113879759893449, -0.006473851833265356, -0.007332772025827928, -0.00870287640573673, -0.012133967603232215, -0.015576805520761712, -0.0170927101809132, -0.016508090056532285, -0.0042182397356617185, 0.016835105731627352, 0.029808505130034264, 0.05160187116343541, 0.06940378793367398, 0.052614406747572964, 0.027414173734564996, 0.0077404849073797076, -0.0060007487694034, -0.02235022843484266, -0.02558987992967578, -0.020210596057640647, -0.014026375897002749, -0.012557269016409056, -0.010591545126640733, -0.007606305986320231, -0.004804110591990633, -0.0027498043780210266, -0.001423076788419068, -0.0006430721745683923, -0.00033553430554206676, -0.00023331490021712422, -8.519367236825047e-05, -3.619128773194118e-05, -3.872558283525253e-06, 0.0, 0.0, 0.0, 0.0, 0.0, 0.0, 0.0, 0.0, 0.0, 0.0, 0.0, 0.0, 0.0, 0.0, 0.0, 0.0, 0.0, 0.0, 0.0, 0.0, 0.0, 0.0, 0.0, 0.0, 0.0, 0.0, 0.0, 0.0, 0.0, 0.0, -1.2663260027939887e-07, -0.00021986342985948613, -0.0002680633883623412, -0.00033149248813859656, -0.0006157255580229724, -0.0011734489512834805, -0.002311929736510951, -0.003343402178494597, -0.004733951352464234, -0.006230957696577605, -0.00616627710473572, -0.009305513241784228, -0.013063363542051535, -0.01299009949032536, -0.011898900102831378, -0.006194178252432386, 0.0025099757560280932, 0.02164549170064758, 0.03980605503105879, 0.05953721110695721, 0.07754857949302307, 0.061194292996642585, 0.033248204049603707, 0.012141183360282862, -0.003233929624191094, -0.02190867028793953, -0.028487816095355847, -0.023008945135351875, -0.016303517821899594, -0.013863964180648003, -0.011758834138170773, -0.008280081368958294, -0.005329306288665335, -0.002871856263685017, -0.0014355037192102633, -0.0006655928315441, -0.00036265102137567317, -0.00023818134415884619, -8.844713081473971e-05, -3.768333783050403e-05, -8.20071165922995e-06, 0.0, 0.0, 0.0, 0.0, 0.0, 0.0, 0.0, 0.0, 0.0, 0.0, 0.0, 0.0, 0.0, 0.0, 0.0, 0.0, 0.0, 0.0, 0.0, 0.0, 0.0, 0.0, 0.0, 0.0, 0.0, 0.0, 0.0, 0.0, 0.0, 0.0, -1.2663260027939887e-07, -0.00021260503388578035, -0.00025475623910259956, -0.00033403558721642197, -0.0006224265724732237, -0.0013330604099889437, -0.002396109075423666, -0.0034403385801278843, -0.004581259071582882, -0.006172640111867345, -0.0058399844172163946, -0.0087367411598764, -0.008083554992821481, -0.007217544600478465, -0.002835670779530284, -0.0027312505538372315, 0.003580033034803789, 0.025097142086046832, 0.03910967565180753, 0.057009110546000295, 0.077412631675112, 0.06546114751165764, 0.04161824845801713, 0.016913784132207232, -0.0031943552841035287, -0.022382863419896225, -0.029351134709131123, -0.02299966039595062, -0.01612839154536728, -0.013792248759127435, -0.012206421757260475, -0.00829566584346992, -0.0053773855661704536, -0.002775461376550016, -0.0013876447909232624, -0.0006714028292839685, -0.00038460870385201437, -0.0002320294450332042, -9.320311215747138e-05, -3.89309252591107e-05, -1.0250889574037434e-05, 0.0, 0.0, 0.0, 0.0, 0.0, 0.0, 0.0, 0.0, 0.0, 0.0, 0.0, 0.0, 0.0, 0.0, 0.0, 0.0, 0.0, 0.0, 0.0, 0.0, 0.0, 0.0, 0.0, 0.0, 0.0, 0.0, 0.0, 0.0, 0.0, 0.0, -5.278816925563347e-07, -0.00020506422703655161, -0.000245683668023855, -0.0003334863071505645, -0.0006208693201793951, -0.001499886898159237, -0.002520445945762364, -0.00344799516703011, -0.005213776580298519, -0.00683081852342971, -0.007470621901501904, -0.009230436125883177, -0.005324988700149758, -0.004717047113887221, -0.004293077221936759, -0.0028209733922472764, 0.003303355297737434, 0.016958369301977427, 0.033454790042387626, 0.05375597247302048, 0.07358587982810241, 0.06360805429987729, 0.04136612889523457, 0.01911715378675351, -0.0029589565745255053, -0.023211354220084007, -0.03011321764907371, -0.023703367574329635, -0.015750675300435592, -0.01356780967542093, -0.012427248972954363, -0.008337648637196724, -0.005199416539465289, -0.0027684546845723143, -0.0013900993630839359, -0.0006995867764244324, -0.00039239461291841926, -0.00022256911883661136, -9.549100730479289e-05, -3.927782835148513e-05, -1.0706484666216878e-05, 0.0, 0.0, 0.0, 0.0, 0.0, 0.0, 0.0, 0.0, 0.0, 0.0, 0.0, 0.0, 0.0, 0.0, 0.0, 0.0, 0.0, 0.0, 0.0, 0.0, 0.0, 0.0, 0.0, 0.0, 0.0, 0.0, 0.0, 0.0, 0.0, 0.0, -5.278816925563347e-07, -0.00019005498449046964, -0.00023131873375065016, -0.0003047015069508886, -0.0006313902053832973, -0.0015316747343326995, -0.0025851757236679137, -0.0034820879108874085, -0.005327323777250503, -0.007001329848370847, -0.009607734199734774, -0.010555616925425315, -0.008431951015381937, -0.00647332982663092, -0.006697577049797793, -0.006610189204065102, -0.0035152867010128036, 0.01098627507940088, 0.02616974537653871, 0.04845884769301957, 0.07090347323552815, 0.05749841035511956, 0.03959984062631064, 0.021039986961865622, -0.00022082700348109542, -0.02153859427168168, -0.02934125989883403, -0.023858513162319968, -0.016057898240674003, -0.013874445300523858, -0.012602881129230727, -0.008637676640751542, -0.005000051299587111, -0.002728037003819873, -0.0013356323171355336, -0.000658309786389581, -0.00037527095320498313, -0.0002259477288350438, -9.671859081485737e-05, -3.927782835148513e-05, -1.0706484666216878e-05, 0.0, 0.0, 0.0, 0.0, 0.0, 0.0, 0.0, 0.0, 0.0, 0.0, 0.0, 0.0, 0.0, 0.0, 0.0, 0.0, 0.0, 0.0, 0.0, 0.0, 0.0, 0.0, 0.0, 0.0, 0.0, 0.0, 0.0, 0.0, 0.0, 0.0, -5.278816925563347e-07, -0.0001863066043055028, -0.0002329598165974981, -0.00028686496641442446, -0.000682357362944244, -0.0014790056461716709, -0.00260712652218318, -0.0034681792890957006, -0.0053541779819460105, -0.006844056394954498, -0.009727217572589628, -0.012244811834715747, -0.01059597852978315, -0.00920568507242949, -0.010594577953446198, -0.013121869917397975, -0.008144785382501839, 0.0021068509285246916, 0.016086282514311146, 0.04158445054120721, 0.06363548815548035, 0.05180511978991693, 0.03745092728949092, 0.01920226676708731, 0.00029772568941787743, -0.021196358813615392, -0.028983223535426872, -0.022936105537094017, -0.017175330557083757, -0.014448391074418983, -0.012511139109456495, -0.008643540477405294, -0.004859017430412274, -0.002649670619032415, -0.0013686486548758158, -0.0006519896023737349, -0.0003712935278938031, -0.00021608759029232506, -9.801715159829816e-05, -3.927782835148513e-05, -1.0706484666216878e-05, 0.0, 0.0, 0.0, 0.0, 0.0, 0.0, 0.0, 0.0, 0.0, 0.0, 0.0, 0.0, 0.0, 0.0, 0.0, 0.0, 0.0, 0.0, 0.0, 0.0, 0.0, 0.0, 0.0, 0.0, 0.0, 0.0, 0.0, 0.0, 0.0, 0.0, -5.278816925563347e-07, -0.00018473033493347532, -0.00023866923142528535, -0.0002836669060467117, -0.0007281540341067436, -0.0014545645584971996, -0.0024806314598905814, -0.003246853622014966, -0.005238788166749905, -0.006477477876942381, -0.009954171970207468, -0.013597689167204855, -0.013765294207730752, -0.009069524928415708, -0.011824084881595778, -0.0179626505657964, -0.01654434551056733, -0.005594627629519962, 0.011806033192335785, 0.038640046784500975, 0.06487422774184326, 0.05152303956266943, 0.03801919610028166, 0.016373537968439468, -0.000879662756504625, -0.02114923739303207, -0.028162474617661325, -0.022106205761176688, -0.017208367159206473, -0.01448658821414837, -0.012266780805655759, -0.00828588873691073, -0.004694850483005166, -0.002538189802752557, -0.0013899611159042464, -0.0006541363603037629, -0.00032685197014316, -0.00020679943994808474, -9.836380650051734e-05, -4.130459352756175e-05, -1.0706484666216878e-05, 0.0, 0.0, 0.0, 0.0, 0.0, 0.0, 0.0, 0.0, 0.0, 0.0, 0.0, 0.0, 0.0, 0.0, 0.0, 0.0, 0.0, 0.0, 0.0, 0.0, 0.0, 0.0, 0.0, 0.0, 0.0, 0.0, 0.0, 0.0, 0.0, 0.0, -3.544301463691196e-07, -0.000166725891721437, -0.00023008028910347805, -0.00028926004340863265, -0.0007475674132049254, -0.001483227795114065, -0.0024356533765919853, -0.0032306664202069227, -0.005279693156105714, -0.006938729992296558, -0.010428965581778808, -0.013340456696130886, -0.015492186799579252, -0.013920357978386096, -0.017012629576832097, -0.02452942854242866, -0.02497646067140301, -0.014700209318221084, 0.0048235804789816756, 0.03329993531373576, 0.06374449286188473, 0.04911743309547364, 0.03536331330364218, 0.012385048931794748, -0.003265234845451006, -0.021889728483499717, -0.02690396588342895, -0.022115126617227733, -0.016431107951534324, -0.013973487559601589, -0.011568313024709115, -0.00806598527386558, -0.004391479260180453, -0.0025278461108677176, -0.0013800351618578899, -0.0006209491998975526, -0.0003098340329474887, -0.00020340615263195032, -9.802289071121062e-05, -4.069125164304803e-05, -1.0706484666216878e-05, 0.0, 0.0, 0.0, 0.0, 0.0, 0.0, 0.0, 0.0, 0.0, 0.0, 0.0, 0.0, 0.0, 0.0, 0.0, 0.0, 0.0, 0.0, 0.0, 0.0, 0.0, 0.0, 0.0, 0.0, 0.0, 0.0, 0.0, 0.0, 0.0, 0.0, -3.544301463691196e-07, -0.00014831053526191885, -0.00023123013079407226, -0.0003039121850805719, -0.0007934416283452455, -0.0014717209810516491, -0.0021822384751120586, -0.0029967293085342945, -0.004852577727006329, -0.007282723484374252, -0.010164058958174465, -0.01306729219363927, -0.01639434883247817, -0.01775062310503142, -0.020898541766878605, -0.028200034019588167, -0.033505111576380676, -0.021473991168869163, -0.0013931628471645827, 0.02886186826058588, 0.061261149634753806, 0.04460285133002684, 0.029624230830659886, 0.009649860319213586, -0.006572498473563377, -0.02364270548466014, -0.026565515208552434, -0.021436737192002883, -0.016025003601725447, -0.013543983711543441, -0.011302096324496328, -0.008015288238415404, -0.004246872033843718, -0.002478482650878059, -0.0013913993578693223, -0.0006161863798742639, -0.00031047215809661604, -0.0002041340913376497, -0.00010135980452509417, -4.386916821844547e-05, -1.5639790662055122e-05, -5.769948533144153e-08, 0.0, 0.0, 0.0, 0.0, 0.0, 0.0, 0.0, 0.0, 0.0, 0.0, 0.0, 0.0, 0.0, 0.0, 0.0, 0.0, 0.0, 0.0, 0.0, 0.0, 0.0, 0.0, 0.0, 0.0, 0.0, 0.0, 0.0, 0.0, 0.0, -3.544301463691196e-07, -0.00013266150058469716, -0.00022797214506097355, -0.0003449313112241595, -0.0006444488256187876, -0.001046576833465622, -0.0018499923250145842, -0.0027297322001661843, -0.004818380783525097, -0.006871827824650266, -0.009068842407533698, -0.012235864105453645, -0.01693661600052561, -0.021506280120245594, -0.0273555223352667, -0.03643593548939537, -0.038425164273080285, -0.027415494169014575, -0.007644137756300153, 0.025177794007468685, 0.057118997461363334, 0.04013940745438244, 0.025319550439626564, 0.005273522412966317, 